svm_type c_svc
kernel_type gkm_esttrunc
L 10
k 6
d 3
nr_class 2
total_sv 958
rho 0.379216
label 1 -1
nr_sv 435 523
SV
0.3963236613005489 GCGGGCGCGGAGGCGGGCGGGGAGGCCCCGCAGCCCGCGCCGCCGCCAGCCGCCCCGAGCCGCGTGCGCGCGCGGCCGCATCAGCTGAGCGCGCGGCGCGTGTCACGTGGTGTGCGTGTCGAAGGTCACGGCGCGCTCACAATGGAGCTCTCGGAGTCTGTGCAGAAAGGCTTCCAGATGCTGGCGGATCCCCGCTCCTTCGACTCCAACGCCTTCACGCTTCTCCTCCGGGCGGC
0.9906438171101828 CGCGCGGCGGCTCACCACGCCAGGGACTGGCCCGTCGGCCCCGAGGAGGCGCGGGGTCCGGAGTCCGGGAAGCGGAGGCCTCGTGATCCAAGACCGGCAGCCGGACGTGGGTCACGGGGTGCAGAGGAGGAAGTGCCATTGCCGGGCCCGCCAAGATGTCACCAATGGGAAACGCGTGCCTGCAGGTGCGGCCCCGTGGCCCGCGCGCTGGGCCCAGGCAGGAAGTGGGGGAAGGA
0.9478306915311413 GTTTACACATTCTCTCAGGTTGTTGGCAGAACACAGCTCCCTAAAGCTTGAGGACTGAGGGCCCGTCTGCTGGCTGACTCCACCTGGGGCAGGCCACATGCATCTGCAGTCACATGACCCCTTCCCATCTTCAAAGCCCACTTGCGGTATCAATCTCTCTGACTTCCCTTTCTGCCACCAGTCAGAGAACGTTCTCTGCTTTTTAAGCACTTGTGGGATTCCATTGGGCCTGTATT
0.9393775402331185 AGGATCCTCAGCATGCTGACCCCCAAGTTCATGCTGGCGCTCTGCTCTTGGCTCCTGGCTCCTGGCTGCTGGCAGCGCAGGCACAATGAGCCATGTGACCCAAGGCTCTGGGGACAGGACAAGACCCACGTGACTGATGGGGAAGGAAACCACTGTCACAGCCAGGAGGCTGTTCAGTTCCTCTCAGCCTCTCTGAAGACAGGGCTGAAGGAAGCCCCTGTCATTCTGGACTCCAC
0.7476605846498298 CAGCCTTAATGACTTTATGCATATATGATTTTAAGACATTTTTGTTGCACTTTCTTTGTTAAAAAATAACTCTTTTGTGAAGAGAAATTCAATAGACCATTGAATTCAATGGACCATTAAGGCAAATCACGTGATGCCTCTGTGACTCAGGTTCTATAAATGGAGAAACTGCTTCCAGTTTGATCTTTCTCCTTTTAGGAACAATAAAAGTCTAAGGCAAGGTTTATAATCAGGGT
0.850448257915833 GTGCCTTCCCTCCCCCCGAAGAGTGTAATCTCTTTCAATTTCTTTTTTTCTCTCAGGCTCTGCACGGAATTTTCCTCTCCTCTTCATCCTGATGGTGTAATACATGATCACGTGTTTGTTGTCTTGTTTTCCTCTGGGTCACATGGGTACTTCTATTTCCTTCTCCTTTTTCATCTTTTCTCTCATTATGGTCTCTAACAAGATCCTCTCCAGGGTCCCTCTGATCTCTATGCTAA
0.1807661034031026 CTATTTAGTGTTTGAGTCCGCAAGACATACTCGTACCCTGAGCATTCGCAGTTGCTGCTCCACCACCCATTCTCTCACTGCTCACCCACGTGCTTCTGGACACTTGCTTACCAAAGTACTAGTTTGCATCACGTGACACGACTAGCAGGCCCCCTCCGCTCATGTATGACATCCCAAAGATGCCTGATTATTTTCCCTTCTTTAGGGAAAGGTGGTCCCAATCACCAACAAAACAG
0.274604424652643 CCAGCCATTACATCAGTAGGAAAAAGCAAGAGGAGAAGGAGGAAATGCCTGTTGCCTGTACGAACACTTCCTGGAAGTAACATACATTGCTCTTCTTACATTGCATTGGTCAAAACTTAGGCATGTGACCACATCAGCTTGCAGAGCAGGCTGGGAAATGTAGTCTTTCAATGTAGCTTTATCTCAGAACCATGTGCCTGCTAAAATGGGAGGTTCTGTTATGGAAGACAAGGAAA
0.03479574349410415 GATTCCGCGGCGGAGAAACCAGAAGCTAGATGGGCAGTCGCAGCGGCGGCGGCTCAACACCGCGAGGAGCGCTGGGCTCTCCGCCCTTCCCGGCCACGTGACGCCCGGGGACGCGTAGATTGGGGCAGCAGCGGGGGTCACATGTTTCCTCTGTTTCACCCTCAGTCTGTCCCCCAACCCCCCATTCTTACTCTCCCACCCTGTTTTCCTCCCTCCCCCCCTTCTTTGGGCATCTC
1 CCAGATTAGAGAAACGATGCCCCCAGCACCTCCTGGGGCTGCTTCTGGACTCGCCGCTAACACATCTGCGGCATCCTCTCGGCCACCGTAGAGTGTCCCACGTGTCCGCTTCCTCTTCCGCTACTCGCCCGCGCGTCTGTCTGTCAAGAGAGACTTCCGGCATGCCTTTTTTTTTTTTTTTTTTCCCTTTCCCCGCACCGTCACCTGGTGGCGCTTACTGGAAGCCGCACCGAGGC
0.8551881310056189 GTTTGTCTTGTTTTATTTTCCATGGGGTGCTATGTAAGTACAGTACTGACAACTATAGTACTGAAACCCTGCAAATTTACTTTTTATTATTTCAGTTTAGTTACCAAAAATTATGTGATGCATCACATGACCAATCATGCAAAAATTCGTGCTTAAGTGCCTCAGAAACTTCTCCATGGTCTAAAGGTTCAACTCAGGATGTGGTTTCCACCCCAAAGCCAGTCCCAGCTGCCACT
0.5500586808417134 AGAACCCACCGCAAAGATGGCGGTGGGACGAAGCCCCTTCTCCCGCCGCCGAAGCCTCTCGCCTCACATTTCCCACAAACCCTTCGCGCCGCCTCGCTAGCCGAAACCTGCCCAGCCGGTGCCCGGCCACTGCGCACGCGCGGGACGACGTCACGTGCGCTCCCGGGGCTGGACGGAGCTGGCAGGAGGGGCCTTGCCAGCTTCCGCCGCCGCGTCGTTTCAGGACCCGGACGGCG
0.373374426692648 GTGAGTGTGGTACCCACAGTTTTAACAACCACATGTGAAAATAAGTCTGCTCCCTGGGTTTATTTCAGTATTTAAGCACACGTGACCAGAGGGCCACTGCGTGTTGTGTGCATCCGGAAATAAACAGGGTGGTACCATCACCTGCCTGCCCATGCAGTTCCAGAAAACCACACTCAAGAGGACACGGAAATCAATATTGAAAATGAGACACTCAAGTTACCACAAAGAGCTATTTT
0.2039794652818408 CTCCGGAGGGAGGATCGCCGCCCCCAGAGGGGACAGCCCGGAGGCCCACGTACCGGATCGCGGCGCGCACAGCGCCCCGCCTGCAGGAGCCCGGGCGCGCTTCCGGGTAGGACCGCGTGATCGCGCACGTGACCGCCCGCCCCGGGAGGGGCCGGAGCCGCCGTCGCCTTCCGCGGGTTCGAGCCCCGCCCCTGCCAGGCCTTGCCCATGCCCCATTTTACAGAAGAGGAAACGGA
1 CATCATCACCCAGGCGGAGGGGAACATAAATAATAGGGATGAGACAGCAGGCTCTAGGCGGGGCCAACTTCTCAAAACTGCTGCTGTCTTCTTGAGAGGAAGGGGGAGTCATGTGACTCTGTGGTTACTGGTCACCAGGACAACGCAATTGACGTGCCCCTCTACTCTAAGCTCTAAAATGAGCTGTGTCTTCACAGCAGACCCACAAGGATTTGGCAGAAGTTTATAAATGAGAT
0.4895009474668694 GCGCTCCTCACGACGTTTTACAGCGGCTTCCAACAGGCAGTTGGAAAGGGCAGCTGGGGGCGCGGCCAGGAGGGCACGTGGTGCGAGGGACTGGCCGCGAGAAAGCGGAGCCAAAAGGGGCGGGAGCTGTGAGTCACTCCCACGCAACAGGGCAGAGGTTCGCCCCGCCTCGGCTGGCAGGGAGCTAACAGGGGAGGCGCGACGGGTCGGGACGGGCATTCGCCGGCCCCGCCCCC
0.3544862187620835 GGGCATGAACAGAGCCTTGGCGCGATGCTCCTTGGGAGGTGTAGTTTCCACGCGTCCAGCTCGAACGCTGATGCCCCAGCGCGGTGGTAAAATGAGCCCACGTGATCGGAAAAGCAGCGGTTTCCCTTTGAGCCGGAACAGGATGACTGGGTTGACCGATGCTGGGCAGCTGAGCGGACCAATCGGCCCCCTAGACTGAGACGTTGGCGTTTGAAATCAGCCAATGGCAGGTCTAC
1 TTAAAAAAAGAAAGCCATTTTATTCTACATTATTCTACAACACAAAGGGCTGTGCTCCAGTGAAATTTGAAGTGCCTCTTGTGGATTGTGCTTTGGGTAAAGTTCATTTAAATCAGGTACTTATAAATGTTAGGTCGATTACAAATATGGTGTCCCATTTTCTTTTCTAACCTAAACGAGATGTTTTAAACGAGTCTCATTCTATCCGGTAAGAATAAGGAAGGAGGCAAGTAAAC
0.6729610357344507 GCACTGTGCTTAGAGACTTACTTGAGGGACTGATGAGAGCTTGCTTTGATGCAACCTTGAGTATTTTTGCTTGTTTTTACTTTTTCTGGACACATGGTGGCGGTAGTTGTCTAGAACCACGTGACTCAATTCAGTCTACACTTGATGTTCCAACTGAAGCTTCAGGGTTGTCCTGGACCCAGGGGCTGGGGCTTGTCGGGTTTATCCTCATTCCTCGGGGGCATAGATGTGGGTTT
0.2084355069036004 GCCCAGGCACGGAGCCGCAGGAAGCTGGCACCTGACGCGCCTGCGCCCACCCAACTCGAGTTGGTGGCGCGTCACCTTCCCCTGGGATCGCCCGCAGCAGGGGCGCCCACGCACGTGCCAGTCCACGTGGCCCCGCCCTAGCGACCGTTGCTAAGGGGCGTGGCTCAGCCGCACGGAACCCGAGCCCCCGGCGACTTATAAATATTTGCGTATTCAAATGAGGCCTGGCTCCCGTT
0.6519813290199598 GATCCCTTTCTCCCGAGCCCTCTCAATTTCTCACCAGGCTTGGAGTCCCATTCTGCCCTTCCGCGGATCTGCTGTCATGTGACGGATCACATGAGCTCTATATTCCACCACCACTACCCCTCTGCCTAGTAACTAGTGACGGTACTGGCTCCTCCCTTGCATGGGTGGTCCCAAATGCTAGGCAAGGGTGGGG
0.2410543335341339 CTCCTCGGGCCAAAAGCAGAGCGCACAAATTCCAGAAGAAATTACCAACGGCGGGACTATTTCAGTGCTCCGAGAAGTATCACCAGTAACCAATCAGCAAAAAGCTCTAGCTCACGTGGTGTATATTCAGCCTATCAAGCTCCTGATATTCATGAATGCTGTCATTTCCGCTTCCGCCTCCTTCTTTCTCGACAAGATGGCCACACCGGCGGTACCAGTAAGTGCTCCTCCGGCCA
0.7730745425340252 TTATGAACATTGTGGATATAGTATGTGAAACCTTTTGTAACTGATTGTTTTGCTTTTCTTTTTGTGGAACTTGAACATTTTTCGTTTTTGAACAGAAAGACTTGTCTGTAGGAACGACAGCTCAGGCAGCCACGTGGGCTGCGGACTGTGTTTGTGGACTACATCTCCCAAAGTGCTCCGCAGGCGCGCCCACAGGAAGTCGCCGGAGCATCTCCCGCCTCCACGCCGAGGCGAAG
0.5805458584566516 CGCCGAGATTACTTTGTGATTGGAAGACTGAAAGGAACAGGCAAGACTTAAACTCGTCCACTCCAACCAGTATTTACCGAGGCCTCACGGTGGGTCAGGTGGTATACGGTGGGTAATTAGTAGCCTATCACGTGGTTTCTGTAAAATGCTTGATAGCACGTAAAACGCTTTCAGGTCGGCGTCTCGTTTCATCCTCACAACAGCCAGGTAAGGAAGATAACCCCCTGATAATAACT
0.01343708937567467 CCCAAGGAGGAGACAAAAGTCATCTTCCGGGCTGCAACATTAACCGTCATCAGCGCGCCTCTTCAGCGCGCACTGCGCCAACCCTGCGGCAGGAGGAGGCGGAGCCCCCGCTCTCGCCCCGCCCCCACCTCACGTGACCCGCACGGCGCCTCGAGGCCGGAAGCGATTGCGAGCCAGCGCGCGCGCTTCGGCGTTCCCGGCGGTCTGCGAAGTTTCCGGAGCCCGGGTCCCGCCGC
0.7535742733406521 AAATGTCAAATATAAGTCAATTCAGTCAAAGATTCACCCCTAATTTTATGAAAGTACTATAATAAATTTAATTCATTGATTGTATTCACTGATACGTTCATCAAAAGCATTCAGATCATGTGATGCATCACATGGCATTCACCTGCTCTAAAGTCTCCAATGACTTCTCACCAGAAGAATAAAACACAAACTCCTTAACGGGTACAAATCTAAAGTCCATGTTATTAACAGCTAGG
0.02071931694162579 ACCCCTTCGACTTACCTTGAGCAGGCTCTGGAGTGCTGCAAAATGCTCCGCTGTCAGGGCAGCCATCTTGCCGAAGTCACATGACCGTGGCACCCAGGGAAGCGAGGTCACGTGGCTGTCGCTGTTGTCGCGGGGCCTGCCGGGGGCTGTAGTCCTTCAGAGTGGGGGAAGGCGTTTCGGTTGTGGTGCTGCGGCA
0.70008648970258 AGTGTAAATTAGCCTGCCTGTCTTGTGCAGAAGAGAAACTGAATCTCAGGGAGATCAGCTTTGGACTCATCAGCCACCTTAACAGTTATGGCCACCCAGATAAAAGACTACATTTCCCAGCCTCCATTGCAGCTAAGAATGGCCATGTGGCCAGGCTGTAGCCAATTAGACATGAGTGAAAGTGATGTCTATAATTTTAAGGTTGTGCTCATACATGGCAGAGGTGTAGCATCCTT
0.6084093438841418 CATTGGAAAGTGTGTAATAGTCACTCAGGTGATGCTCTGAGTGAAGACAAACCTCCTAGCATCACCAGAATCCAAGCTTCTTAATAAAATCTCAGCTGTCATCCCGTGACAGCTGGCAGGCCCAGTCACGTGGGCTCCAGCGTCTGGTGCCTTAGCAGTTGGATGCTGGCTCCCTCTGGTGGCCTGAGGTGCCGCTGCACCTAGCTGGGTGCCCAGCTCCCAGGCTGCCTCATTCA
0.2082203818161499 AACCCGCCCTCGACACCCGCCGACGGGCGCTCGCTCTCTCACCCGGCTCTATAGCAGCCGGGAACACCGACGAGAAGAAAGCCGAGGGGAAGCGGAAGTGCCGGATCTGTTTGGGTCACGTGGGGGCGGATGTCGACGGGTGCCGCTGAGAACCATAAAACTTCTGGCCCTGCTGCCAGGACTTTCCGTGGGTGGGAACAGGGAGGCAACCCACCAAGCCAAGGCGCCAGGCTGCT
0.843740539363679 GTGTGAGCCACCTTGCCTGGCTAAATCTGGTTCATTTTCTTCCTGACACACAAACTACAGTTCCCAGCTTCTCCTGCAGCTGGCTAGGTCCCTGTGGCCATGTGACCTGTTCTAGCCAATCAAATGTGGGCAGAAGGAACATGTGCTCCTTCCGTGGCATTCCTATGTGCTGTGATCTGGAAGGCCACATGTTGAGGATGGCAGGGCTCCACGATGGAGGGATCTCAGGTTTCAAA
0.4958058098571477 TCGGGAGGCGCAGCGTCAGGGCGGGCGGCAGCACAGAAACCCCCCGCGCCGCTAGAGGGACCCTCGCAGCAGCTGCGCGGGCGACCTCGCGGTCACGTGCGGCAAGGGCGGGACCAAACGAGCGTCCGGCCAATCGACTATGCCGTCGGCGAGCGTGATAGCCAACAGGAACCGGGAGCGGGGTCCCGGGACTGGGAAGAAACGGCGGCCGGGAGGGGGCTCCGGGGACCATGGGG
0.7423560251526458 CAATCTCCCACCAGATTTCGGTGGCAAGAGGAAGGTGGCAGCCAATGAAGAGGCTCGGAGCTTGCATCATCCTCCTGACCAGGGTGGAATAACCAGGAGGCAGGCGCACGTGACCGTTTCCATGGTGACCTCCCTTAGCAACCCTGACTGGTCCTGTTTATGAACGCTGGAAAATTCCAACCAGCCTCTGTCCTGATTTTTTTACCTACTCTGCCTCCGCCTGCTCCAATGCAGGG
0.3008091352496159 CCGCCCCTGCGCCTTTAGATTTCGGGCAGCAAGTTTAATTGCTCGCTTGGAAAGCGTCCTCGGAAGGGCACCGCCAGCAACTGCGGCTTCGCGCCCCGCCCCTTCCCCCAAGCCCCGGGCGGCGTCACGTGACGGCTGAGAAAAGTAGGGGAAAGGTCAGCAGCAGCCCCGCCCCCAGGCTGGCGCGTCCCAGGCGCTCGGATCCTGTTCCACCCGCCGTGCCCACAGAGACCTTC
0.203393349110767 CTGTTCCCCAGCCCTTATTCACCTTTTGGCGTAGCAACCAACCCCGGTTGCCTAACATTCCCAAGGGCCGGCTGGGATAACTGCCCACTCCCTGGCCTGCAAAAATGTAGCTCTTTTGGTCACGTGGGTTCAGCGGCCCCTCTAGGAAACTCGCCAGATCAGGTGAGGCGCGCCAGTGTGTTTAAGAGACGTTGCAGAATAGTAGTCCGCCGTCTCTCGAGCGCTTACTAGTCGTT
0.01377993200809802 CATGCCCCGCCCCCGGCATGCGCGCGCACGCAAGGCGCGCGGCCCGGGGCCGAACAGTTCTGCGTGCTCCCGCGCACGCCCGGCTGACCAGACGTCGGTCACGTGATCCCGGCCCCGCCTGTCGCTGTTGGTCAGCTTCACAGCCGGTGGAGGCTGCGGGCCGCGCTGCCAGTGTCCGGGAACTGGGTTTGCGAATCCTGGGAGCCGCGTTCCTGAGTCTTCTCCGCTCTCTGCCC
0.6188348070822357 GGGGGGCCGCGGACGTCACTCGGGGAGGCGGGGCGCTTTCGCCGACCGGCGCCCGGCTCCATGGCAACCGCGGGTCACGTGCCGACGCGCGTCACTGCCCGGAGCCATGGCAACCGTGACCTCACCGGCGGGCTCGACCTTCCCGCGTGGGCCCCGGTTCCTGAGGCGCTGGCTCCCGGGTGCCCCCCTCCGGGAGCTGGCGGTGGGAACCTTCGATGGGCCCCCAACCTCGAAGT
0.1506089735766591 GGTGTTTGTGGTAAAGCCTAAGCCAGTGCAGCCATCCCCGTCGCCATGGCAACCCCAGCGCGGTTGGGGAGGACCCGCTCCTCCGGCGCCCCCTCCCATTCACGCAGCGGACGTGACACGTGCGGCGGGGTCACGTGTTGTTGTTGGGCCGGGAAAGCTGCTTCCGGGTCAATGCAGGACACTGGGCTCCGGCGGCCAGAGTGGGGGACTAGGTGAAGCGGCGCCGGGCCGGGGCT
0.4862895856369307 GTGCAACTCTACCTATCATGTTCATATTCTAGGTAGAAACTGGGGAAAAGAGAAAAGGCGGGAAAAAGGCGTTTCTCTACAAAGATCACACATAATCTTCTGTCTGCATCTCATTGGTCGGCATTTAGTCACATGGCCATAACTACCAGCAAGGGAAGCTGGGAAATGTAGTTTTTCAATGGCACATTGCTACCCTTAATAAAATAAGGATATGCTACCAACAAAGAATGAATATG
0.2470998386921104 CGGGAGGGGAGGGGGTCCCGGGCCGGGGCCGGGGGTGGGGTCTGGCACCGGAGCTTTCAGTTTGTTCCGCTGTTTGAAATTGGCGCCGGCGGAGCGTTAAGGTCACGTGACGGAACGTCGCCAATCGGCGCCGGCCTTGTCTCGGCATTCCGGGCTCGAAGGCTGTGCGGTCTGCCAGGAGCTGCGGCCCCGTCCGGCCCGGGCTGGTAAGGCGGACCGCAGGCCGGCTTGTGGGG
0.736434726893581 GCCCGCCAGCGCCCCGGGGCCAGCGTCTGGAGAACTGTGGACGCGCACGCGCGTAGGACGGCGAGCAGGCCCCGCCCCTCCCCGGCCCCCTCTCACGTGCTGCTCAGCGTGCGCCCAGACATGTGCGGGCACACGTGACAGCGCCGCGTCCGGCCCCGGTTCCCTAACCCCGCGCGGCTGTACTTTGAACCCAGGCGTGGGAGACTGGAGCAGGGAAGGGAGGAAGGAAAACCAGG
0.761602864224018 AACTAACAGGAGGTAGACTGGGAAGGAGCATGGCAAAGTCACCCCTTTTCACAGGGCAACGCTCCAAAGACCACGCTCAAGCTGGGGTGGCAGGGCTCTGAACATGGGGCCCCGACCCGGGCCTCGGCCTGGGGCCACGTGACGCGCGTGTTTACGTTGAGTGACGGGCGCTGTGTTGGGCGGGCCTTGGCGGAAATCAACTTCCGGGGGCAGAGGTGTTCGAAGCCGGGTGGTGC
1 GGAATATAAAGTAAAGGAAGAAGAAGGCAAATAAGCTTTGTCTTTTTATTCTGAAAAGGACACTACCCTCAGAAACCACCACCTTCATCTTATTGCTAAAAGCAGCGTCACATGACCAGCACAAGTGCAAATGAGGATGGGAAAGTGAGTTTTTAAATTGAACACATGGCTATTTCAAATAAAAGCAGGGTTCTATTACAAAAAATGGGGTGTGTGTGTGTGTGTGTGTGTGTGTG
0.7950799763134742 GAGGAGGGAGGGAGGGGGCGGGGAAGGCCGCACCGCCGCGCTCGGGAGCCGCCGCCGGATCCCACGCAGCCTCCAGCTGTCGGGGAAACTCCTGCCTGGGCGCACGTGACCCTCGCCGGCCAACCAGCAGCCGCGCCGGAGACTTCAAACGCGGCCAGCGCGGCCCAGCACCCGCGGCGAGTTAGCCGGCGGGCGGTGCGGGGGTGGCCGCGGTGGCCGCGGCTGCCTCGGGCGCC
0.8157695359670822 AGGTTTCACCCAGAAAGAGGAGGGGCCAGGCTCCTCCCTGCAGACTTCTGTGGCTCCACCCCAGTGTGCAGGCCTGTAGGGGTTTTGCCGAGTAGCCTTTCCCACGTGACTGTCTCAGTGTAGTACATGTGATGTGGCCTAAATTGGGAAATACCTAAATTAGTAGCTACCTGTGAATTTGTCCTAACTTAGAGAATCTTTTGAAATGACTTAAAATTCTTTGGGTTTTCAGCTCA
0.5483465640915409 CGAAAACGAGGTCAGGGTGTGAGCAGGCGCGGCAGCTGGTGCAGGAAAGTCGCTCACCCCGAAGCTGCCGTGGGCAAGTTAGAAGGAAACCAAAACAAGCGCCGCGCCCGGAGCTGCCCACGTGATCACAACACAGCACGTCTAACGCCAGGGAGCCGGGCGCCCGGGGAACTACTGAGCCGCGCCGCGCCGGGCTCCGCCCCCCAGGCCGCTCGCCATTGGTCCATTAGAATGGG
1 TTGGTTTGAACTTTTGAATCCGCCAATCAGCGCCGCGCGCCCCCACTCCGCGGGTGCGGCCGGGCGCAGGCCAGGGCTCGAAGGTGGGGCCGCAGCGGCACGGGGCGGGGTCTGGGGCCCGCCCTCCCGACACGTGGCCGGGGACCGGGTATATAAGGCCCTTCGGGGCCGGCCACCCTTTCACTACTTCTCCCCCGGACTCCTTGGTAGTCTGTTAGTGGGAGATCCTTGTTGCC
0.3748892916286019 CCGCAGGCACCGTCCCTCTCCCGCTGCAGCCTGAGGAACGCGTTCCGAGGAACCCCTAGCCACAAGTCAGGACCGCGTACAAGATGGCGGCGCGTCACGTGGGCAGCGCGGTGACGCAGGACGGCGGCCCGCGCGGAGGCAGCGCCATAGCCTACCCCAAACGCACACTAGTGCTCAGTTTTGCCCCCCTCCCCTCCCCCGCCCCCGCCCCCGCCCCCAGGCTTGTGTAGATCATG
0.8754353901646583 ACCCACCCCCGCCTCCCAGCACCACCACCACCACACACACAAAAAAATTGGATACATTTTGAATAAAGCGATTCGGTTCCTTATCCGGGGACTGGGTTGCTCCGTGTGATTGGCCGGAGGAGTCACATGGTGAAAGTAACTTTACAGGGTCGCTAGCTAGTAGGAGGGCTTTATGGAGCAGAAAAACGACAAAGCGAGAAAAATTATTTTCCACTCCAGAAATTAATGATCATGAG
0.8424575128986751 AAGCCCGGAGGAGCCACCGGCCCTCTGGCGCGGGGCCGCAGCCTTTCCGCCACCAGGCTCAGCTGGACCGGTCCCCGCCTGCGCGAAGAGCGAGGCGGGGCGAGCCGGGCTGGTCCACGTGACTCCGAGCGAACTGGGGCGGAGATTGGTGAAGAAGGAAGGAAAAGGGAAGCGAGTGCAGGGACTGTTTTATGTGAGGTCGATCTAAAAATCACAGCGCTATGAATTTTCTGCTG
0.6530210490614277 CTGCAGTACCCAGTAACTAACCAGGTAGAAAAGCAGCCATCTGGTGTGTCAGGACTGGGGTGAGTGGGGTGACAGAGAGTTGTGAAGGGAAAGTGGAAGTGGAGGCAGGTGACTACACCTTCAGCTGACCTGAAGTCAGCTGACGTGACTTCAGCTGATGTGATGAAATCCAGCTGGTTTCCCAGGCTGGGATGCCTTTTGCTTTCCACAATAGGAATGGCCAGTAGCTGCCAGCC
0.7002640046127896 AAGACTAACAGTGTAATAGTGCAAGCCAAAGATGCGTAATGAGTGATGCAGATCATAAGTGCAGTAGAGACTTGAAAGGAAGGGAAACCACAGTGGATTACAGTGGTCAGGAAGGGCCTCACGTGACATGTGAGACTTGAACTTTGAAGAATGTTTAAGAGTCAGTTAAGGGAAGACAAGAGAGCATTCTTGATAGATAGAGAGATGGATAGAGAAAATGGAAAGAGCAAAGTTGT
0.01435833886211286 ACCTTTACCGAAGGGAGTGAAAAGAACACCTCACCCAAACGCCCGCCCTTATGTGCGCAGCCCCGCCTCCTGTAGGCCCCACCCCACCAAAGGGTGCGCCTGCGCCGTTCTTTTTTCCGTCCACGTGACCCACTCAGGCTCCTCCTTGTCTCCAACATGGCGGCGCCCAGGGGCTCAAGCCGCACGTGAGAAAGTCTGGGCATCTGGGAATCGGAGAGTATAGCCTGTGAGCCGCT
0.5106664585226652 TGACGTCGGCAGAGCGCTCCTAGTCCCCGTCTTCTGGTCCTCCACCCTTCCCGAAAGGCCAAGCGGCGGAGCTGGGGCGCCAACGAGAAGGGGGTGAGCGTGATTGGGCTGTCCTACATCACGTGACGGCCAGTACGCGTGGGATTTGGCTCCGAGGAGGCGGAAGTGCAGCACAGAAAGGGGGTCCGTGGGGGACGGTAGAAGCCTGGAGGAGGAGCTTGAGTCCAGCCACTGTC
0.5386202982755969 GCCTGAGGGAGGATCAGTCTCTGAACTAATATGAGTTCCCTATGTTGCTTTAGCCACTTTGATTTTGCCTTGTAATGCAGTGAATTCTAACAAACACATCACGTGATCCAAGTACCATGACTACAGTTACTAAATCAAAAACAAATCCCGAAACCAAAAGCAACTGTTTGAAGGGAACTTATCCTCTACTTACTTATATAAGCAGAGAGGGAACTTCCGCTTTTCAATAGAGAAGC
0.7752041716157266 CACCCTCTCACCCTAGACAGATGGGAGCCTCCTGGGGTGTCCACGTGAGCGCGCGTGAG
0.2299591419013982 CATTGGCTCTAGTTCTGGCTCTCTAGCCAACAACACAAACGTTCTGTTAAAGGCACAAGTTGGAAGGGCACATCTCACTTTCACCCGTGTCTCATTGGCCACACCAAGTCACATGCCCACACCTAAGTGGAGGCTGGGAAATGTAGTCTCTGGCTAGGCAGCCATGTTTCCAGCTAAAACTTTGGATTATTATTGAATAGGGGAGGAAAGATGTTGGGGGACAATTAGTGGTCTTT
0.9227430538563227 GTCCAGCCGCCGGGCCCTTGTCGGCCGCCATTCGGGCCGCGCGCTGGGAACGCAGAAGGGGGCGTGGCCTGAGGAGCGCACCAACTGCGTGGGGGGGGGGGAGGTGCGGTGACCACGTGACCTCCGCTGAGCTTTCGCCAGTGCCTGCGGCCCTCGGCGGCCTAGTACACACGCACCTGAGTGAGTGGCACCAGAGGACCCTCTCCATGTTTAGGGACCTCCTGGGCCTCAGGAGC
1 CGCGCTGCCGCCAGTTGTCACCACAAGGCACAACACTACCGGGTCTACATCTCCGCCCGCCCTCACAATATCCCAGGAAACAGACATCCGCGTGCTCGCGGCATTTGTTAACCAATCAGAGCAGTCTGTCAGAGCACATGGGAGAGCGACAGCCAGTCAGAATGTACAAGAGTGCGGGGAGGGGTGCACCAAAAGACTGACTCCCTACAGAAACTTTTGCCGAGTGGGAGCAGGTT
1 CCTTTGGGGACACCACTCTCCCACTCTAAACCCCCAAGGTTTGGGTGGCTGACTCCGCCCCCTGGCAGGCCTACCCAATCAGTGTATTCTACCCACCAGGCTGCTGTGATTGGGTCAGTGCAGGCCACCTGACCCAAGTTGGTCCAATGAGACTCCGTGTAAGTCCATTTGGGCCACCACACCCACCCGGGCCTGCAAGGGGAGGAAGCTGACTTAAGAAGGAACTCAACGCAGAG
1 AGACATCCTTTGACCTTGTCTATCCAGTTCTGTTTCCCTCTTCTTCCCATAGGGGTCTCCCTCCCTCCCCGTCCTTAAGTGGGGCGGGCACTTAGCCCAGGGTGGTGATATGACCCAGTCCTATCCAATCACCATGGTCCCGCCTCCTGGCTACCACAATTGGCTCAGGGATGAGCACGTGGCCCATAGCAGCCCAGTGAGAGTCAGCCCTGGGTGGGAACTGGTGGGAAAGAATT
0.3951085483384443 CGGAACCCAAACGGTCCATTACCGCGGCTCTGGGGTGGGCGAGGGGTGAGGGGGCCGGGTTTCCGCGAAGGGGGAGGGGGAAGGCGAAGGCCACCTAGGAGAGTCACGTGACTACTGTTTCCGCCGGCGCTCACGGAGAGCTCGCGGTAATTCCGTTTCCCCGCCCTTTTTTCCCCGCGGCCTGTCGGGAAGAAGGTCCGCGTGCCAGGGCTATCGGGAGGTCGGCCGGAGGGCCG
0.4534054462013009 ATTCTGGACCCCTGACTTCTAGAGGCATATTATCAGAAGAGGTTTTAGCAAACATGGAACTACTAGTTGCCTACCCAACATCGTTCTTCCCTATTCTAGCTAGTGAAACTACATTTCCCAGGCTCCCTTGTGCCTAGGGGTGATCACATGGCACAGCTCTGGCCAATCAGCTGTAAGTGGAAAGCCAAAGGCGCCTTCTGAGATTGTTTTGCTTTCCTTATTTAAGCAACACTTCT
0.342383638216793 TCTCAGGCAGGCTCTCCCGTCCTAAGGTAAGAATCTCACTGATACCCGACTACATCATGTGACCCTCCTTTGGACCAATGACTGCTGTCAGAGGATGGGATGACCTGATTGGCCAAGCCTTGGTCATGTGCTCCTCCAGGAGCCAGGGAGGCGGGGTCAGCCCCACCTGAACTACAGATGATGAGAGAAAAGAAGAAAGCTGTTTTCCTCAACGAGATCCGGGGCGCCATTACCAG
0.468715916966964 TTCCTACATGCACACGTCCCTCATGCTGCCTTGCACAGTTCCAAGGAGGAAACCAGACTCCATTTCCCAGCATCCCTTGCAGTCAGGCCCCTCATGTGACCCGAATCCCATCATGTGACCCAGGCTCAACCAATCAGAAGTCTCCCTTGAGCCTCTGCTCAGGAAGAGGGTGAGAAGATGGCGCTGGGCAGGTCCATGTGTGGGCGCAGGAGCTAGAAAGGCCTGGTGGATTCAGG
0.2493502029081686 ATCCAAGATGGCTTCAGGCATCCACTCTCCTTCAGGGGCAAGTGGAGAGAAAGAAGAGGGCAGGCTTTAGGGGCATGACCTGGAAGTGCTATGCACCATTTCCTCTCTCATCCCATTGGCCAAAACATGGTCATGTGACCACGCCTTGCTGCAAGGGAGCATGGGAATTGTAGTCTTTATTCTGGGAGTTCGTGTGTCCTGCTAAATCCTGGGGACTCTATTGCCACAGAACAAAA
0.9082095398940687 AGGAGATGAACTGTACTCAGGAGATCCAGGGCCAATCCCAGGCCCACGTGTTTTGCCCGCAGCGGCTCTGACTGGCTGTCCACCTGCTCTGGCAGGGTCACGTGCCCCCAGCCTGCAGGCAGTGGGTTCAGTGGGTTTTGGTGACTTCGGCTTAGACCAGCTGGCCCCTCAGGTCATAGTGAGACAAGTCTGCTGCTGCGTGGCGTTAACACAGCCACAGCACCCCAGGGTGGTTT
0.1807323028163005 GCCCAGCCTTCCGACGCACAGCATTCTAGCACCAGAGCAGTCCCTTCCTCCAACGCAGATCCCTGCCCTGCTGCTTTCGCTGGGAGCGCGCGCTCCGCGTTTCCAAGGCAGCAGCCCACGCCGCCCCACGTGACGGCCCCGCTTCCGGGTCTGGGCGCGGCCTCAGGACGTGGGCACGTTGTCGTCCAGAGAGCAAGAGCGTCGCTCCCCCTCGCCTTCTCGGCCGCCCTCCCGGT
1 AAGTGGTGGGTTGGGGGGGAAGCCGGGTGCGGTAGGCTCACGCCTGTCATCCCCGCACTTTGGGAGGCCAAGGGCAGGTGGATCCCTCGATCCAAGCCTTGGCAACATGGTGAAACCTCGTCTCTAAAAAAATACAAAAACTAACTGGTTCCATATCCTGGACTCAAAGTTAATAAATAGATAAATAGGCCGGGTGCGGTGGCTCACGCCTGTAATCCCAACACTTTGGGAGGCTG
0.1829071992505075 GCCTGACAAGGAATTTCCTTTCGCCACACTGAGAAATACCCGCAGCGGCCCACCCAGGCCTGACTTCCGGGTGGTGCGTGTGCTGCGTGTCGCGTCACGGCGTCACGTGGCCAGCGCGGGCTTGTGGCGCGAGCTTCTGAAACTAGGCGGCAGAGGCGGAGCCGCTGTGGCACTGCTGCGCCTCTGCTGCGCCTCGGGTGTCTTTTGCGGCGGTGGGTCGCCGCCGGGAGAAGCGT
0.4515548989703794 CAGGTTCGTAGGTCGCCCTCGAATTTAAAGCTCCCAAGGCTGAGTGGGTCCCGGCCAATGGAGAGGCCCCCTTTAAGTCATGTGACCAGCGGGGCTGCCCCGCGGGCTGCTCCGCGGGCTGCACTGGAGCACGTGGGAAGGCTTTTTTTCCTGTTCCTTCTTTCCCTTTTTAAACGCCCACCCACTTTTGCGCGGGCTCGGCCGCGGAATTTTTCTCGCGAGAGGCGCGCTGCCCT
0.7186449561923106 CCCGGCGGTGTCACCACTTTCTCAGCCCCTCTCGCTACTGAAGCGCTTTTCTCTCTCACACTCCGGTTTTAACTCGGGCAGGGGCTGCGGAGGCTCCGCCCCTGACACGTCCCCGAGCCACGTGATACACCGCCTCGCCGTTCTACTGGTCAGGCCCTATCCTTTCATTAGCATATTTAAACAGCTCAGGGGCGGGGGAAGCTTGTAGGCCGGCTCCGGGGACAGTTATTGAGCAC
0.5668388770837047 GCCAAAGCAGATTCTTGTCACCTTCATTCTCAGTGTTGGGGAAGTATGCTGCTGGAGCGTGGCCTTCACCTTTTCTATGGCCCCTCTCAGCATCCGAAGCACAGCAAGGTATCACATGATGTGACTGTCACTAGTAAGCTCATGTGACATGACACAGGGAGGACTTATCCAAAACAATAAAGGGAACTGAAAGTCAGAAAGCAGAAGTGGCCACATATTAGATTTTGTATGCATTC
1 GACAGTTATATGTGGCTTCTTATTGTGGCTTACACTTCCTCAGTAGATGGTGGCTGGGTTCCAAGAACAAGCATTCTGAGAGAAAGTCAGATGGAAGCTCTATCACCTGTTATGATACTGTCTCAAATGTCACATGGTATCCCTTATGCCATATTTTGTTGTTAGAAATGAGTCACTAAGTTTAGTCCTTATTCAAGAGGAGAGGAATTCATCTCTACTTCTTGATGAGAGGAGTT
0.9356746763799985 CCCGCCTGGCAAGGCACTGGGAGGTGGGCTTGCGGATCCTACGACTAGCGTTTTTCTCGATTGGTTGAAGGAGTAAAGGCACGTGGTATGGGGGCGCTCTCTTATTGGTCGTGAATGGTACCTTGTGGTACAGAGACGTGATGTGGTTGGCTAGAATGAATCCCAGCTTCCCACTAGATGCCCCTAGCTGGCTGTTGCTATGAGGAGTCCAGGGCCTTCCGGCTGCCGTTCGGGAT
0.8483315309045388 AGGGGGCAGAGGACCCTGTGCGGGGGTGGGATCAAGCACAAAGAGAAAACTTTCCCAAAACCCTTCAACAGACTTTTTTGTTTAAGAAAATAATAATGTTTCCGTCTCTGAACACCAAGTCAGGTGACCCGTTTTTCCTTCATGTGATTTGTGAGCTATTTCAGAACCTCGTAAGTCTCTCTGACAGGTCAGGAATGGGGAAATGAGAAGTGTCATCCTGTAGAGTTTCTCTTCTC
0.1581888173435273 TTCCTGGTCCTGTGAAGGCAGCTCTCCTTTTCCATTGGGGAGCGACGCACAAACGTCAACTGTCACATGACCTGCCAGATGCTGCTGGGCTTGCAAAACCTGCACGTGACTAGAGGTTCTGCAAGCTATTGGGAGCGACGCCCATCGCGCTACCTCCAGACCAGGAGGTAGGGCTAGGCTGCGTCT
0.2016167332461724 GCCAGCAAGCTGCTGTTCCACCCTCCCACCAACACCAAAGCTCTCTAGGCATGTGGCCTCTAGGAAGAAGAGCCAGGGGAAGCACGGGGTCACGTGGTCCTGGGTGTGGGGGCAGTTTCTGATGGGCGAGGCCTTGATAGAGGAGGAGAGTAACATCCCCTTCATGGTCTTTGCTCTCTCGGGTTTACTCCACCTTGAGTCCAGGCCAATCAGAGCAGACGTTGCTTCTCTGTCTC
1 GGCTGGAGCTGAGCCAGCAGGGCAGGGCCCCCCTGCTGCGACAGTGGCATCCTGATAGTGAGATGCTCAGATGCTGCTGCCCTCTAGTGGCCGCCAGTTCCCTGCAACTCAGACCACGTGATTTCTGGGAAAAGGCCCTCCCTGGAGGAGAACTGAAACTTAGGGTGGGGACTGTAGAAAGGGGCGGAGAGATCAGCCGCCCAGCCAGGAGTTAAGCTGAGGTCGTCTGAGCCCTG
0.5812192495239438 AGTAGGAAGTCTTTTCCTGTCCTTAGAGAAAGAGTATGGTAGAAAAAAAGCATTATAGTTCTGGCAAGGGAAGGTAACCATGGAGATACACACACCCCATGTGGCAATGACCACGTGATGAAAAATAATATCACCTGACATTTGTGGTTGTATGTTTTTCAGGGTCAAAAGAACCTAACTCCCGGCAGTATTCTTTGTCCTTCCAGATCTGAGATCTACCCTGTTTTCCCTGCCAG
0.3926950799470592 CTATGAAAGAGATGGAAAATGGTTCTCCTTCAGAGGCGACCCAAGCTCACCAAGCCGGATTTTAAAGGCCACGATAAGCCCGCGTTTTCCTTTATCGTGTGCCTTTGGCGCGTGCGCACCACGTGACCCAGGAGTTCATTAGTTCCGGCTTGAGGGAAGCGCCTTCTTTCACAATTTCTTTTCATTGTTCATTGCGGATATCTGGAAGCCTTCCAGGTCCCCTGAATGTAGTAGAC
1 CACTCGGGCGCCTTTAAGAATGGCACGGCGGCCGCCTCCCTTCCTGCCCCGGCGCCTGGCCCAGTCGCCCCCACCTATCAACGCGGCCTCAGCGGGCCGGCACGTGATGGCGGACGGCAAAAGGCGCGGCTCAAAATTAGACAGAATGCGATCGCCTGATTTTTTTTTTTTTTTTTTTTTTTTTTTTTTTCTTTTCCCTGCTCCCTCTAGAGGAGGACGCTCTGCCTGGCTGCAAG
1 GAGCCTCCAGCGCCCGGGCTCCCTTCCCACTGGGAGACGCCATGATGGCCTGAGAGGAGAGCCAGTCACGTGGGATTTTGTTTTCAACCGGGTGCATTCTGGGCCAGGAGGAGGGGCCTGGGGAAGGGGGGCTGGGATGCCGGCGAGCCCCCGGACCCCTCCGCCGCCGCGTGTTCCTGTCCCGGGCACTGTTGTTTTTCCGGTCTGCTGAGGGGCAACAGGTCCCGAAGCAGGGG
0.5866691992397626 CGCTCTCTCACTCACACACACACACAACACGGGCAAGAACCACCTCCTCACTGCAGCACCGGATCAACGGCGGCACGCACGCCCGGTCGGCCCCCGCCACGTGACCAGGCTCGCAGCGCTGGGGCAGCCGAGACTTGTAGTTCTTGTCCCTCTAACAGACGGCCCGGGTAGCTCCAGAAAAACTACAAATCCCGGAAGAAACCGCATCCAGGCGACGCCAGCCCGGCTTGTTGACG
0.3610515211824528 GTTTCTCTTTGGGGGCGTGGCTTATGGAACCTCGTTTTCCCGCCGACGGTTGGCCACGTCACGTGACATGGGTTGGAAGATGGCGTCTCCCACAGACGGTAAGAGCCGGCTTAGAGATCTTTGCCTGCAGCCTCCTTCTTTGCTCTACTGGGAACATCCACTCTGTCTCTGCCCCTCGAACATACATTTCTTTCTTGGGCTCTTCTCCTTTCCCTTTTATTTTTTTTCTTGAGATC
0.7328520821975042 ACGGAAAAGGGCCGCGCCGGGCTGGTGGGCCAGACAAACCAGACATGGTGCTGGAGACTCGTTCACCACCGAAGGCCTCAACCGCGCCGGAACCGGGGGGACCCACGTGACTCACCTCTGACCTTCTGATGCCGTCCGCGCCATTTTGGAGACTGGCATGTAGAGAAAGACTCTATAGCGAATCTTTTGAAAAGGGAAGAAAGGATAGGTACCATGTCAAAACCGCAAGTTTAAGC
0.6492177133280767 GACCAGCCTGGCAGGGCCGCACCGCGCCTGGAGCGCGAGGGAACCGGCATGGACACGCCGGGAGTCGGCCTCTGCTCCGGTTGTGCAGCCGCCCTGGGCGCCGGGAGGGACAGCCCCATGACCTTGTCACCTGGGCCCGGCGCGCGGCCACGTGGCTCGGGTGACTCGCATTGCCCCGCCCCCCTGCAGTGACTTCTCCAGTTTGGCACACCAGTGGGCTTTCATGTGACCTGTCC
1 GGTGCTCAAGTGGAGAAGACACAGTTGCCCCAGGCTGTGCACAGGTGGCCTGGTGCTTCCTTCCTCTGTGAGGCCTCCGTTTTCAGAGTAACAGTGGCCGCTAGGTGATGCCCGACGTCTGCCAATGAGAGTGTCAGCCCGGAATGAATTGGGATCCCCAGGGGTGGGGTGGGGGGAAGGATGGAGGCCCCCACAGCACAGTGGGTCACCGCGCCCTCCCAGGAGATCCCCACAAC
1 AAAGTCAAGGCTTGGTTCAAGCCAGATAGCACCTGAGGACAGAACATATCAGGTATTGGTAGTGTTTCTCCTCTGTTCTCTCTCCTGCAAGGCCCTTTCAGTCCTTGTCACTGCCCTTGAGAACTCCCAGGTCACATGAAGGCAAAGAAAGTAAAACTGAAACTGCCTTTGAGCCACAGGCTTGCTGGGGATGAGGTGACAAAGCTAATCGAGGTGGCAATTGGGGAAGGGGTTCT
0.3114666823614944 CGGGAGATAGGAGAGGGATGTCGAGCTTCCTCTTTAAAGCAGTAACAAGGCAAATTATAGGTATGCCTTCTATTCACATCCCATTGGCTGAAATTAATCACCTGACCACTCTCAATGGCAAAGGAGCCTGGGAAATGTAGTCTGTAACTTAGTGACCACATACCCACCTAAAGCTATAGTTCTAAACTACAACTAAAGCTAGGGTTTAGGAACCATTACAAAAGGGAGGAAGTGAG
0.2429088096213927 CAGGAGTCCCGCCCCCTGAAGGGCATGGGCCAATCACAATGCCTCTCCTTCCTGGCCGCTGGGATTGGTCCGAGGGTGCACATGACCGGACTGCGGGACATGTGACCGTGCCGATCTAGGTCGTGTGACCCGTCTGGTGTAGTCCTGGAACAAGGGTTTTGCTGCGG
1 CTTGGACCCGCCAGGAGTCCCTGCAGGAGTTGGGAGCCCCGCCAGCCACAGCTACTTCCCCGACCCTCCCGGCTTCCCACCGCTGATTGGACCAGGCATGGGCATCTGACTGAGGGGAGCCTATCCATAGGCTGGCCAGTGATCTATCAGGGCTGGCCTAGTGAGAACACGGCCAATCAGATGCTTTCCTGGAACCCGGGGCCAAAGCTGCCCCAGGGGAGTGTGGTAGCCGCAGG
1 AGGTCTCCCCGCGCCCAGTCCGGCCCCGCCCCGCCAGCTCCCAGGTCTCCGCGCGTCTGGCCCTGAACTGAACGCGCCTGCGCCTGGGGCCCACGTGGGGCCCTCGGGCGGGCGTGGCGGGGCAAACAGAGGTTTGGACTCTCTCGCTTCTGCCTGGCTCAACTTCTCCGCCGAGGCATCCGTGCCGGGGTCGGGAGGAGCCGGGCACGGCAATTCCCGGGCGGTCTGGGCTCCGA
1 TGAGAGACTCTGTCTCAAAAAACAAAACAAAACAAAAACCCTCGGGCCTGAGAATGAAATTATTAGTACTACAGTTTAACCTAACAGTGGCTTAAAATAGTCACGCGGCCTAGCCACACTATCTTACCACGTGGTACAGCTTCTACGGCGGAAATTTTACATTCTTAATAATTGAATTACAAAAGCATTTCTCCCTGTTACCTCAATTCTGGGACCCAATCCGGATCGAAAGAGTG
0.4206263529669256 CTGGTGGCTGGTTCTGTAGTCTCCAAGGTAACAGAACGCGGCTGGGTCCCGCAGAGCGATCATCGGGTTCCGGCCGGCGGCACGTGATCTGTCGGGACTCTTCCCCGGAAGAGCTTTCCTTGCGGCATTTTTTCACGTGGTTCTTGGCCAGCTGTCCTTTGCAGTTGAAAAGCGGCGGTTTGTGGGTCATTAATAGTCGACGGCGTCTGCTCCTCTCGGGGAAGGCAGTGAGACCG
1 GGGCGGGAGAGCCCCACATCACAGGTTCGTGCCACGCCACAGACATGGGAACAGAGGAAGGTTCCACGCCAGTACTCGGCCCACTGAACGCTGCTGCTTCTGGGCATGTGACCAAGTGAAAGGGAAAATTGGGTTTCGCATCTCACTTTCCATCTCAGATTAAATACCAGATGAAGAAGCAGGCCCATTTAAAGAAGGCTGAGCCCTGGAGAAAGACAGCAACATGGTATTATCAG
1 ATCACTTATCTAGAGAGTGGGAAGTTGCTGATCTCATCACTGCATGGGGTGGGGTGAGGGAAGCAACCCTGCCCTTCCCCTTTCTCGGAAAGCAGCTGGCTTTGAAGAAAGAGAAACCAGGACGGGAAAGTCCTGATTTCTAATCTGAAACAGCGCTTTTTGTCCAGAGACCGGTGACGAGCGACCCTGGGCTCGGGTTTTGATTGGGCAGTTCGGAAACTGTAAAAGCGAATTAA
0.1703591913605337 GGCGGACATCGGGTTAGGCATTTTGGATCCAATTTCTCATTTAATCCTCACGACCATCTTGAGGGAGCGCATTTTACCCGTGTTTTACGGGGGACTGAAGCTTAAGGAGCAGTAACTTGCCCAGGTCACGTGGCTAGGAAGAGACAAGGTCAGGTCAGAGCCACAAGAGGGCGCTCTTCCCCTTTCTATTCTATGTTGTCCTGTGGTTCCCGCTTTTCCTCAGGGGCACCTTCCAC
0.961365053632483 AGCTCCTTGCCCGCCCGCTGTCTCTAGCTCTGGCGCCCCGGCTCCCCGTCCCCCTCGCTCGGCCAGTTCTTTCTCTGCTGTTTGCCCTGTCAAAACACTGCCTAGGTCACGTGTCCCAACAACAGCCAACCCACCCCGGTCGTCACTTCCTCCCCGGCGGCCTCCGCGGCCCTGGCGCCCGGTTACTATGGCAATGCCGCCGCTCGCCCCGGGGCGCTAGTTTGGGGCCGGGTTTT
0.6023603924489673 CCTCCCTCCCCCTCGTTCGTTTCCTTCCTCCTTTCCCCGCTTTCCTTCCCTTGCTCGTTCCCTCTTCTCTCCCCCCCTCCTTCGAAACTCAGACCTCCGCCTCCTTCCTCACCACGTGACGCGCGGGCACCCAACTGGCACGCGGAGCCGCGCCCCTACCTCCCGCCCCTACCCGTCCCCCAGGCGCTTCAGGGGCGCGCGCATGCGCGCGGGGGACGGTTCCCGTGCTGCTAGGC
1 ACCTTAAGTGAAGGTGCAGATCAAGAGAGAGAAACCAGAATTTCACAGTTTTGTTATACGTGCAGCTCCCTTGGGAGCAACAGCACGCCACACAAGGCCACTCAGGTGAAGCCCCAGGTCAGTCACGTGGCAAAGGGGGAGAAGGGGTGGCTGTGGAAATTCTCCTTTCTTGTGGTCTCTGTGGGAGATGGGGGAACATGGCTTACTACTGGCTAATTTGAATAATTTCACTGGGC
0.2219200927366611 ACACAGCTCCCCGCCAGTCCCACCGGTGACAGCCACACAAAGGCAGGGTCACAAGCACACCGACCACCCCACAGCCCAGATTCGGCCCCAGACACACACTCACAAGGGCACGTGATCACGTGCGTGGTCACATGGACCGGCCCACTCAGAACACACTCACAAAGTCACACCAACCAAGGCAGCCACGCGCCACACACACACACCTACAACCCCGCATACCGCACACCCAGCCGCTT
1 GTGCCCTCTCAGCATCAGGAGCCGGCAGCTGCCTTTCCCTCCGGCACTTTTCCCTTTTCTCCTCTCTGTGTCGTAGGCGTGCCAATCCCCAGGAGAGAGGCGTGATAGGCCCAGCCTTTGACATGTGGGGAAACACAGGCCTGTGATTGGCTACCGCATGACACCCAAGGGACAAGTTGCTATGGCAACGCGTGGGCGCGCTGTGGGCTCGTAGAAGCCAGGTGCGGACGCTGAAC
0.2347450669459045 ACAGTCAAATTAATTCTAATTATCTCTCTAACAGCCTTGTATCGTATATGCAAATATGAAGGAATCATGGGAAATAGGCCCTCTTCCTGCCCGACCTTGGCGCGCGCTCGGCGCGCGGTCACGCTCCGTCACGTGGTGCGTTTTGCCTGCGCGTCTTTCCACTGGGGCCGGGGCGGCGCGGAGGGTTCAGACGCGGGCTCTTACTCAAACGCTGATCCCCGAAACTACCGAGCAGT
1 GAGATAGACTAAGCTGATTTAAATGCTCCCCGGGGCAGAGGGTTCTGTGGGATTTCCCTTGTTCTTACGGGTGGAGGAGAGGAGGCAGGACTGGAGACCTGCACGTGTAGCACCCGCGTGGTGCAGCACGTGGGTTGCAGATGTTCTAGTGAGGGGCTGGCGGTGACAGTGGGAAGGAGCGAGTTGGTGACATCTAGAGTCGTGTGAGAGGTATGGTGACTGGGACTCTGGATGTG
0.1391258690279123 TTCCCTCTGCCTGGGAATTCCTCACGTGTGAGTTTCTCGCTTCTAAGGCAGCTGCCACTTACTGGTTTTCCTGCTCCTCGGCAGCCAGAGCTCAGTCACGTGACCTCAGCTCTGCTAGCAGATATGCTCACGTGGGACCTCAGCCTGCAGTCAGGCGTCTGAAGAAGCAGATGCTGTGAGACCCCCGTCCAGCAGGAGTGCCAGCTGCTGGGCCCCCTCTCCCAGGGGCAGCTGTG
0.8481071222378801 GTTTGAGGATTTGAGGAAAGTTCCGATCACCAGCATTTGGCCTCTTTCTGTTTTTGTCTCACTTCCAGGACCTGATGCAGGAAGCACACTATGACATGGTCACATGCAGACACACGTGGTGCAGGATGGACTAACCTCAAGCTCCACTGAAACCCTGGCTCCCGGCCGACCAGCCGTGGCCAGTGACCACGTGCAGTCTCCGATCTTCATTTGTGCGTCGATGTGGGGAAATTCAA
0.7989381367978364 CTTGTGTGTTAGCAGGTTTCTCTGGCGTTACCCCAGAAGCTCCTAGAAAAGCCTGCCCGGCAGCAAGCCACAGGCCCCGCCACGCCATTGGCCAGGATTGAGTCACGTGCCCTCCCCAGAGCCAATGGGAGCGAGGGGGCAGGGTGACCGGGAATGACCTTAGACTGCCCGCCCTGCGCGGAGGGAGATCCACTACAGGCTGCGCCTCTGCCCCTGCGAGGGGCACCCCTGGGTCT
0.4840864642669742 TTTCGCCCCCTGCACCTCCAGCGGGCTGCGGTCCGCTCCCGGCCTCACTCGAGCAGGCCCCGCCCTCCCAGAGGCAGTTAGTCCAAGTCACGTGATCGTCGACTCAGCTGACCCTGCGGGACCGGAAAAAGAAATTCCCGGGCCCTGGCTTCTTGGCGCGATGGTGAGGCACTAGGGGCGAAGCGAGGCTTGGGCTGCTGGAGCGGGAATGAGGGGGCGCCAAGTGGCTCCGGAAA
0.4415472323123571 AGGGCGCTGGGGCGGGGGTTGGGGTTGGTGGCCAGCTGAGCCTGGTTGAAGGGCGGCTTGGGCCCCGCCCACCACCCCAGCACGTTCGAGGAGGGCTAAGCCCAGCGTGAGGCTCGTTGGCTCGACAGAGGCACGTGACGGGTCCTGAGCCAATCCGTGGAAGGTAAAAGCTGCTTCCTGTTGGGGCATGAGTCCGGCGCGTGTCGGGTTTTGAGCTGCCGCGGTCCCGGGACTGA
0.2317988755006305 GGGGGCTGCCTTGGGAGGCCCGCGGGGCAAAGGGCAGCGGGATTCGCGGCTGGAGCAACCCTGGAGGCCGCTGACGTGAGCGGGGTACTCCCACCGGGGAGGTCACGTGGCCAGGGCGCCGCCATGACGGCGGAAGTAATGGCGGAAGTGGCACCGTTGCCAGGCAGCCGTTGCCTGGCGTCGCGGGGCGTACTCTGCGCTGGGCGCGCGGAGGCCTAGGCGGGAAGCTCGAGCGG
0.1702327836099161 TCGCTGCGGGGGACAGCGTTCCGAGGCAGTTGGTCCTCTCCGGGATGCCGTAGGCATCAGCTGACCGGCCCAGCCCACGTGACTACAGGGGCACTTGATGGGAATCATGGCAGCATCCAGGCCATTGTCCCGCTTCTGGGAGTGGG
0.6532547215495741 GCGGTTGGGGGCGGGTGTCTGCCATTGCCCGCTAGCGTTGGCGCCCCAAGCTCGGTTTCACTCCCTCCGGAAGTGGGACCAGCCGGCTGCTTTTCCCGGATGGAACTTCCGCCTGCCATGTGACCGGCGGGTGTTCTACAAGGGCTGACCAGTGGGCGGGACAGAACGCAAAGGGCGATATTAAAAGCCGGACTCTTCCGGTGAAGCGGAGGTGTGGTGGGGCTTGCTGGGATCAT
0.8524608939054392 CAATTGGTCCCTCGCTCATCCAGTCCCCGTAGGCCAATCTTCCCTTCTCATTGGTAGGCGGTGAGTGTGTGGAGAAACCTGACCTAATGGGCGCTGGAGTTCGCAAAACGTGACCCGGAAATTGGTCACGAGCAGGCGCCGTGGGCTTGTGGACGCCTAACTTGCGCGCTGAGATTTCCGGCGTGGGAGCAGAGGTCTGAGTCTTGCGTGGGTCCTCTATATAGGGTGAGAAGCGT
0.6279450961962701 TTGGACCAGGGCCGAGGCCCGGGACGTCACGGTGGGGGGTGGGGTCTCGGGAGGCACGTGATGCGCCGTGATGACGTCAGTGGGAGCGGAGGCGATTTGGCCTAGAGCTGGGGCTGAGCACGTGGGATGGTCGGGGCCTGTTTGCCCAATGTACACGAGGCTGGAGAATAGGGAAAGAACCGTCCCTGTGAGCGCCTCCTCTTCACTCATGCCAGCAACAGGGCAGGGCATCTTCC
0.6360577102793962 TCAGGATGAGTAAAATGCAGGAGCACGGAGGTCAGCCCAGGAGGTGGTTACTAGCAAGGCCACTAGCACGGGGTTGGGGGAATGCCTCTCCTTGCATTCCTTTGGCCCAAATCCAGTCACGTGCCCACCCTCAACAGCAAGGGATGCTGGGAAATGTAGTCCAGCCACAAGCCAAGGAGGTGGCCAGGAACAGCCTTTGGCCAACTCGGAGGCCCTGAGTGATCTGAGTCTGAGCT
0.6671814680655967 CTGTGGCAAAGACTTCATACTCATGATCCCTCAAGACCCATTCTCACTTGGTTTTCAGCTGGGGCAAATGGCTACACTGAATAATGACTACATCTCCCAGCCTCCCTTGCAACTATGTGTGGCCATGTGGTACGTTCTGGCCAATGGGATGTGGGTAAAACTGTGGGAAAGTCCTTGAGAGTGTTGCCCTATTTCTCCTCTTTCCGCCTTCCACTGATCTGGATTGCAGGTGCAAT
1 CCTGGAGGTGAGTGGGAGCAGTTCCCTCACATAAGAGTCTCAAACACTCCGGCTTCACTGTGCCCAAGAACAGCACGGTCCGGGGTGGTCCAGTCTGATCCCAACCGGCCCACCCGGGGCATCCGGTGGAAGTCTTCGCCGGAGGATCCGAAGGCAGCATCAACGCGGTTGTCTCTTGACACTGCACACAGCATAGCATTTAATCTTCGGATGTTCTAGTCACCACACAAATAAAG
0.8049965297221227 GGGACCTGGAGAGACTCAAGGGAAACCAGTAAAGCAAGAGGCAGGACGGGTCATAAATTACATTTCTGAGACACTTGACAGCCCACCACGTGATCTCCATCTGCAGGGCTCCCCAGGAAGCAGGTGATGTCAGCCCCATTTTACAGAAAAGGAAATTGAAAGTTTCAAATGGAGAGTCCAAAGTCTGCCATACTGCTCTTCTGCATCAATATTACACGATTTCTTTTTTCTTTTCT
0.887957242658894 CAGTGGGGCTGGCTGCAGGGGTGGGTGTTAAGACCCAGGTCTAGCCATTCAAGACAGTTCACCCAGCCTCGCCAGTCTCACTGATTGGTTCGGGTGTGGTCATGTGACACTCAGAAGGGCCAATGAGGCTCAAACCCAAGACATCTGCTGCAGCTATTGGACAAGACAGAGTGTATTGCCTTGGGGTTGCTAGGTAGGATAGAGGCAGGAGTGGTTGGGTGTCACCTTTGCCTCTG
0.09125983488205573 GAAAGCATGCAATGTCCCTTAAAGTACACTGTCCCTTCTACTCACAAAGCAAGTCACTTGGCCAAGCTCAAAGGCAAGGGACCAAGAAGGAAGTACATTCTACCTTTGTGGTCACATGACTGCAGAGTCACATGACAGAGGGCATGCTGTTGGGAGGAGGGGAGTCGATGATTCATATGTTCACAGTCCCTGTCAAGATAGCCATAATACTGAAAATAGCACAATAGCTAACACTT
0.9224180323199209 TTCTCAAGTTCACATTCAGCATGAAAAGGCTGATCACCTCTTCCAGTCACTCAAGCAAAAAGCCCCAGGTTTGCTGCAATGGGCTAGAATAGTTTGACTGTAATCACATGACCACCTCTAAGCCAATCTCTGTGGCCAGGCACCCCAGTGGTTGGTTTAGGCCTGGATCTTGTGACACACTCCTGAACACATGACTCGAGGGTGGGGCAGAGGCAGATCCTCACACAGAAGCTGGT
0.3715239425407246 ACGCCCCACACACCTCAAAGCGCAGCCGAGCCAGCGAGCGAGCGGCGGCCGGCGGGGCCAGCGGGCGCGCGCGCGGTCCGCCCAGCTGAGCCGCTCACGTGACGTGCCTCCCGGCGCCGCCCGCCCGGCGCTGAAGCCGCCTCGGCCGCCATGTTCACTGTGGGACGGTAGCTGCCTCTCCAGCCGGACGCGATGCCTGGAGGCTGCGGGCGCGGTCCTGCTGCGTGAAGCCCGAG
0.8715410293146069 GACAGCGTCTTCCCACTCGCAGTTCCAGAGAACTGATCTAACTGCCAGAGAACTGATCTAACTCCTAGCTTTCCAACAGGGCACATGACTCAGGCTTGGCCAATCAGAGCATTCCTTTCCCAATCTGAAGATTGGTTCAGGGACAGGCATATGATTAAAACTGACCAATGAGAGCTTTTCCTGGTAGCATCATTGGAACCATTAGGAAAACATGCCTTCTTTCCTTTGGGCTTTGA
0.06710243413834022 CCCCGTCTACAGCAGGGACCCTGAGGCCTGTACCTTTAAGAGCAGCAGAATGTTCTGCACTATGCAGAGGCCGTTTGTCGGATCACGTGACAGCACCCGCGTGTTCCCCCATCACGTGCTCAGAGGTTTTCCCTACTTCCGGGTCCTCTCTGTCTTCGCTTTGGGCCTTCTCGGCTTCGGAGCGTGAAAAAGGGAGGGGCTGGAGAA
1 GAGCCAAGCACTTGGGGGTGGAGGTGATAGCGAGGCTGATGGCCCCTGTGTTCTCAGCTCTCTGCCTGGGTAGCCCCTGGGTGATGGGGGAGAGGCCAGCTGTCACGTGGGGTATCAGGTGGCTCTGCCAGAAACTCCCTTGGCACACAGAGCACTGGGTCGGCCCTCGGGTGTGGCTGTTTGGGCAGGACAGCCCTCTGTATGTAGCCTTGAGCAGGTAGGGGGGCCACCTTGAG
0.2578876181455743 TTGGAGGAGACCGAGGGAACCCTGCTCAAGTCTGGGAACTAGAGGCGCGGGAAGGTCCTGCTTCCCCGCCACCCAGAGATCACGTTTCCCAGTAAACCCAACTTCCGGGTCCCATTCCAGGCCTCCAAGCCCACGTGACAACAAGCTCCGCCCTCTGCTGTCCCGCAGATGCCACTCGGTGATTGGCCGCGTCTGAAGCCGCGCCCCGGCGTCGCGTTGCAGCCTTAGGTCCAGCC
0.3647435317530132 TACCCACCAAAATCTGTTCTGCCCTTGCACAATAATAGAGTTGTAGCTGGGAAGAGCTGGTCCAGCCGGAACTACATCTCCCAGCCTTCCTTGCAACTTGATGTGGCCATGTGACTAGTTCTCACCAATGGGGTTTAAGTGCATGTGACCTGCTCTACTTCGGACTGGGGCAGCTGTGCCGCCTCCTCACACTCTCCCTTGGTTGGCTGGATGCGTGGGGTGAAGCGGCCCTGGGG
0.06721216288294544 GGCGGTGGCGCTGTGCCGGCTGTGACGTCACCTCGCCCGCGGTGGGGCGGGTGGAGCCTTTCGTAGGCTCGCGACTGCGTCAGGGGAGGGCCGTGTGGTCATGTGACCAGGGGCTCCGCTCTACGATCCTGGGGTTGCTTCCTTTCCCAGAGTTGGGGTTTTGCTTTTCTGTCACCTCGGCTTCCGTCGTTTTTTGTCCCTGTACCCTCTTGCGTTGCTCCTCGCATTGCCTGTTG
0.4298952981917951 TCTCTTCTTCCACAGTAATATAACATTAGCTGTCCACCTCCCAACCCCCAGAATAAAGACTACATTTCCCAGCCTCCCTTGCAACTAGGTGTGACCATGTGACCACATTGTGGCCAATGGGATGTTAGTGGAAGGTCATGGTGGTGGCATCTGGGGATCTTACTGGCTGGCAGGCAAGTGCCCTCTGCCCCTCCCCTCTCCACAGTGTCTGTAGCTGTCCCCTTGGACCCAGAGGA
0.7242936675989083 CACTGCAATGCACATCTGCGCTTCTTCATTCACCAGCATCCCTTTCTCTAACAACTGGGATCACGCTGGAGCTGCCAATCATGAAACCCCGCCTCCCTGCCCAAAGGCGTGTGCACGTGACCCAAGCTGGGCCAATCAGGGTCCTCTTAAGAGATTGACGGACACTGAGGAAAGAGGCCTCTCTCTTCTGGGATCCTGACCCAGAGGGACCACCATAGCATGGACCGTTTCTTTGG
0.2557375283471998 TTCTGGAGGGAAGAGACATCCCAGAAGCACCCCCATGCAGACCCGAACCCAGCGACCTCGTCTCACATTTCATTGGTCAGAACTGGGTCACATGTCCATTCCTGAACCAATCACATGCAAAGAATGGGATCACATGATTGGTTCAGATTAATGGTTGGGCGTGGACTGGAAACTGAGCGTCAAGCTCCTTGTCCTCTGCCCTAAAAGACCAGGATTCTATGGGCCTTGCTGGGCTC
0.7672889106330496 AGTGGGTGGGGCTTTGCCAGCAGTGCCCACGGGGGTCATGGGGCCAGGCGCGCTCCGGCGCCTGCAGAACTGATCGGGGATAGTCTCAGGAGGCGCTAGTCACGTGCCCCGGTGATCGGGGATAGTCTCAGAAGGCGCTAGTCTCCTGCCCCGGTGATCGGGGATAGTCTCAGGAGGCACGAGTCGCCTGCCTCGGTGATGCACCGTTTCTCACACCGGCTGCTCTGGCCCGAGCT
1 CTGTCCGTCCTCTCTCATGAATGAAAGTCCTGGCGCCTCCGACCAGCAGGTGTCCCCGGGGAGCCGCGGAGAGACTGCCGCTGCCATGGCAACCGGCGGAGGCGTAGCTCGCCCACGTGCCCAGTGACGTCATCGGCTTCCTACTCTTCCGAATTAGCTCAGAGCTCCCGGCGGCCCTGCCCCCTCCTGCCGCCAGGAGCTCACCTGGAGAGGCCAGGCCAGCCCTGGGCACAGCC
1 GGAGCCCACTACAGCCCCGCCCCTATCTCCTCCTTTATGGCCCCGCCCAGCGGGTATCCCCCGCCCCCGCTGGCCGATCGGCGATCGATCGCAATGTCTGCGCTCTCCGCGTTCTTCCAGCGCTGTCTTTTTAGTACCACATGCGCAGGCAGGTGATGGCGGCGCTGGTCGTATCCGGGGCAGCGGAGCAGGGCGGCCGAGACGGCCCTGGCAGAGGTGGGTGCTGGAACGCTGCG
0.6108568796807978 GAGCTCATCTCGCCGAGATCCGGCCCCACGAGTCAGGTGGCGGAGGTCAGGTGACAGCGGACCCGCCTCTCCCAAAGTCTAGCCGGGCAGGGGAACGCGGTGCATTCCTG
0.6240648104330949 TCTCCTCTCCAGACCCAGTTTACCCACCACTAACCCTTCCGTGTGGCTCTGGGTGCTGAAACGGGGATGACTTGGCCCGCTAGGTGAAGAGGAGACGGAAGCTTCCTGGCAGTCCCCGCGTCACGTGGGGCCCTACCTAGTCAGCCTCCTAACGCCCCTCCTTACGCATGCGCCCATTCACTGCTGGTCCCCAACAATGCCTAAATCCCGCCCTGCCCTTCTCGTTCCGCCCCTGC
0.1189555879074091 CACCGTCTCTCTGTGTAGGGGAAGCTCCTCACTCCTCAACTCCCCATTCCCTGATGTGTTGGTGCAATGACAGCCAGGAACAGGCACGTGACCCAAAACTGGCCAATTAGAGTACTTCATCCTTCTGACTGCAGATTGGCTCAGGGAAGGGCACATGACCCAATGTATGACCAGTAAAAATCCTCCACAGTGTTGTTTGTTTCTAGCTTTGTGGAGAGTGTGAGACGCCTTTCTGT
0.7050939523919 TGCGCAGGGGTTTGAGAAGCCCCGTGGATGTGGTGAAATAGCTGTGGGGAGAGTATTTGGCAACGCTCAATAGATTCAGGAGGAGCTACTAGGATGAATGGCTGCCTTGTGCCACAGCTCTACAGGCTTTCACGTGTGTCATCTCACGTGATCTTCTGGGGCGCTGGTGTCTCCGTTTACTAGAGGACCAATCGGAAGCTTAAAGAGAATGAGTAATTGGCCCAAGACCACCCAGC
0.2968554381681638 AGAAAAAACGTTATAAGAGGTTGGCAGGCTTTTTTTTTTTGCTTCACCAATGGTTTTTATTAAATTGCTGATGGAACCCGTCCTCTCCCTACATTGAGAGTATGGAAGGTGCGGGAGACGGCCGTCACGTGACGCGGAGAAGGCGCGGCGCCCGTGGGAGGTTGGTTGCAGAACTCGGAACCGCTGTGCGCGCGCATGTGTGGGATTCGGTCTTCCTCCCTCAGTGGGTCTTTTTT
0.94220095465151 TAATCGGACTCCTTCTTGCGGGGAGCCGCCAGACACTCCCATCCAAGGCCTCTTTCTCATGACTTTTTAATCTCCTGCTCGGAAGTCTACGAGGACGCTTCCGGGTCACGCGGCGCGGACACCAGGAGTCATGTGATGTCAAGATGGCGGCGCCGCGGTAGCAGGATCCGGGTTGTGGCGTCCTAGGAGCCGCGACGGTTTCTGCCCTCGGGCAGTGAGGGGCAGCAGCGCTTGGC
0.2423760607142066 AGAGTAAGCCTCTCCAGTCCCGGCGCAGGGATGGAGACGGTGTTTCGTGGGCTCCGATTGGCTCAGTAGCCTATCTTTGGAGCGAATCAGCGAGCGGAGAGGGATGAACTTCTCTGACTGGCCAGATCCAGTCACATGCCAACATGTGACGCGTGGAATCTACGCCAGCCACAGCAGAGAGGTGGGGGTTGTGACCGGAGTTAGATGCCAGCGCAGAAGGGACGTGAGCCCAGCCG
1 CGTGGCCGCGCTCGGCTCCCGCACTGCTCACTCCACCCCCTACATCCCAGCCCGCTGCCAGAGCCGGGGAGAGGGCGGGGGCCGCGTGGGCGAGGCCGTGAACAGCGGCTGTCACGTGGGCCGCCCAGGCCAATAGGGGTGAGGCTTTGGGTCGAGCTCAGTCCTCCCCCGGCGCCTCCGACTGGCAGTGGGACTCAGCGGGCGTGGAGGTCGCGGCTGAGCGAGCGAGCCCTGGG
0.6133795793777982 ATTATCAACAAGCCGCCCGCCCGGAGTTCCGGTCCTTCCCCGCGCTAGGCTTCACGGGAGGTCAAGCGCCGGCCCCGCCCCTTTTCCCCATCCCCCTCCCGCGGGTGCAGGGGCGCACGCCCGCATCGCCCACGTGACCCGCGCGTGCTACCCGCGCCTCTTTCCCGGGCCCTGGGTGCCTGGAGCGAGCCACCGTTCCTGCAGCTGTTTTGTGGCGTCTGTCGCCGGCCCCCGGT
1 TGACCCCGCCGCTCCACACCACCCCACTCGCGGCTGAAAAGCTGAAGGCAGCCGCACACTCGCCCTTGCAGCTTGCCCTGCAGCCCGCGCGGCCATGTGAGCAAGCGCAGCCAATCAGAGGCTCGCCCTGGACTCCGTCCCGGGCTGGGGGGCGTGGCTGGAGGGCGTGGCCGGGCGGTACCCGCGGCGTCTCTGCGCTGCCGCCTTTGCTTGCGCGGCTGTGTAGGGGGTTGTGG
0.3857841210547795 GATTATTCGCTCCTGTAGCAGTCAGTGGTTCACGGTGGCGACGGCGGACTGAGTTCTATCCCTTTTCTGCCCTGCCGGGTGTGGGTTCATCCACTTCCTCGCGCCGCTCGCACCCCATTGGCAGTATTGGGTCACATGGCCAGCCGTGGCCGCAAAGGACGTTGGGAAATGTAGTCTTCATAAGGGAGCCAGTCGCTCCCGGGACAGTGGGGTCCACGGCTGCGGGAGGGGAATAG
0.1384667496250782 TGACGGAAAAGATGCGTCCGCCATCCCTTTTGCTCCACCCCTGACGTTGGCCTCGGCCTTCGATTGGCTGCTCCTCCCACCAGCCCCGCCTCAGGGGCGCCCACGTGACCCGATGGCCGCCGTGGGATTGGTTGTTCGGCGAGAGCCGCGCTAGGCTGTAAGACCTGAGCCGGGCGGAGAAGCAAAGGAGAGGGAAGCTGGAAGCACCTTTGGCCCGGGACAGAAATCTGGAGAGC
0.4448348137847851 GATGGTGGAGGATCCTCCAGAAACAAAACCTCACCTCGCTTCGACATCTTGAACGCCGGAAAAAAGAAAAAAGGAAGTCGATTCAAAGGACACTGGGATATGAACTTTAACGCCCCGCCCACCCTCCTCACGTGGCCGGAGCAAAAACCGGCCTCTTCCGCCTCTGGGCGCTGCCTTATTACGTAATAAGTTTACGACGTCGCTTTTAGCCCTCTCTGCGAAGTGGGAGTTGAGGT
1 CATTCAGGTTCCTGAATCCTGGGTTTACCAGGGTACAGCTTTCTGCCATTTCTGTTCTGGTCTTGCTTTGTGGACCACAGGCCTGGCTTCCTTCTCTGAAGCATCACGTGCTCCATGCTGGGCCAAGCCCAGTGCAGGACCCGTAGGGGCACGTGGTTTCTTCTGGCACTTTGCCAGGGAGTTGGGCCCACCCAGTGAGTGTGTGAGTTTGGTGTGCAGGGAGGCCTCTATGTTCT
0.2508471047337388 ATTTTTTCTCAGCTAATAAAACATCCACCCACAACCCCCCGAACGCCCGCAAACACCAGGCCACTCTAGCAAAACCTCTCTCACTCCGCCTGCGCAATCCAGCTGACTTCCGGTTACAGATAACCACGTGATTGGGAACCCTTGCTGCGCATGTCTAGTAGGAAGTCGGACTATACCACTTTCCCTACGGAAGGGGTACTTTTTTATGTTTTTAAGTTTAAAACCGATTTCTGATA
0.995038747438403 CCACATTCACCCTGAAGGGGGCACTTTTGTTCAGTCGTTAGCTGGTGCCAGCTGAAAGCGAGCTCCAGGAAGGAAACATAACAATTGGTCACATGTTGGGGTGAGGGTTCTCGCAGGGGCTGCTGGGACAGGGAAGGGAGGTCCACGTGGAGTGGGCGGAACGCGCTGAAAGTTTTGGCGGGGCTAGCAGAGGGAGAAAAATACCCAAATTTGAGTTGTGATTTTTAATAGGGGGA
0.8133270578968776 CGGGTCCCCTTCGGCCCTGGAGCCGGGGTCACACGCTCCCCACCGCGTGCGGTCACGAGACGCCCCCAAGGGAGTATCCTGGTACCCGGAAGCCGCGACTCCTGGCCCTGAGCCCGGGCTTAGCCTTCGGGTCCACGTGGCCGGAGGCCGGCAGCTGATTGGACGCGGGCCGCCCCACCCCCTGGCCGTCGCGGGACCCGCAGGACTGAGACCATGGAGGCGGTGGCGGTGGCCGC
0.2857378155949826 GGCTAGTCAGTCCCCTGACCCGGAACCGCACTGGTGCCGCCGCTAGCCGGCTGCCCACGTGCCTGCAACAGTGGCCACGTG
0.8415829915821177 AATGCCCCAGACACGCGCTATCATCTCTAGCAAACTCCCCCAGGCGCCTGCAGGATGGGTTAAGGAAGGCGACGAGCACCAGCTGCCCTGCTGAGGCTGTCCCGACGTCACATGATTCTCCAATCACATGATCCCTAGAAATGGGGTGTGGGGCGAGAGGAAGCAGGGAGGAGAGTGATTTGAGTAGAAAAGAAACACAGCATTCCAGGCTGGCCCCACCTCTATATTGATAAGTA
0.684661063427554 GACGAGTAGCCCAAGACGTGGGCTGCTCCAAAGAGGGTGAGAGCTGAGGATGAACGAATCTGATCAGGCGCCTCGGGACCACCCTGAAAATGGGGGGAGGGGCCTTCGGGCAGATCACGTGGTCAGGCTGTTAGCGCAGTTGCTAGGCAACCACAGCTGCGGGCGTGGTCTGCGCGGGGTTGCCCTCCTGTTCTGGTTTATCAGGGGATCCCCAAAGAAAGCAAGGGGACCAAGGC
0.05083517254653309 AAAGAACTCATAGCCATTAATTTCTGGGAATTGCCCACAAAATATACTAAAATTTATTCCGACCCCTGACTCGTTTTCCTGTTTCCGAAAGCCCTCCTACTTACTGTCAAGTGAACAAAGTTAGGCGCCCACGTGATCCTCCGAGCCAATGGCCGCCCCGCCTGCGATTCCCGGATAAGGAAATCTGCTCACCCGGACCCCACTCCAGCCAAAGAGGTTTATTTCCCCTTCTTCCC
0.3910810569274143 ACATCCCAGGGGCTGCTGATTGGCCTGTACAGAAGAGGGCTGGTTCTCCAGCGCCACCAATGAGAAGACGCAGAATAGGGGAGCGTCACACCCAGTCCCAGGTAGTATGCAAATATAATGTCACGTGACGTCAGGCTGAGCTGGAGAGTGGGCGCGGCGCTGGGTGTAGGTTGGAGTCAAACACTAGTGAAATAATTTTTGGGGGCGGGAGTAGGGAGCAGTGTCAAACTTTACAC
0.6495774944640573 AGGAGTGAACACAGGGGAGGTGGGAACTCGGCGCGGCCTCCCCAAAACAACAGGCCGCCCCGGCAAAGCGTGGGTTAAGGGGGCGGGCCCGGGGGAAGCCACGTGCCGGGGCGGAAGGCTATTGGTTCGCCCGGAGTTGTTTGTGAGTGGCCATTGGCGACGTCGAGGCGCCATGACGAGCCGATTGGCTGGGCGTTGGAATGCCCGCCAGGGCAAGGGTAGGGAGGAGGCGGCCG
0.4717002906988353 CCAATGTTACTAATACTTCTACAGAGAAAGGACCCACCCAAATCCCCAACCGCCAAGGAACCCGTCCGTGCTGCTGAGGCAGGAGAAAGACAAGTGCTCTTCAAACGCCCTCACTCACGGCTCCACCCAGGATGTGTCACGTGACCAGCGACACCGTCCCTCAAACCTGGAGTACCCCACACACTTCCCCTCGCATCCAAGGTCCTCCGCGGGGATCAGTGTCACCTCCTTCCCTC
0.5210710152847837 CACGTGGCTTCTACAGATTCTTACAAGAAGTAGAAAGAACATGGAGGAGCACACACGGGAGGCATTCCAGCCAGGCCCAGTGGGGATGGAAACATCACTTCCGCCTTCATTCCATTGGCCAGAAATGAGTCATGTGGCCATCCCTAACTACAAAAGAGGCTGGGAAATGTAGTCTAGCCTGTGCCCGGGAGAATGAGGAAGTAGGTTTTGTGTATAACCAGCCAATTTCTGTCCCA
0.1667344210751891 GCGCCGCCTACCCCCATTTCGCCATTTTTACCGGCGCGCCCGCCCCGAGGCGCAGAAGTAGGGCGAACGGTGGCCGCAGCTCCTTTCTCCCGGCTCAGCCGCCGGCCAGCAGCCGCGCCGGAACCTCGGCCCACGTGACGCGGGCGCGCGCCTATGGAACTGACGGTGGAGTTCAGCGAAGAAGGTGCCGCAGAGAATTCGCAAACACCAACCGTAACCAGAGCAGCTGGGGGCGC
0.7585126958165358 AACAGGACACATTTTCATACACTTTAGTACCATTTGAAGACTCTGGGTGTCAGTTGTTGCTGGGACCTGTTTTTGACTCTGATGAACCTTTACTGGTTGTGGTTTGTCTGGCCATCACATGACTTCTCTGAAAATTCCCCCTCCCCTTCATTTCCAGTAAACTGTTTGAGCAGGAGTGAGTCACAGTGAAACCAGCTTCCCTGTAACCACAGGGCTTGTTAAAGAATTTGTCAGCG
0.3804543536545601 ATTTTGTGGGCCCAGCGGGCGGTGTTTTTCCCCCTTTAATCCGAATTCACGGGTTTTCCCTTCGCTTTAATGGCGGCCACAGGGACCAGCTCGCCCTCTCTGCTCACCCATTGGCCGCCTTGAGGTCACGTGGGCCCGGGCTCGGTTGGGAGGGGGAGAGAGAAGTGAGCGAGGGAGGGCCGGGAAGCTTTCGGCGGAGGCGGTGAGCTCGGGGGACGGGGCAGCCAGCTGGTGGC
0.8266225211918055 CGGTGGAGTCGCTGAAACGCAAATGGATTTGAGACTGAGCGACTCCCATCTCTATGGTTGGTATGTGACCCATCTATCCTCTGGAGGACTCAGCAAGGACTACCAGTCACCAGACAACTTTACGCGCACGTGGTCGCAAGGTGAACTTGCTATTGGTTAATGGCAGTAAAGCCCGCCCATCAGCGCTGGTCTGCTCCTTTAAAAGAACGCCATCGACGCTCCCCTGTCTTTCAGCG
0.1454384800824355 TCCCAAGCCCAGCCCCGCCCACCCTCGCCACTCGGAGATGTTTACGTCTCCAAAGAGCCCTCACGTCTGTAACCAAAAGAGGGGGAAGGCGGGGCCTGGCGTTGTCACGTGGCTGTACCACCCCGGACCACCGAGAGAGCGGTCCGCACTACTTTCCCGTTGACGTCGGCGGAGGGATACAAAACGAAATAGCTCACCGGAAGTGCGCTGCTCGCACCCCGGGACCCGCCCGGGCT
0.8579595657812359 TGTAAGAAATAAATGTGTTTTCTTTACAAATTACCCAGTTTCAGATATTCCATTACAGCAACAGAGAACAGATGCCAGCTCCCTTTACACATCTCCTTACACCCCATTGGTCATAAGTTAGTCACATGGTCACAAATGACTGCAAAGAGTGCTGGGATATGTAGTTTTATTATGAACAGCCCTGTACGATGGGAGGATGTAGGAGTGGATGTGGAGATTTCTGGAAATCTCTGTTC
0.442263131816888 AAAGGAGCTTATTTTACTTAGCCGCGCCCCTCTCGGGAGGCTCTCGTCGCTCACTGATGACGCAGACGCCCTTGCCATTTGATTGCGAATCCTCCCACGTGACTTCGTCCTAGCCAATCACGAGTCCGGCTCCAAGCGAGCCTTCCCGCCGTTGGGAAATAACCAGAGTGCGGAAGTCTGGGGCGAGGGAGCTCCTTCCCGGAGCCCAGCAGCCTCCTTCTTCGACCCCGGGTGTT
1 GGTTCCTGGCTTTACTCCCTGTGATATTTCGGGCCCAGGAAGGAGGGGGTAGGGCCCGAGTCAAGGGCTGCACAGACAGCAGCTGTGGCTCAGGAAGGAGCCCCTCTGGGAAGTGAAACTGACCAGAAAGTGTCACGTGGGTACATCTGTTACCTACGGCAGAACAGTGAGCCCCCAGGCCAGCCCCCTTACCTCAGGCAGCATGCTGTCCTGCTCGCCAGGGGCCTGGGTCTCTT
0.5906049374597544 GGGCACACACACTGGCCGGAAGGTTTCACTCTCTTCACCTCAGTCATGCGGGCCGGAAGATTTCACACCCTTCACCTCAGTCACATGGGCCGGGAGGTTTCACACGCTTCACCTCAGTCACACGGGCCGAAAGGTTTCAGACCCTTCACCTCAGTCACATGGGCTGGAAGGTTTCACACGCTTCACCTCAGTCACATGGACATGCACACTGGCTGGAAGGTTTCAGACCCTTCACC
0.4593491004659442 GGGGCTGGGCTTGGGCTGTGCTCCTGTTGGGTTTCCATTAACCAGGGGACCAGCTGGGCTGCTGTGATTTCACTTTCGCAGAAAATGAAACTGAAGCCGTGGTCACGTGACAGGACATGTAGTATATAGCAGGCTGCCAGCGACTCCTGCTCTTGCTTCTGGATCTGCAGGGCAGTCCCAGCAGGACCCATGGAGTGTCCTTCGTGCCAGCATGTCTCCAAGGAGGAAACCCCCAA
0.09268185336807379 GAGTAAGTGTTATCTTTACTTTGTAAGCTGTAAGGGCCCAAATCAATGTACTTGGTAAAACTATCCATAGTGAACACACGCAAATGTCAAATGGCCATCATTTAGCATCTGCCCTCGGGCTTCCGGGTCCATCACGTGGTTACTGACAGGCAGGCCGCGCATGCGCGCTGCTACTCCGCCGAGCCTACGTGACACGACGTCAAGTGGCAATGGCGGCGGACGAGGGCTGTGCCCCC
0.4776150768080059 GCCAAGTGAGGGCGGGGCCTCGATTTTCTAGTGCCTCGGGCGACAGGAGCCTTACTTTGTTTTAAAAAAAAAAAGTTTCTTCCGGTCCCCATGGCAACCCTGCGGCAGGTCACGTGGGACTGAGAGCCCAATTGCCAAAAAGGAATGTTAAAGTGCAAAAAAAGTCTAGGGAATGAATGTTTTATAATCCCCTTTTGATCACTAGTAGCACATCTCCTTTGCTTACTTACATCTCC
0.5250261636117248 GCAGCCCCGCGCCGCGCTAGGCCGGCCTGGAGGGCGGGACAAGCGCTAGAAGCTCCCGGCCGGGGGCGCGCACGTAGGCACGCAGAGGCCGTCACGTGGGTCGCCGAGGCTCGCAAGTGCGCGTGGCCGTGGCGGCTGGTGTGGGGTTGAGTCAGTTGTGGGACCCGGAGCTGCTGACCCAGCGGGTGGCCCACCGAACCGGTGACACAGCGGCAGGCGTTAGGGCTCGGGAGCCG
0.02585052431128201 AGCCGCGCCCACTAGCAACGTGCTCGCGACCTCCAGTGCCCGCTCAGTGAAGCTTCTGCATGCCGCGCGCGGCACGTCGGGACTCGTAGTTCCGGCGCGGAGGACGTGCGTCGCGGCACTCTCGCCTGACCGTCTCCACGTGACTCTCGCACCTCCGGAAGTGACGTAAGCAGACACGCGTGGCGCGGGCCGCCGTTTCCGCAAACAGAATCGCGTTTGGCTGTGCTGGTGAGTGT
0.8031486453960723 GACCGCCCTCGGGGAGAGGGGAGGAGCCTCCAGCGCCGGGCGGGGCGTGGTTAAGGCCGGTGGGCCCCACCGCAGCCAGACGCTGCCCGTTTAAGCGCAGAGGGCCGCGGGTCACGTGGTGGGCGGGGTGGGGGCGTGGCACCAGGAAGCGGCGTCCGCGCCGGGCCCAGAGCCGCAGCCGCAGCCGCCGCTACAGTCCGGGCCGGGCTCCACCGCGCATCCTGCTCCACTCTGGC
0.2697584046587568 TCTATATCTGTCCAACACAAAAGCCACAAGTCACATGTGGCTGTGGAGCACTTGCAATGTGACTAGTGTGACTAAGAAACTGAAAATTTAATTTATTTTTAATTAACATAAATGTAAATAGAAAGAGTCACATGTGGCACTCTCGTAGCTACTGTATTGGCTAGAGTGGCTCTAGTATATGCTGCCAAATCCCACAACTGTTATCTCAGTGCTACAACCCACTTCAACAGCCGCCC
0.3870076595984661 ATCACAGTTGGGCTCCCATTGGCTCTGAGATGTGGGCGGGGTCACCACTCCTGGAGCTGCCACTAGCTCCACCCCATTCCATGCAAATGAAGTCAAAGCTGTGGTGAGTCCACGTGATTAGTCACATGGTTGATGACACACTCTCCCCACCCCTTTAGTGACGTCATTGCCCACTCAAACTCTCACGAGAGTTTGCACAGATGTGGAAAGGAGCTGGCAGGGCAGTTCCCTGGGAC
0.3586255964354595 TACTTCCTGATCCGGGCGTTTAGGTGCGTCAGGCGCACGTGGGCGCCGTCTCTCAGCCTTGGCCAATTAGCGCGCGCCTA
0.5008532679916421 GCGGGACCCGAAAGCCCAGCGTCGACGACGCAGCCACTTCCGATTCCGGTCGGAGCACCGCCCCGTCCCCGAACACGTGACACACACTTCCGGCCTCCTCTCCCGCCGGCCCGCCGCTCATCGCGGGGCTCCGCCCCGTCTTAAAGGGATAGTGCCCTTGAGACTCGGATCTCAGCCTCTCAGGCGAACCCGAACCTGGACGCGCTACGATGAGAGCGAGTTCGAGTCCAGGCTCC
0.3853657554326503 TCCCAGCGGCCGCCACTTACCACCGAGGCCGCCTCTTCGTCCACAGCCTGACGCCAGCCACCGCCGCCGCCGTCTCCACTGCCGCACGCACGCCGCCACTTCCGCTTCCGTCCGTGCTGCGGCCCCGCACGTGACGCAGCGCCTTCTCGCGCCCAGACTGAAGCACCGCCCCCCCTTAAAGGGGCCGCGGACTAGAGCTAGCTGGATGCAGCTTGGGATCCCGGCCTCGCCACCGC
0.6488243904102945 CCCGGGTTCAAGCGATTCTCCCACCTCGGCCTTCCAAGTAGCTGCGATTACAGGTGCCTGCCACCACACCTGGCTACGCTTGCAAATATGAAAGACTACATTTCCCAGCAACCCTTGCAGCCAGGTGTGATCAGGTGACCGTGTTCTGGCCAATGAGGTGAGTGGAATGCTGGTTGTGACAAGGGACACATCTTTTTGTTTTGTTTTTAGACGGAGCCTCACTCTGTCGCCCAGGC
0.7928245987564427 GTCTCTGGGTTACGCCCCTTGGGTCTGTCCGTTATCCAATCCCGTTAACTGCTGTGCTCCAACCTCTGTTCTTATTGGTCGCCTCCCTTCTCTGTCCCCTGCACGTGGTCCTGATCGACGGCTTTGCCGGCCCGTGACGGCCGGAGGGCTGAACTTCCGTTGGCGCAACGCCCAATAAGCGCGCGTCGGCAGGCTGCCCAGACAGCCTCCCCCGCCCCCTCGGCGTCCCGCTCCCG
1 GGACCCTCAGCGCAGCCACTTCTCCAGGCACTCGGCAGAGAGAACGCGCGTAGGCGTTGCCCTGGCAACGCCGGGATGCCCAGCAACAAGTCCGCGGCGTGTATCACGTGCTCGGCGCGGACCAATCCGAGGGCCCGCCGGGAAGCAGGTCAGCCTGGGCCAAAGTCCGCCTCCTCCCTCGCGGCGAGAGGCTCCCAGCTAATTACCGTAATTGCGGTGGGAGAGCTGCCGGATGC
0.466714131533767 CCTCCACCTTTCCTGGTATTAGAACCCCGACTCGGGAGGCACACGGCCGTTCAGAAAGGACTACATTTCCCAGGGTTCCTTGCGGCAGGAGCAGGGCCATGTGATTATATTCTGGCCAATGGGATGAGGGCAAAGGCCGGTCTATGCCCTCCAAGAAGAGGCGTGCACTTCCCGCTTCCTGTTCCCTTTTGCGGGAGCGGGAGCCACGTGTTTTATAACAAATAGCCAGGCAGAAG
0.7654513070216004 CTTCAACCCCAAGACCCGCCAGTAACGGCCGCTGGCAGAGCACATGCGCCGTACGTCCATATGCAGGGACTACAATCCCCAGTATGCAGCGCGGGCCTGGCCTCAAATCCCACCTGCCCTAGCATGCACGTGGTGTCCTTCGCGCATGTGACAGGCCCCAACGTGCACGATCTCAGGTACCTCCGCTGACCACCCTGCAGGCGGAAGAACGGCCCGGAATGAAGAGCCGGTGGCTT
0.1395982227563692 AGGAGCCAGTGTCAAATCTGATTAGTCAAATCTGATTGGTCACCGCCTGTCTGGTAGCGGGTTGTTTGCCTGTTTTGAATAAGACCCCTGGCAACAGGTGATTCAATTCTCTCGTCCCAGCTGATTGGGTCAGGTTGGACACGTGACTTGAGCTGGGCCAATCAGGTCTCCCCAGAAATGTGGGTGGGCTGGACCACAGAGGCTAGAGAGTGGAGAAGAGGAAGTTGTGCAAAGAC
0.4241695262639484 GGGAGTGAATATTATGGTATGTAAGTTACAGCTCAATAAAGCTGTTTCTAAATTAAAAAAAAAAAAAAAATCCCTCATGCCCAAGCCAATCAGCATACAGCATTCCTCTGGTCACATGATTGGGCACTGGATGTCACATGACCTCAGTCTAGCTGGGAATGCTGGGATGCACTCTGTCTTCCTCTGGGTTTGGCACTGCAAAGAAATGAGGTTTGGAACCACTACAACCACCGGTG
1 AGTGGAAGAGACAGGTCCGTCTGGAAGGGACAGCCAGGACCCGGTGCAGAGGCAGGCTGTGGTTATCTGCAAACAGCCCCCTTCCTTCCAGCATGTCACGTGCTCCCGCCTGAGCCTCTGGCCGCAGGAATCAGGTGACCCCAGGCAGCGGGCCAGGCTGCAGGGGCGGGTGAGTGAGTCAATGTATGCAAGTGTGTGTGTGTGTGTGTGTGTGTGTGTGTTTTCATCTCTGGGAG
0.7047649563168397 CCGGAAGTGCCCCCAGGTCTGTTCCACCAGGTGCCCCTGGCAGCCTGCAGTAGAACCCTGGCACTCACGCCTCCCCGGGCCATGGAGGCGGCCATGACATGCATCACGTGACTCACCGACTGAGCATGCGCCGCGCCAGGGAGGCGAGGGAAAGCCCATAATCAATGGAACATAAGCGCAGATGTTTGCTTAGGGCCTGCGGTGACCAGGTGGGAAGAGCAGGGCGGAATCCATCT
1 TCATCTTCTCAAAAACAGGTAAAATGGGGCGGCCTGAGGTTCAGCAGGAAGTGGATGTGGATGTGTGGTTGCCAGGAGTTGCTGGGGGCGGAGGGTGGAACTTGGGTCCTGGGCTGTCATTGGACATTGAATTCACGTGTTCCACATGTGTGAGGAAATTGAAAAACGGCTCAGTGAACACTTACACACCCACACTGCAAGCCCTCAGCTGTGACCAGAATGCCAGGTGCCATGTG
0.2797899030222523 TGATTCAGAATTACTTTTATTATTATTAGTGGCAGAGACTAGCTAGTGGCCCTTAAACAGCTTTGCCCTTCCTGGGTGTACAGCTAAACTAAGTTTCCTGGCCTTTCATGTGACTGGGGTCATGTGACTGTTTCCAGCCAGTGAGGTGTGAGAAGAAGAGAGGAAGCCCATTTCCAGGCCAGATCCCTCAAATGGCCCATTGAGGGTCATTGCTGCCCTTTTTCTTCCCTTGCTGA
0.6732561523910225 TACGGCGGCCCAGAAACGCGTTAAACCCCGACGCGCGCGTCTCCGCAAGAGCACAGGAAGTAGGGAACGTGCTTTGGGCGAAAGACCGGAAGTTGGTTTATCACGTGACCATTTTTAGCCCCTGTAAACCAGGTCGCCGCCATTTTTGTGCGTGTGTTCCGTAATACGGAAGCCGCGAGGAGCCTTTAGGCCCTTTCTTTCTTTTTTTTTTTTTTTTTTTTTTTGAGACGGAGTCT
0.9075477958989906 GAAAATATAATTTATATTTCTCCTAAAAGGCAAGTAATGAGGAAATTAACTCATGCTCCTAGCTTCGCTAGGAATGTGATAGAGAATTTCCCCTGTAGGTTCTTCGTATGGTGCGCTCCGCTGGATCACGTGAGCCAGTTCCAAAATGGCGGCAGGGGTGGCCGGGTGGGGGGTTGAGGCAGAGGAGTTCGAAGATGCTCCTGATGTGGAGCCGCTGGAGCCTACACTTAGCAACA
0.4439253722214749 GCCCGCCCCGAGTCCGAATCCCTCCCCGCGCTGCCTAGCCCGTCCTCACCTGCTCTCGTAGCCACAGAAAACCGAATTAGTCAAGGTGCACGTTTCCCGAATTAGGACCTGGGCGCCGCCATGTTGGCACAGTGGGTGGGCGAATCACATGATAGTGGTTGGCCAGTCAATGAGGAAACGTACGGTGGGCGGCCGGGATCAAAATGAAAGCCATAAAGGAAGCGCGCTGATCGTGC
0.8127007438436457 TCATAATAGGAAACATTTGAGGAGCTTGAACTGGGCGCCCAGCAAAGGCCACCCAGTTTAAGGAAGTGACATCACTTTTGCTTGCCTCCCATTGGCCCAAACAGTCACATGGCTACATTTAGCCTCAGAGGAGCCTGGGACATGTAGTCTTTGCTGGACACTGGAGACATGGCCTTGAGCAAAAAAGGCAAAAATCCACACTCTCTCTGGACATGGTGGGTCACACCTGTAATTCC
0.04637370224868482 GGATGTGGTTCTCCCACACCAGCTCGACCCCCGACGCTATTCACCTTCACCTCCAGGATATGGCGCTGCCTCCAGCAGAATTCGGCCCCCTCCGTGTCACGTGACCCGGGAGCGTGGCCGTGCCCGGGTGGCCCACTTGGCTCAGCGGCGCCCCGTAGTCCGGCCCGATGCGCATGCGCACAGTCGGAGCCCCGCTCCGGGGCCACCCGAAAGAGCCTTGCCTCTACTGGCCGCCT
1 AAGCATACTGAGAGGCAGCGATAGTCTGGGAATTCAGTCCAGACTCTGGAGTTGAACATAGCTCTGCTGGCTTCTCCCTGTGCTTGAAGCTAACGTCTCTAAGCTTTGGCCAGAGTCAAGATTTTCTGCCTTGTGGGCCACGTGGTCCCTTTCAAAATGACTCAACTCTGTCGTCATCCCAGGAAAGTAGCCATTGCCAGGCGCAGTGGCTCATGCCTGTAATCCCGACACTTTAG
0.1228922498156105 TAAAAAAAATAAAAAATAAAAACACCCCACCCCTCGCCCGCCGCCAAAAACCCTGTCTGAAATAAAGACTACATTTCCCAGCATTGCCATGAAGCTAAGTGTGGTCATATGACTATGTTTTGGCCAATGAGGTGAGAGAAAAAAATCACGTGTACTACTTCTCCACTGTGGCTTAAAAGGCAGGGAGTGAACCCCAAACTTTCTCCTTCCTCTAGCCGCAGTCTGCAATGCTTGTG
0.7502349702939487 TCTCACCCGCGGTCCGGCCGGGACACCCATGCCCCTCTCCACGCCAGCGGGAAAGAGCGAGGGAGGCGCAGCACTCACCCGGTGGCCGCCGCCATGTTCGCCCGGCACCGGCGTCACGTGAAGTGCGGCGTCAGCTGAGCCCCTCCGGGTGCCAATGCATGGGGCGGGGTAAGGGCGGGGCAGGGGGCGGGGCATGGAGTCCTTGACCCACCTCCTCCAGAGCCAAATTCCACGGG
0.5903941725024304 AAGCAGCCTCTCCTACAACCAGAGAGAGAGATGTCCCCTTCCACACAAACTCTTTCCCAATCACTGCAGAAAAAGTCCCAGGCAACAACAACAAAAACCCAGGCCCAGCTCCCATTGTACAGATTTGGGTCACGTGCTCATCCCTTGGCAAATCACTGTGCACCGGATGTACGCGGTAGGGGTGGAGCGGGGTGGAGTGGGAGGCGCTAGGCCTTCAAGAATCGTGTGACCTGAGT
1 GCCGCCCGGAGCCGGCGGGCGGGCGGAGGCGGAGGCGGCGGCGGCTGCAGCGGCTGCAGGAGCGGCGGCGGCTGCGGCGGCGGCGGCGGCATCTCCTCCTCACATGACCCCACTGTTTGTCCCCGTGATCAGCGCGAGCGGCTCCCGTATCTCCTCCGTCCCCTCCTGCCGCGCGGCGTGAGCGCCGGGCTCGGGGCCCCCCCGGCCGCCCGCCCCCTCCCCTCCCTCCCTCCCCT
1 GGGCCATAGCGAGTACTGTGCACCTGCGCAAAGCCGGCCCTTCGTCACCCCGACTTTCATCACG
1 ATCCCTGTCCTGAAAGAAAAAGAAGGTATCTGTCCCGAACTATCATGCAAAACCTCAGAGCTCCTGTCTGATTGGACTAGCACTGGTCATGTGATCTTCCCCGAACCAATCACTAATAAGAGGGGTGAGCTCACACTAGCAGGCTGGTTGCAAAACCTGCCATAGAGGAAGGGCGGGCTGGGTGCTGGGATTGGAACCAGGACACACATGCCACTGTATCTGCATTCTCTTCCTCA
1 ACCACCAGCCCCTAGGGACCCGGCGTCCCGCCCCCCACCCAGGAGGCCCTCCTGGGCCTGCTGAGACCGGAAGGCGGGGCCCGACTGAGCTTGGCAATCGGCACCTGCCATGGCAACAACTGTACCATTGGTCGCTGGTGCCAAGAGCTCAGCCAATCACAGCCTAGGGCAGCTGTTGCTAGGCGACGAAGAAGCGGCCCGCGGAGCTGAGCCCAAACAAAGGGCGGGAGTGGGGC
0.6482566462568478 GGGGAGCCCGAGCTCAGACCTGCCCACTGGCTGAGGGTATCCGGCGGACGCGGCAAGCCAGGGCCCCGATTACCCAGTAATGCAACCAGCAAAATGGCGACCACAACAAACCGGCCCCCCCACGCCCTGGACTCCGCCCCCATCCCTCCCTCTCCGCTCCCCTCACGTGACCCACACTGACACTCCGCCTGCGCGAGATGGCCGCTTACCTGCACGCATGCGCAGCGAGCTACCAA
0.6313353310407722 ACTTACCTCTGGAATACATCTTCAATCAGGTTTTCTCTCTGTGGCAAGGTGACTCTAAGCAGCTGCTTAGCAACTCTTTCTTCCCTAGCAACAGCAAAAATCACAAGACTGATTTTCATTGGCTTGAATTAAGTCAGGTGGCCATTCCTGAACCAATTACTGTGGCCAGTGTGATGAAGGCCTTCCATTATTGCAGCCTGGATCATGTGTCCTGCTGTATTTTTAGTAGAGGCAGG
1 AACTGCGGGGGTCGGTAGCGCCAAAGCCTGTTGAGACTACATTACCCAGAAGGCAAAGTGCGGAACACTTCCGCTCCCTTCACAAAGCAGGTGGCCGCACCACGCGCGGCTAGGCGCGGGCGTTTCTGGGAGTTGCAGTTTCCCAGCCAAATGGTACCTGCTGCCCTCTGATGGCAGCTCTGAGTCAAAAAGTAAAAATTTCAGTCGAGCCCCTTGGCCTAGGGATTCCAACGCGG
0.6941170661814824 CCCGGGGGGCCAGTCGGCCCCGCTCCCGCATCCATCGCGGAGGCGCGGCCCCTTTAAGGCTCCCGGAAACGGTCCCACAGGACCGGAAGTGACCCTCTTTATTTCCCTTCCTCACGTGGTGCAGGCAGGAAGTGACGCGCCTGGCCCGGGAGCTGCGGTCGCAGAGGCCGACGGAGCCGGAGTCGCGGACGCCGCGGGGTCTCCGGGACAGGTGACCTGGGGGAGGGGGCCGGGAG
1 ACTTGCCTGATTATGATGGATAAAATGAGAGCTTTTCTGTCCTAGCAACCGAGTGTAAATTCCACAAAAGGGCCCTGATTGGCCCTTCTTGGATCATGTGTCCGCTTCTCAGGCCAATCCTTGGTTAGAGGGGGAGTAGACTACTAAGACTGGCCAGGTCTTTGTTACTTGCCTACCCAATAGGGGTTCTTTGTCTTAAAGGCCCTCAGAACCATGTAGAATCGAGGAAGGGCTGT
0.5487769219923666 GCCCCACGGTGTTGCTGCTGGATCCTCCTCCACCAATCAGCAGGAGCCCTCGGCTCGCGCTGGGGCGGGGGGTCCCCCACTCGCCCTCCCCGCGGAACTCTGGCACAGTCAGCTGACCGCAGACACTCACGTGACAGCTCGGGGCCCACGCCCGGGTTTGACAGTTCTGCGCAGAACTTAGTCCCGCCCCCGCGGCTGGTCTCGCCGGTTTCTTCACTTGGAAAGGCGTTTGTGGG
1 AGAGTAAGGATTATGGAGGACATTTCAGGCTGAGTCTAGAAATGGGCTGTGTCCCTTCTGCACCCATTCCATTGGCCCAAGACCAGTCACATGGCCTCAACTTCACTGCAAGGAGACCTGGGAAATGAAGTCCTCCTGTGTGCCTAGGAAAGAAGAAACCAAGTTGGTGAGCATCAAAGCTGCAGTGAGCCGTGATTGCACCACTGCACTCTGCCACCTACCCTTCGACTTCTGGT
0.8225310103882822 GAAGGGGTAATGGCGCTTCCACTCACAAACATGGCGGACAGAGCGTGTGAACGAGATGAACAGCCCCTCAAAAATATGGCCGCCGAGGCTGGACGGCCGTGCCCCAGCAGCACCGCCTCCGCGCCCCACGTGATCTCTCGCCGGGCACAGCGCTGACCGCGGAGGTCCAACCGGAAGAATGTCCGGATTGGACATTCGGAAGAGGGCCCGCCTTCCCTGGGGAATCTCTGCGCACG
0.2337348526709689 GTGGTGCAGCTCTCAGACCCTCCCACTTGTTTACTTCGTGGCGAGAGGGCGAACACTGCGCCTGCGCACTCTCCGTAGCCGGATCCACCTTCAGCGTCTGCGCCACGTGACTCCGATCCACCCTCGAGGTTCCAGTGGAATAACCCCCTTCTGAAAAATGGTTTCACCCGCTCCTTCTCTAGAACGGGTCGGGCCGCTACCACTGTCCGGCCCGGAGGGGAACTGTTTTCTCCGGA
0.4044666189738987 GGCTCAGGGACACAGGACCAGGTGACAGGCACAGGACACAACCTCCCATGTGACATCACGCTTGGCTACACACACTCTTGCAAAGCTGCAGGGTGACTCATACAATGTGGTCACACCATGATACACACAGCACATGACACTGAACCAGATAGGTACAACCACAAAGATCCAGTCACATGGTAAATTACAGTGATATCATAATCCAGAAACAGCCTCGGATGAATGGAAATGCCTAT
0.2090159973108103 AAGCATCAGGGAGATTGATGAATGCAAGGTATCTCACACACCCACGCCCCTTGTGGAGAATTGCCTTCCCATAGCACTAAGTGGCCATGTTTCATATCACATGACTCCAAGTAGCCACTGATTGGCTAAGATTTGGTCACCTGACTGGGATGCCATCAAATGATTGGCCATTCAGTGACCAATGATGTGGCTGAAGAAGAAAAGGTGAGCTAGATGAATCAGATTCTCTTTCATGA
0.0308587896772301 ATGAGTGTGAGCATGAGATAGAGTGAAGGTGTGACAGAGTCAATGTGTGAGAGTGGTTGTGAGATGGAGTGAACATGAGAGTGAATGTGTGATAGAGTGAGCATGTGATAGAGTGAACACGTGATAGAGTGAACACGTGATAGAGTGAGCACGTGACAGTAAACATGAGCTAGAGTGAATGTGTGAAGGTGAACGTGAGGTGGAGTGAACGTGAGATTGTCGATGCGTGAGAGTGT
1 CTCTGCCAGTCATCGGCTGCTGCTCCTGTCCCTTTGAGGAACTAACGACTGTTCTGTGAGTCAGTAACTAGGGGCAGAGGGAGGGGTGACAGACTCATTGCAGATATCAGGTGATCACTGCAGATATCATGTGATCGCTGCGGCCTTGGAGCCAGAGGCGTCCCTGTTTCTGCTTCCCCAAGAGGACATTCTCCTCCCATGGGGAAGGCCCCCACTCACTATACATTTGCGGCATC
0.8521725327046553 TTCTGCACTTTCTCTAGAGAAAGCTCTCACACAAAGGCGAACAGACAAACAGGGCCGCCTTCCCCTGGAGGCCTGGGGTAAAGACGAAATGAGAGCTGAGTTCACGTGAAGTGCCCCACGTGGTGGCAGTTTCCTCTCTTTTCCTGTGCAGCTAGGTCACCACCCACTTCTCTTTGTACCCAGTTCTCTACTAATCAAACATACAAGACAGCTCAAAAATTGTGCGTGGCGAGTTG
1 TGAAAGGGGTTCCAGGAGAGCATCCCCTGAAAAGAGACCTGGAATAAGGGGAACTGAAAGGAGACCACGGCCGAGCCACATCCTCTCCGGGGCCTTAGTCTCCTTCCTCATCTGAATCAACCAGCTGAGCATGTGTTCTATGTCAGCTGACTGCTGGAACCGTGACCGAGCCTCCACACCCTGATTAAGCCACTGTCCGTTGCATATTGGCAGAGCCTAGGCCACTGCCCACCCCG
0.230791461455201 ACCCATAGGTTCCCGGGTCCCGCGTCGCGATCCCAGTGGGGCGGGGTCTCAGAGGAATCGGAGGGTGACTCATCACGTGACTCGCTCCGGCCGCAGCCCCCTCGGAAGCTGCTAGGCGGAAGTAGAAGTTCAGAAGAGGGCTAGGCGGAGCCGAGCCCACATCCGGGAGAGGAGAGCGGAAGTGGCGTTGGTCTGGCCGGAGCCCTTGGGTGAAATTGTTAGGCGTGGAGAGGGAG
0.5228296801283134 AGCCCCCCGGCCACCCGCTCAGCTGTTTCCTGCTCGTGTTTGTTGTGCCGAGGGAGGCCCCGCCGCCACCGCCGCCGCCGCGCTCTGCCGCCCCGGTCCCTCCCGATTGGCCGGCTGGCGTCACGTGGCCTCCATCAGCTGGGCCGGCGGGGGCGCTCGCGGGCCCCACTGCGGCTGCCGGGTGAGCCCACCCGGGGGTCGCCCGGGCCGGCCCAGCTCCGCCAGCTTCGGGCTGC
0.8248276620790007 GAGGCTCTATTTTCCAAAACAAATTTTGGTGGTCACTAGTGTTAGTTACGAATTTTATCTCTCTTCTTCAGGATTGCATTTCCTGCCTCTTTGAGATTAGGCATGGCCACATGGCTTGCTTTGGCCAATGAAACGTGAGAGAAAGTGTCAGGTGTCAGTCCTGGGTGAAAACTTTATGCATGAGTGTGCTATGAGTCACACTTTCTTTCTTTCTTTCTGATGTTATATCCAGAAAG
0.7456978761716825 AGATATGTGGCAAAGGACTATAGCCCAGTGCCTGGAACACCAAGACTAGTCTCGTTTCCCATTCCACACACAATATGTTAATGACATGTCACGTGAGGGGTTCGAGGAAAGTTGCCTAGAGAGTTCCCAATTCATTCCTTTCCTCCGGTTACTGAGCGCCTCCTACATGCCAGGCGCACTACAGAAGGTGCAGTTGATTCAGACAGGGCCACCATGACCGTGAAAAGGGTGCTTCC
0.3663280359456961 CATTCTGATGCCTGCTCAAGTTTGAGAAGCCCCGTTCTAAGACAGCCAATCAAACAACCAAACACCACCACCAACAACAACAAAGAGACAAAACTCATTTCTTCTTCCAGTGATTGGTTTGGGGTGGGCACGTGACCCTGCTCTGGCTAATGCAGTGCAATGGGAGGCTTGTTTAGGGGCTTCCGGGAGGCGGTCGTGCTCTTGAAAAAGATGCTTGGGAAGAGTAAGAGGCATTG
0.9860980887343062 GGATATAAAGGATCCACACTCCAAACACAAGCAATGTACATCTGGAAAAAAATCAATTAGGTATTATGATGTAGTCATGTGAGAATCATGAGATGCAATGTGAAACTGAAAACGGAATCCTAAATGAGTCTGCCTGCTATGCAGCATAAAACTACAATCTTTAAGTTGACATTGGGGTGAAAGGAAGGGGCCATTTCCTATTTTCCTGACAAGATAAACTAGTCATTTATGACTGT
0.8060245042678289 TTTTAAAGTTAATTTGGAAAGGAGCCGGCAAGCAACCTTCAGTCGGTGTGCGGTTTTTACAGTTGAACTGTTTCCAGCCGCTAATTATGATTGTTTTAGCGGTTCGTCATCTGAAAACTGCATTCTGCACGGCGGTGGTGGGGGGAGGACGAGGATGGAGAAGCCTGGGCGGACATATTTATTAGCTGCGGTCCTAAGTCACGTGTGACATTCTGTATCCAGTCTATCGGTTATCC
1 TAAAGATCACTCCAGCTAGCACATGGTTGAGTGGCCTTGCAGGATGGGGGAAGCTAAAAGTACAACTGTGACAAGTAATCAAAAGTAGCAAAGCAGAAAGAGCCCATGTGACCTCTGTGGTTTGAGGAACTTGTTACACAAACCCTATCTTGCTATTCACTCCCATTTCTCAAAGCTTTTTTTCTTTAAGCTCCTGAGAGAACCTGGAGCTAATTTTTACAATTTAAAGAAAAATC
0.08727473231236656 GACAGAGAGACAAGCCGGGCCAACTCCTTCCCATGAAACCCCGCGCTCCAGCCGCTCGCCAATTGGCGCCGCGGTCGGCGCGCGCCGCTCCCCCGTCACGTGACCGTACCCTGGGCGGGTAGTTGTTGGGGCGGGTCGGCCGGGAGGTTAGGATCTTGTGTTTGTGGCCTCCGCAGCCAGCTTAGGCTGCTCGGTGTCGTGTCGCAGTTATGTACTGCCATTTATTATGACTCTTA
0.8514159972497963 TGTCAATTATTTTGGAATAATTTTGTGATTTGTGTATTATTCCTTCCCTTTTATTACTTTGGATGATAACATTGCTTGTAATTGTTTTATCACATGGTTGTTTTATCACATGGTTGGTTATATCACATGGCCTGGAGTAGTGACTTCTTGAAATGCCATATTTTCATTCCTGTTACAGAATAGTCATGCATATGTTTCAACATTTATAGAGTAGTTGCTTTATGAAGGTCCTGTCC
0.5213159579455764 AGGAAGAGAAAGCTACCTTTCCACCCAATAACTCAACGCTGCGACCGAGAAAACCAGGGACGCGAGAGGCTCGCGTCATCCTGCAGCGCCGACACCACAGACACTAGAAAGCGACGCCTCCGGTGGGACGACTGGAGGTCACGTGGTACACTATACGCCACCTTTCCCTTCTGGCGGAAAAAGCCATAGAGTCAGGTTGACAAGGCCTGAGAGAAATATGTCTGTATTAAATAATT
0.8362134613342083 CCATCATCCGGTTGGAAGCCAGATGTGACAGAGAGCTCTTTATATTTCGGGAGTGGCTACCTCAGGCACGTGTAGAGCCATCTGGGGCACCGGAAACAATGTTTCAGAAGTGAGATTAGGAGGAATCCGGTCATGTGGCCGAGAAGATGGGGCACGCAGTATAGACCACCTGTTTGCATAAGGGACCAGCTTTGGCTTGTCAGGTCTTCCGTGAGATGGGGAGATTTTTAGAAATA
1 TGCAGTTTGAACCGCTTCGGAAACAGCTGGCCCGGCGCGCGCGGCGGGAGGGACGCGAGTGCTCGGAAGAGCCGCCCCACGTGCTTTCGGGGAAACTGCCCGGGAGCGAGAAGGACTGGGATTGAGAGGAAACCGAAAAGCGAAAGTTAGAGCCTGCGGGAGCAGTACGCAGGCGCAGCACGCAGGCGCAGCGGGGCTTTCCCGCAGCCCGCTTCCTCCCAACGGTTTCTCCCTGG
1 AATGTACTCTCTTTTCATAAAGTCCATCAGAGCACCAGGGGTATGAAGTCTTCCACAGAAATGCAAAATACAGAGCTAACCACCGACCGCGAAGCAGAGGAAGTGCAGTCATGTGCTCAGGCTGTAGGTCTCCATGGAGACACCCTTCTGTCTACATCCTTATTTATCATCTGGGTCTCTAGTCACTTCATAACCACAAGAGGAAAAAAGAGCCATGGATTCAACTTGCACTGGCT
0.4797974199185714 GCCGCCCCAGTCTCTCTGTCGCCGGCATCCAGGCCAACCTGCCCGCTGCGGGCCGCAGGGGGCGGGCCTGAGAGGAGGGTTCGGGTTCGCTCCAGAGCTTCAGCGCGGGGACCGCACCCGGAGTCACGTGACGCCCCTCCCGGCAAGCTCTGAGAGCGACGTGGGCTGCGTCGCTACCCCTCAGGCGCCGGGCCAGGCGGGCGTAGAGCTGCTGAGGAAAAGCCCGCGCCCCCGCA
0.02608604091018908 AAAGCTCCCAGCAGCCAGCGATGAATGAAAACCCGAGTCTGGGATAGCGGCGTGAGGGGCTGGGCAGCTGCCAGGCGGGGGCGGGGCAGCAGGTCACGTGCCTGGCTTCGAGGCGGGCGCCGGAGGGGGAACTCTGACCATGATTGGTTCCTCCTAACCAGGTGACCGCAGGTCGCGTTCCGGTTGGCAGGCACCGGCCAGGGCCAGCGGCCTTCAGTCGGTAGGCGGCGGCGGAA
0.00310581753459297 CCTCAAAAGAGCCGTCACCACACCCCCAATGGGTGAGGCTCAGCCGATGAGGCAAGAGGCGGGTCCAGGAAACCACGTGTTCTGCCTTCTGCGCACGCGCCAGCCAAAACAAAAGGGAGGTCTGCCAAGCCCCACCCCCCACGTGACCGGCGTCCAGGTCCGCCCCCACCCCTCCCTAGACCCCTTCCCTCCCCAGCTGCCAAGGCTGTTAGGTTTAGCCGTTTAAATTTGGCTGC
0.514635297788766 CCAGGCGCGCCAGGCAGAGCCCCACCCCATCCCGCCGTTCCCTTCAGCCCCGGGGCGCGGATCTTGCATCTGAAACTGAGCAGAGCAGGGCGCCGGGCAGGGCCGGCGGGCCACGTGATAAGCCCGGAAACAGCTCCGCCCCCTCGCTTCCTGAGCCGCCACATCCCGGCAGCCCTCCTACCTGCGCACGTGGTGCCGCCGCTGCTGCCTCCCGCTCGCCCTGAACCCAGTGCCTG
0.5233628968499977 CTTTGAAGAACATGCCCCCAATTCAATAGGCTGGCTATAACAATGAAGGTACCTTCCATCCCTCACCCCTAACCCTCAACAGGAAATGGACATGTGACCAAGAAATTGACATGTGACCAAGATGAGCCAATCAAACACTCTTTCTATAATTTGCTTCTTAACGGCAAAGACTCAAAGTTGGAAAACAGCTGGAGTTGAGGCATGAATTATTTTAAGGGTAGCATCTTGAAGAGCAG
0.7500225702162548 GGAGCGGGGGGAATGGTGCAGGCAACGAATGCAAATTAGAGAAGCAGAGCCGGCTTGGTCACGTGCCCAGGGCGGGAAATCTGACGACCAGGCCGAGCTGGAAACCTCCACGGAATCGTGGCTCGGGGCTGGAAACAGACCTCACGGAATCCTGGCTCGGGGCAGGACACAGACCTCCACGGAACTGTGGGTCGGAAGCTGCCCTTCCGCCAGCCGCCTTGCTCAGCGTATCTGAG
0.1508716157841315 TGTGAATTAAACTTAACCGCAAGAGGAGTCACCTGCGGTCACCTCGTTTCGCCCACAACAAAGATGTCTGCGCATCGCTTACCGTGGAGCCGTTCCAGTGCGTGGGCCACGCGTCCGCCCTTTTCCGCGTCACATGACCACGAACACTCTTCCGCTACGGCTCCCAGAAGGGGCCAGCCCGCGCCTTTCGCGCTTCTGCCCTGGCCCTCTGCGGGCCGCTCCGCCGGTGCTGTCCC
1 ATGCGATGTTATATAATGAAATGAAAGACAAGTAATGAGGAAATCAGATTTTTTAAACAGGAGCAGGACAGCTGTTGGTGTGAGTTCAACTTGCCATAACACACGTGACTTTCTTGTTTTGGATTTACTGCTCAGCTGACCGGGACACTCTAAACATAGCAGTTGTTGGTGGCTGGGATTAACTATTTCCTCATGATCTGTGAACCCTTTCACCCCTCAGCCTTCCTCTACCTTCA
0.307747296934046 CGCGTGAACCTTCACCACTGCTGGGCTGTGGACCCTCACTTCCGCCGCCAGGAAGTTTCGGGGTCGCCCACCTTCCCTCCCAGGCTGCTCCGCGTCGGCGGCGCCCCGCGCGATTGGCTGCGCCGCCCCCACGTGACGCCGGGGTGGCGGCGGCGGTTGCCCGGGTGACGGCTGCGGAGGTGGCGGCCGGGCTGGGATAGCGCGAGTGTCCGCGGCCGAGCAGCAGGTAAGCGCGT
0.5641248616633997 GGGTGCTGAAGATCCCGGAGCACGTACACCCGAAGGCCAGCGAGAGCTCGAGACTGAGGCGAAAGACTGAGCCTGCCCAGTAATCGCCTGTGGAAAGGCGACGACGGCGCCCTCGTGACTCCGCGCCGACCAACCAAAGCTCGCGGCCGTCCCCATGAGCCAATCGCGAGCCTCTAACCGTGAACGGCGCGGGGCGGGGAGTAGGCGGGCCGAGGCGGCCACGGGAGGGGGAGGGG
0.2193567357598084 GGGCTGGGCTAGAGGAGTGGCCCTGTGTGCGGGGGCTGGACGGGGGCGTGGTCATGTGCGAGGAGGCTGAACAGGGGGCGTGACCACGTGTGGAAGGGGGCTGATCGGAGGTGTGGCCACATGTAAGGGGGCTGGGCAGGGGGTGTGGCCACGTGTGAGGGGGGGCTGGGCCGGGGCGTGGCCACACGTGTGCTGGCTCTGCTGTGGGCTTCCTTCCCTTCCTGTGCAGGTGGTGG
0.9037741854929479 AGTGACATCTAGGTTTTTGTCTGCTCACTGGTCATTTCCCCATATTCTTTTGGGAAACCACCTCTTCACCACTCTTGATTCTTGTAGCTCAGACCAGGCAAACCCCACACCCACTTCAGAGGTGGGCACATGACCAGACCTGGCCAATTAGAACACTTTATCCCTCTTGCCACAGAGACTGGCACATGGTTGGGCGCGTGACCCAAGGCAGGCCAGAGGGGGCCTTCCCCAGGAAT
0.2784722778029695 TTCTAAGAAAATGGATTTGTTCGAGTGAGAAACTAAAATGTCAGGTTTAGGAAGGCGGCTTTGGATTGAATGACTACTAGTGTCTCAGGCAGAACTGTCAGCCTGGGAGGTGTCACATGATTCCTGTGTCTTCACATGATCACTGTTTTGGGGGGGTGGGGCCAATCATGTGAATTATCCTGGGTGGGGGAGGCAAGAGAAGAAGTTTCTAAAGATTGCTTTTAGCACAAATGCTG
0.4159530619209553 CGCCACAGGGCGCAGGAGCCAGGGCTGGGCCCACTTGGCGGGCGCGAAGCCCAGGTACGGGCTGGGGTCTCGGGGCGGCAGCCAAGTGAGGCTGCCCACAGTGGTGATGGCCGCGGCGGCGGCCTCGCCACGTGACCCGGACGGGCGGAAGCGGAAGTGCCGGCCTGGAGCCCGCTCTAGGTGGGTGTCCCCTCGGTGCTTCCCAGCTGCCGTCTGCACCAGCCATGGACTGCTAC
1 CGCGCCACACACACACACGCCCTCAAGCCCTTCATCTCGAGCTCTTCAACTCCAGTCCATCCCCACTCACCGTCCGCAGTCCTACCAAGCCTCACGTGGGGCTCACACCCACAATCCTCCGCGTGACGCTCCGCCGTAATGGCAAGCGAACTAGGCCAAACTACTTGCACGTTCCCTCGAGAAGATCTTTGGAGTAGACACAAAAGCCGCGCTGGCGCATGCGCACAAAAAGCGCC
0.04874185475361471 CTTAGCGTGGTAATGTGGCTTTGTACCATGTCAACCTAGCTAAGCGGGAACTACGTTTCCCAGAATTCCTTGCCTGTAGGTTTCCGGGGTTAGCACACGCCACGTGACCTGATGCGGGCTTCGTGAGGCGGAAGTGACGCAGTGTTGTCGTCTCGTAGGCTTGAAAGGTAGGTGCCCGACATTAGGGACTGTCGCAGCCCGGGGAATTGTCCCCATCTGCTGGCTTACCTTGTGGG
1 TCTATTGATTGCCTTTTTCTTTGAATATGTTTCTGTATTTTTTTGATATAATGGGATTGAATTCTGAAGATTGTAAAACTAGATTTTGTTTTGTTCCTCTGAAAATTTTGATAATTTTTTGTTGTATTTGTTGTATTTTGTTTGATTTTTTTTCTATTGTATACTTTGCAATATATTTTCCTCCAATGGTTTTAACATTTCTATTTCTCAAAATATTTATGTTTATGTTAAAAATT
1 TATTCTGAATCAATTTTAACATCTGCTGAAATCTACCAATTGTCATACCTTCACAAACTAAATCGATACTGAAGCTCAAACTTTGTTATACCTGAGATTTCACTAAATTTAAACATTGCATCCCCTAATCCTAGCAGAGTAACTGCATATAGAATAGAGGGCACATACTTATGCCTCACATTTGTTACCTTGACTAAATTTCCCGTAGTCATAGAAGTCTTTGTCCATAGGGGACC
0.5431249855944937 GCGAGACCTCCATACATCTCTAAGCAAAAAAAAAAAAAAATTCATTGTAAAAGCAATTTTCTTTTTGGTTACTGCCATAGGGATTTTGTAACTGAGTCACACCGGGCCGAGGCGGGACCTCATTGGCTGCGACCGACCACGTGCCGCAGTCGCCCCGGCGGTCGGGGCCCCGCCCCTCGGCTACCGTTCTGTGGATCAGGGGCCGAGCTCCGCCCCCGGCGCGCGGCTGAGACCCT
1 ATGTTTGGATGGAAACATTGGGCTCCTTGTCAGCTGTTCCCTGGTGCTGTGCACAGCTTGCAGGAACGGCTCTGATTTTGTTTAATGACTCTGACAAGAACGCCAGACTTGGCCATGTGACTTGCTCTAGCCAATGAGACAGCAGCAAACATTATGCAAGCAGAAACTTGAAAAGTGCTTGCTCATTGGCCTTGCCCTCTCACTGCTCTTGGTCAGACCCATCACCATGAGAACAA
0.004277842781780884 CAGGGAGGAAGCCCAGACAATCAATTCATGGAGAGCCGGAGCCAGGAAGTTGCACACAGAACTTCTGCTCTTGTCTCATTGGTTAAAACTCAGTCACATGGTCACACCCAACTGCAAGGGAGGCTGGGAAATGTAGTCTATCTACATTTCATGTGCTATCACAAACATCCATCAGTCTTTGCCACAATGTCTTAAATATTTCACAATAAAGAAATGTCAAATGTTTGTGTTAGACA
0.403102653932176 TGGGTTCTCTGCATCTAGACAGACAGGGATGGAGAAGCTCACCTACTTCCTCGAGGCCCTGCCTGGAAGTGACACTCACCACTCCTGCTCACATTCCATTGGTGGAGACTAGTCACATGGTCACACCTAGATGCCAAGGATGCTGGGAAATGTAGTCTCCAGTGGGGCACATGTCTTCCAGAGACAATTCCACACTATGGAGTCTTTTCCAGAGTTAGTGCACAAAGTCCTCTTTA
1 AAGAAAACATCTATTATCTCACAGTTTCTGTGGGTTAGGAATCCAGAAGCAACTTAGCTGGGTGGTTCTGATTAGATCACCACTGGGATCAATGTGTCAGCTGGGGCTGAAGTCATATGAGGCTTGACTGCTGCGGGAGGGTCCACTTCCACTTCCACTTCCACTTTCACTTCCTATGTGGCTGAGGGCTGGAAGCTTTGAATCCTTGCCATATGGACTTCTCCATAGGCTGCCTG
0.2706473975800922 CATTCTAGCAGGTCTGGTATTTGAAGGCCAAGCTCAGAAGGCTATGTACATTACATTCTACTCACTTCCTGTTAGCCCCAGCTTAGTCACGTGGCCACAAGTAGCTGCCAGGGAAGCTGGGAAATGTAGTCCATAGCTGAGTGATTCATACTGTCACTCAATCTGGAATGCAGTGGCGAGATCATAGCTCACTACAGCCTCAAACTCCCAGCCTCAAGCAATCCTTCCACCTCAGC
0.3965157804815641 TGGGCAGAACAAGTGACTCTCTCCCATGTCCTCTCTCCCCTTAGCCACAGGAGTGACAAATCTGGGTACCGACATCCAGGATGAAGACTACATTTCCCAGCATCCCTTGCAGCAAACAGAGGTCATGTGACCAGGCTGTGGTCACTGGGAGGTTAGGCCTGTGCACAGTGGCTGCCTTTAGAGGAAGGAAGGTTTGTGCCCTCTTGTTCTCTTCTCCCCTCCCTGCTGGCTGGCAG
1 CCATCTCAAAAAAAAAAAAAAAAAAAAAGAAAGACCCTGACCCCACCCCACACTGTTCCTGAACCAAGCCTTTAAAGGCATGATTTAGAAATGGTGCACGTCACTTCCACTCAGGTCCTATTGGTCAGCATGCAGTCATATGGCACATCTAGTTGCAAGGGAAGTTGGGAAATGTAGTCTTTAGCCAGGCAGGCATGTGCCCAGTTACAATCCTGTTTCTATGAAAGCAGAGAACT
0.002849073478450877 TCAGCTGTTTCCACTTTTTGGTTCCTATGAGTGGTGCTGCTGTGAAATTTGTGTGCACGTTTTTGGTTGAAGGTCTGTTTTCAATTCTTTTGTGTCTGTCTATACCTAGAGGTAGAATGGCCGGGTCACGTGACAACTCCACGTTTACGAACTTTCTGAGAAACAACCGAACTGCTTTCCAGGGTGACTGCATCGCTACATTCCTACCAGCAGGGGGGGCGGTGTCCACACATCCT
0.3541596519803559 GTCGCTGACAAACCAGACAGTCCGGACCATGCAAAGCACAGTGCATGGTGCTTTAGCCACAAAGTTGATTGAAAAGTCAGAGGCAGTGAGCCACAGGAAGCGCCACGTGACCCAGACTGCGAGGAGGACACAGGAAACCAACCCTCACTGTGTCCTGCTAGGGGGTTAACCCGTCTACAAGCATCAGGGTTGCCATTTCAGAGATCAGCAAACTGAACAGCAGTCGTGACTTGTCC
0.3770030341416816 CCTTTCACCTTGTGATGCTGCCAGATGTATGACTTACAGAAGAAGCGAGAGGGTGGGTCATTCACACGGAGTTAGGCTCATCCCTTTGGTGTACATCTCATTGGCCAGGCCCAGTCATATGCCCTCAACTAACAGCAAGGGAAGCTGGGAAATGTAGTTTTCCTGCATGCTGAGGTGGAAGAATGACGTGGTCAGCACAGCGCAAGTCTCTGCCTCAGCATGTGATACCTGGAATT
0.3048984145446479 CCAGCCCCTAGGGCCGGCCACCGGCAGATCCAACGGTGGCCCCTTTAAGGCCGGCGCCGGTTGGGTTATTGTACCCCGCCCTTCCAGGAGACGGGGCCAATAAAGGAACGGAATTCTCTTCACGTGACCTTCCTTCTGCCGCCCGAAGCCCGAAGCCTCAGGGCGGCCATGTTGGTTAGGGGCAAAGTCCTCGTCCCCAGTTCCGCTTTTCTGACAGCTGGTGCCAGCTGAAGGAC
0.04255163850883017 ACCCCCACCCTGGCGCAGGCGCACAACGACCCTCCCCGGGTGGGAGCCAGCGAGCGCGGGGGCGGGCGTGATCCCGCGGCTCGCGACGGCGAAGGAGGGGGCGGTGGGGTGCGACTGCGCACGCGCGCTGCCAGCCCACGTGACGCACCTCGCTTCAACGCCGCCACCCGCTCCCTCCCGCCGTCGGCTGACGTGGAGGGCCGGAGGTGGCGGCGGCGGCGGCGGCGGCTGCTGCT
0.9275519346579625 TCCCCAGCCCCTACCCTCCCTCGGCCTAGCCGTCCCCCTCCTCTCCCCTCCCCCGGGCGAATCACGCGCCCTCCTCTGACACTCGTAGCGGACCCGAGCTCCGAATTTATCCTTCACGTGACCTGAGGGGGTTGGGTGGTTGGCTGGGGACAGAGGGGGAGACGGAAAGGAGGGAACGGAATCTGCCGTTACCTGAGCAACAGGCCCCGCCCGCCGGCTCGGGGCTGGGGGGCGGG
0.1832442421639899 ACCACGCCTCAGGGAATGAGACCTCTGATGCACATTACCTGTGCTCACAGCTCATTGGCCACAGCAGCCATGTGACCGCACCCAACCACAAAGCTGCACAGCTCATTGGCCACAGCAGCCATGTGACCACACCCAACCACAAAGCTGCACTTGTATGAGGGCAAGACCAACTTCTTCAAAGCCAGTCACTCAAAGGGGATTCCTTAGAAAGGAATTCCCCAGGGTTGGTTGTCAAC
0.258693644088936 CGGAGGGCGCCCCGCACATCATCTTGGCGGCGACGGAGGGAATCTGGCGAGGGGACTCGGCGAGGGGACGCGGCGGCTCCTCAGCCCAAGTAGGCGCTGGGGTCACGTGACGCGCGGGCGGAACCAAGGGGCGGGGAGGAGGCACTTTGGCTTCGGAGTCCCCTGCGGGGTCGCGGTGGCCCCGCAAGAAGGGACGCGCGGGGCGGGGCGCGGGGCGGGGCGCGGGGCGGGGAACC
0.5025684390298542 GCTCGAGTTTAGGTTTGAAAGGTGAGGTGAGAGAAATCGGCAAAGGGAACCCCTGCGCAGATCTCGGGTTCCTTTACTTTATAACCGCGGGTTCCGGTTCCTGCCAGGTGACTGCACAGTTCATCCTCATGACCCTTCTCAGCCAATGGGAAGAGAGCGACGCCCAGGAAGTCCCGCCCTGTCCCGGCCTGTGGGCGCGTCCTCGGGTCCTTCTACGTCGCTGACTCGTGACCTGA
0.3843329804254134 GCTAGACTGAGTACTACTCAAGCTACACGACAGTGGGGGTTACTGCAGTGAAAGATCCAGATGGGGAGCCAAGACGTAACCCTGCCTCTGACAGCCTGGGGAGAAAATGATCACGTGATATCAGGATCACATGACCAGAAACCTGAGCTCTCAAGGCGGTCTAAATGTTGCCTATCCTTAAAGAAAAAGGTAAACAGAAGGGTCTACATCAATATTTATTCCTGTTTGTGTCCAAA
1 TCCCCTCAATTGCCCAACTCCCCCCCCCCACCGAACTGCCCAACTCCCCCTCCCCAACTGCCCAACTCCCCCACCCCCACAATCCCCTCCCGCCACAACTGAGGGAGGCGGTGCTGAAAAACAGCTGACTCCAGCAATGCTGCTCACGTGACCACTGCAGCTGCAGCTCCCGTTCCACTCCTTGTCCTGGGCTAGGTGGGCACTACCAGGGGCTCCTTTGGTAAGGAGTACCGGGT
0.5646714293090491 TCAGCTTCCCGAGTAGCTGGGATTACAGGCGCGCGCCACCACTCCCGGCTAATTTTTTGTATTTTTAGTAGAGTCACCAGGTTGGCCAGGCCTGTCTCAAGTGATCCGCCCGCCTCTGCCTCCCAAAGTGCTGGGATTACAGGCTTGAGTCACCGCGCCCGGCCCACGTGGCGAGTCTTAACCACGTGACCCTCCCCGCTCTCCAGCCCGGCAGGTACCAGCAAAGGACTAGCAGC
0.9548094424179726 GACTTCTAGGGGACTCTGGCCTCTTCACTGCAAAAGTCAACAAACTGGTTCATTTGTCTCCTGGCAGGAAAACTCCCCTGTCCAGCCCTAGGAAAGGGATAGGTCTAAGCAGGGTCATGTGACTCCCTCTGGCCACAGAATGTGAGCAGAAGGTCTATCAACCACTTCCACTTCTGACTCATCAAAATTTCTCCTTTCAACAGAAAACCAAATACTGAATGTTCTCACTCATAGGT
0.08712951106337283 TGTTTCCCAAGGGTCATATGACTGCTCCTCTCCACCCCACACTGGCCCGGGGCGGGCTGGGCGCGGGCCCCTGCGGGTGTTGCAACGCCCGGCCAGAAAGTGGGCATCAGCTGTTCCGCCTGGCCCACGTGACCCGCCGAGCATAAATGTGACCGGCCGCGGCTCCGGCAGTCAACGCCTGCCTCCTCTCGAGCGTCCTCAGCGCAGCCGCCGCCCGCGGAGCCAGCACGAACGAG
0.6106272531532211 CACGCGCTGGGGGCGACGGGGGTGGGGCGGGGGAGGCGGGGCGACGCAGCGCGGGGCGGCCGGCGGTTGGTGCTCGCAGCCCGCGCGCCCGCCTTCCCGGCCACGTGACCTTTGGGCCCCGCCCAGATCGGGAGTTCCGCGCGGACTCTTGGTGCGACCCCGTCCCACTGAGCGCTCGGGTCGGGACCTTCCCGGTGTCCCTGTGGGGCAGAGTCCCGTTGTGCAGAAGAGGCGAG
0.08904539503848802 CGTGCGGCGCCTCGTGCACCGCCCCGGGCCCCGCCCCCGCCCTCCATTGGCTGTTCCCGCGCCTTCCTCCTCTGCCCCCTCCCCCCGCGACCAGACTCGGCTGCGGCTCCACGTGACCCGCGGGGGGTGGACACGCCGCGCGAGCAGGAGCTCGGATAGGTCGCTTTGGCCGGCCTGGCCGCTCCGAGCTCCGCCCCTCTTCGGTGGCGCGTCGGGAAGGTTGCAAGTCGGGGACA
0.7459153797430128 CAGGGCGGGCTCCCCTGGCGGAGGCCGCGGCCGCCTCGCAGGGGCCGAAAGCGGCTGGGCTCGGGGTTTTTTCTCTCCATTCTCCCAACACACAGGAAATAACAGAGCGTCAGGTGACGGCGCGCGGCCAATGGGGAGGCTCCGGGCCGCGGCGCGCGGGCGGGCGGGAGGGCGCGCGGCGGGGCGGGGCGCGCGGCGGGGGCGGGGCGCTGGGGGCGGGGCCGGGCGCGCGCGTG
0.6435893516172313 GGGGCCCTGGGGTTTGGAGGAAGCAGTGCAGGAAGTGTCTGAGAATGAGCTTCACGGTGGGCGTGATTAAGGCTGATGTGCTACGGGAGGCGTGTCACGTGGTGGCCTGGGTCAGAAAAGGGAACTGTGACCAACTGTGGGCATTCAGAAAATGGAAAGGAACGCCGGAAACCCCCAGGGCTCCCCACAGAAGCTCTGGGGACGTGAAAGGACAGCGTGTTTCAAACTTGGGTTCA
0.5542857218233982 GTTTCAGCGTGATTCCAAACACGAATGGGGATATCTGTGGCCACTATCCCCGGCACATCGTGTTCCTGGAGTATGAGAGTTCTGAGAAGGAGAAAGACACGTGAGCATCATGTGACCGTAGTGTACATGTCTGGGGAGTCCGTGGCAGCTAATCCCTGTGGCCAGGAAGTCTGTAGCTGGGCAGGGCAGAATCACTTTCCCCAGGTGTTAATCCTTATTGGCATTTTTATTTACTT
0.8147072433208469 GAGCTTCGGGCATCACACTTACATACACGCACAGACTAATACTCAAACAGGCTTGACACACACATGTCCAGGCTTACACACATGGCTGTCACGTGGTCACACCCCGTTCTGCCTCAACCTTGACCCAGTCTTGAAACAGAAATAAAGGGAGCAACTACTGAGCATCCTGGGGGTGGGAAGGGCGGAAGCCCATCTTTTCACCCCTAGGACGGCTGGGCTGGGAAGCTAAGGGCGCT
0.5463001043519544 CGCGTACCCCTCTACTGCCCACTGTCGACGAAAACAGCCTCGCCCTGCACCGCCACCGCCACGCATAAGGCGGTGTGTGGGCAGCTCGGACGTGGCACCTGCCCTCAGCTGCTCAATCCCGGGCGCCGCGACGGTCACGTGCACAGCGGCAGGCCTTTTTGCCCCGCCCCCGCGGCCCGGCTCCTGCGTGGGCCCGGCCCCGCCCACAGCCCGCGCAGTCCCGCGAGCCTGGCCTC
0.07041775134764197 AAAACGTCATAAACTTAATGGCTAAAAGTAATAACTGTTTTATCTCTTCAATTCTGTAAAATGACTAGACTCAGCTAGAAAGTTCTGCTCCATGTGATGCTAGCTGGCTGCCGTCACGTGGAAGGTTGACTAGGCTGGAACATCCAAGATGGCTTAGTCACATGGCCAGCAGTCAATGCTGCTGGCTGGGGGCTCACCTGGGGTTATGTATGGCCCAGGGCTCCTCAGTTCTCCTC
0.3744515280655298 TTAAAATAAGAGGGCAATGACATCTCTATTCTTTACAGTCCTTTTAGATCTGACAGCTCAGTAATTTAGACAGGAGAGAGAAAAGACAAAGCCCAGTGGTCAGAGGGAAATGGGAGGTGTGTCCCCTCCCAGCTACAGTGAGGGGGCCACGTGACGCCTGTGGCAGCATCTGTGGTCACATATGTTACAAGTGAAAAAAATATCACAATGAGGTTGGTAAAGCCTTGGGCATTACC
0.4531279832301939 GTGCTCAGTACACCACTGCGGCAGGAAGGAGGAAGGGAAGAATTCCAGATGGGGAGAAAGTAATATTTTGCAGCACAGTACAGGGTAAACTGGGTCCAGGTGGGCGTAGCCGCCGCGACACCTTCACGTGACCGCGGACAGCTTAAGGACCCCGCATCCAGTGCGCCTGCGCTGGAGCTCCCGGAAGTTGCCGGACCCGGAACGCAGGCGGAGCGCAAGTCTGTCAGCCAGTCAGT
1 AGCAACAGACATGCACTGAGTGAGAAGTGTCATAAGTCATGTACACCCTGTGGAATGCAGCATTATCTACAGTCACACATGCCTACGTACACCCAGTTTGCATACAGCTTCATGCACACGTGACACATCCCAGCTATGCTCCCCTCTAGCGGATGCTGGTGGTATGACACTCTGTCTCTCTCCCTGGCTCTGGCAGGTGGAGCTCTCCTGGAACAGCTTTAATAAGGGTGACATCT
0.8239976945130093 GTTCAGACGTTCCACGCAAAAGCAAAGTTCCCTGCAGACGCTCCATTAAGTTCTGGGTGCAAGGAAGCGCGGATCCTTCAGTTCTGGGCGTTTTCACCAGGTGGCACTCAGAACACCCTCACGTGACAAGCGTCCCACCCGGAAGCGAAATCTCCCCTTCTACAGAGTTCCTCCGGCGCTTCCTCCACCCCGGGATACACAGAACCTCATCTCCTACGGTGCTGAAGCCTGCAGCA
0.2274823433245881 ACTTCGCGGGTCTTCCGCCCCGCGCTAGAGGACGCACTCCGTGACGGGAATTGCGGTCTCGGCCGCCCCCGGCCTCAGGCTTTCCGGGCTCTGCTGCCTCCAGAAAACTACAAGTCCCAGGATGCTCGGCGCGGGACGGTCACGTGGGAGGGGCCGCGGGCGCGGCTAAATAGTCTCCATCGGCCATTTTGTGCGAGAAGCCGCAGCGCCGCCTCTTCTCTCGCGCCCTCGCCTCT
0.7431892643720537 CAGGTTAGGCCGGAGGCCGCCACAGCCCAGGGTCTCTGCCACCTGGCCCGCCCCCTCCGAGGCGCCGGAGAGCGATTCCCAAGGGGCCTGCCGGAGCGTGGCGTCACAGGAGCGTCGCGTCACGTGAGGCTGCCATCCAATCGCGGCGCGCGCTCTGCCCTGCGGGCAGCGGGTGCCAGGCACGGTGTCAGCAGGCAACATGGCCGAGAGGCCGGGGCCTCCGGGCGGCGCCGTGT
0.755646997534143 AAGCCTGGGATCGCCGAGGGTAGTTGGACCACAGAAAATGGGGAAGGAGGGTAGGTTGTTTAGAAGCCTCTGGTTGCTAACGGAAACCGAGGCACGTGGACTGCAATTATGCATTTTCATTGGTCCTCAGGATCACGCGACAGGAAGTATTGCGTAACCGGTTGACTGCCACATGCGCATTGGCTTCCAGGGCCGGAAGTCCCACCTTTTTGTGCCAGTTCACTTTTGGGAGCTGA
0.4665978967517678 AATTGTCCAAGAAGCCAGCGGAGCGCCCCGAACAAGCACTGTAAGGGGAGGCCAGCAGGCGCCTCCTTTTAACTGGCCGGCGGCGGGTCACGTGGCACAGGCAGTTTTCCGGGCCTGAGGGTCCCGCCTCATCCGGCCCCCGCCCTACCCGGAGGGCTCGGCCCCTCCTCAGCCAGGAAAAGGCTGGAGAGTGCGCCCGAGCGGGACGCGTGCTCCTCCTAAGCCGGAAGGAGCAG
0.1684233647414439 AGTCTTTTTGCTCGTCGCCAGGGGAAGTGCTTCCTGCTGACAGGTCAGCTCACGTGTCAGTCAGAGTCTGCCTCTCAGGGCCTCTGCCGAAAGCGTGGGGCACGTGACTGTGACGGCATGGGTTGGCGCATGCGCTTCGTTCCCGGAGTGGCTGGCGGCGGAGTTTTCGCTGGCTACTACGAGGCCGGAGCGCCCTTGGCCTCTCTGCGTCCCTGGCCCTCGTGCGGTACCGGCGG
0.617257211793578 AGCGTGGGCGACAGCAAGACTGTTTCAAAAAAAAAAAAGAGGAAGAGTGAAAGGATGGACGAAAGGAACTCCTGTGGGGTGGGGCATCTGGGGCACTTGATGCCCCACGTGACCATTCCCTTCCCGGAGGTCTGCCCCAACTGCTCCAGCCCCCATAGCCTGAGGCTCCCGGCACCTCCCACCCAGCATCTGTCACAGCAAATCAATCTGGGCCACATGCTCCTGAAAGGTCCTTG
0.3528913761931108 GTGGAGAAATCCTAGAAAGGACCAGCTTTGGGAAGGGATCGCGAGCCCTTTAAGAAAGCTTTACAAGCGGGGTGGTGACAGGCGCCCAGTGAAGCGCCACGTGACTTTTTCCACGGGGCCGGTGGGAGGGGAATGCTCCTTTATAATCAGCTTTCCTTCCCCTGCCTCCCTCTCAACGGACCAATCAACTTCCGCGGTAGGCGGGCGCCTGCCATGCAGATGGCCAATCCTGGCCG
0.8430526109365212 TCCTAGCGCAGTCCAGTCCCGGGCGCAGGGAGGAGAGCTGGTCAGCCAAGATTCCAAGACAGGTGTCCACCTCCTCCAACGAAGCGGAACACGTGACACCACCCTATCCACTTCCGGCTTGGAGGGCATGCCCTCCCGTCACCAGCATGCACTTTCGACAAAACCGTGGAATCTAGTATTTTCCTCTGACACCTTTATATTTTCTTCACTTCCCTATAATTCTGACCTATCGTGTA
0.4018060413666073 GTTTGAAGCTTCCAGCCCTTAACTAAGATGGCGCCTGGAGGCCCGTTAAAAATTACCTTGCCCTTTTTTCTGCCCTCTACCAACACGGCTTCCGTGGCGTCGTTCACGTGACATTCCTGGACTACGGCGCGGGAGAGGGGGTAGGAGGGCCCTTGAAGGGTGCGCGTTCCCGTGGCGGTGCACCGGGTAGGTTTCAGTCAGAGTCACTATGGCGGCCGGCGCTGGCAAGGTAAGCT
1 TGTTCGCTGCCGGTGTGCGTCAGCAGATGTGGCAGGAGGAGGTAAATAGCCACGTGCCCTTGGGGTGAGTTTCGGTTTCTCCAGCTTTCAGGGACTTCTAAAAAGTGAGCCTGGTTGCAGCTTCTACAATGCAGTAATCCTGGCCCTTCTCTGAAGGTCCTTTGAATCATTGCTCTTGGAATCACTTCTGGGTTGCTCATCACCTCAGCTTTTCCACCCTCCCTTTCCTTACATCC
0.1889704683289028 GAAATCTGTGGAAAGCTCAAGTTTAAGTTAGGTGTTTTAAAACAAACGTAGTTAACAATCGGCCAGATAGATTGGCTACCCTCCAGCACGCCTCAAGTTTTAAGATCACGTGATTGGCCCAAACCTCAGAGCCTGGAATTTTACCGGCGGACTCCAGAGGGACGGAACGCCACCGCCATTTCCTGTCCCTCGATTGTGGCGTGAACGTCACTTCCTTAGCAATGCGCTTTAACTCT
0.6104522775007669 GGGCAATTCCAGGCTATTAAGCAAAGGCTTAGTTTACAGGCTGGACTAATCCGATTTGTGTGCTGTGTCCTGGGCTCCCCTGTGGCAGTGATGCAATCATGTGACAGTTGGTGGTCATGTGCTGGGTAAGGACACTTTCAGGAAGGATGATATCACAGAAGTGATATAATCACCAGATAACTTTCTGAGTAGGAGGCACATGTCAGGGCATGAATTCAATGGTGACAGACGTGAAA
0.09018894032547325 GAGGAGGAAACTAAGGCACAGAGAGGCTTGTCAACCTGCCTGCTGTTAGTTGCCCCAATTCTTGTTCTGCCCTACAGAACCTTGATGTTTCCTTCGGTACACAACTGCTCAGAATAGAGACTACATTTCCCAGTCTCCCTTGCAGCTAGGTGTGGTCACATGACCACGTTCTGGCCAATAGAAAGCAGGCAGGGGCTGTGTGCACATTCTGGGTTGACGGCTTATTTTCTCCTTGC
0.6338167020101498 AGGTCCGTCACCGCCGTCACGACGGCCAGAGATTATACCCGCCGAGATGCCCGCGGCCCAGGGCCTACAATTTCCTCCGGCCAGCTCCTTTGGCCGCGCAAGCGCAGTGGGGCCGGCGGGAAGCGTAGGCGTGTGACGTCATCAGGCGGCGCGGGCCAGCCAGGTGCACGTGACTAAGGCCTTGGGCGCGGCAGGTGGTAGCCTTCCCGCCCTTCTGGCCTCTCCATCCCCTGCTG
0.3596373982819555 TGTTACAATTGTATAATTTTAAGTACAATTGTTGGCACTCACTGATATTTCCAGTGCTGCTTCTCTTTCTGAACACACATGGAAGACTACATTTCCCAGTTCCCTTTGCAAGGCCATGTGACTAGTTCTGACCAATGGGTTGTGAAAAAAAGGAAGTGAGTGTGTAACCTAAGTCAAAGCATTTAATTGCTAATGTGAAGCTCTTTTATCCTCTCTTACCCTACCACTGAGATCAC
0.864393250075687 GGGGGCTGGCCGGAGGAAAGCAGAATTTCAGGGAAAGAACGATCGGGACGGGGAGGACGGGGAGGGCGGGGCAGAAGACGGAAGAGTTGAAATCAGCTGACTGGGTCTCGTGACAGCCTGGGCGGTGGCGACGCAGGCGTATTAGAGCGCGCTCGCTCAAAGCCTGAGCGAAGATGGCGGCCTCCAGAGTGAAACTCTGAGAGGCAGAGGGAGGAGGCGGAGGGGGCGGGGAGGCA
0.3029645532153387 AGGGGTGTCTCCACTCCTCAGTGCAGTAAGAAAAGAGCATGAAAAAGTGCACATGGGAGTTTTTTATGGGCTCTGCCTAGAAGTGGTGCGTGTTACTTCTACTCACATTCCATTGGCTAAAACTCCATCACATGACCACAGCTAACCACAGAGGAGTCTGGGAAATGTAGTCCTTGGTGGAGCAGCCACTTAGCAGTGACAGCTCTGGAGGGGTTTCTGAAGAAGAGGTAGTTCTC
0.2579485808095369 CTGAATTCCCGGACCCAATAACGCGACCAAGCACCGTGACTCCCAGGAAAACTAGCGGAGTGAGCGCGGCTGAGGAAATTACTGACACCGGAAGTCACGTGAGCGGCTGCCCCTAAGGTCGCTATCTCGACAGTCGACTATTCAGCCTTGCAGGCGCCTCTGGCGGGCTTCACTGAGATCCGCTCTTTCGGTGCTCGACTCGCCCGTGCTGCTGCCGCCGCCGAAGGAGGGGCAAA
0.009007818167943406 GGCGGGACCCGGTTTGGCGAAGAGCAAGCGTCCCCAGGATTGGCCAGCTTGGCGCCACTAGATAGGCTTCCGGGCGTGATTGGGCGAGCGGGCCAGACTTCCGGATTCCTGACAAGCCACGTGACCCACCCACCTGGAGGAGAGAGAAGGGATTTGTAGTTTAGTCGGTGCTTTAAAAAAAATTAACAAAACTTTATTGATATTCCACTTCAGAGCTGCTGACAGACTCACGAGTT
0.8420970222118211 TTAACACGTTCTTTACTATGAGCCTGGAACATGATTTGTCTGTTTTAGTTCTAGCAGGAAGACTCAGCCATGCTTCACAGTTCCAGACCACAAAAGTGAGCTCAGGCAATCATGTGTTTTAGAAACAAGACACGTGATCAGAAATTCTTATGTTTGTCAGCTACATACATTTCCTTTGAAAACATTAGTAAAATTTAGCCTATTAGCTGTTTGAAAATCAGCATGGTGGTGGGGGC
0.5798748279623405 GCTTGGGAAAGTAAGAACAAGATGACTGCACATAGAAATTAATGAAATAGAAAAGGCAACATGGAGCAATGGGTTTGCCATCACGTGTTCGTGATGCTTATTTGTGTATCATGTGAAGGCTATTATTAGTATGTGAAGAGAAAGTGAAAGGTTTACAGGAGGCAGTGGGTGTTGTCTAGAAGGAAATCCAGAACTGCTTCACTGTTTCTGAGACTGAACTTTTTACTGTGACCTAA
0.1230479166556803 ACTTTATTCTGTGAGCACTTATCTCAAACTAGTTCAGAGCAGTGGTCCTTGATCTTTTTGTCTTTTCATCTCATCATATTTGAAGGAACACGTGTCCTTGTGAAACAGTAATTCTCAGTCTCTATGGAGGAAAGTGACATATCACGTGACGGGCCTGTTAGAATTTCTGAGTAATATGTGTAGTGTGAAAAGATTTCCCAGATGACTCTGACCTGCTTGATACCCACTTTTGAAAA
1 GGAGCCTGAGCCTACCTTTGGGCTGATCCAAGAATGTGAGGGCGTCTCCACGAACACCAATCAAAGACCAGAGCCCGGCTTCAGTAGCGACGATTGGGCAGTCTGGCCACGTGCTCGTGGGGGTGTGGCCTTTGTTTCTGCGTCCCCTGGGGCCTGCTCTGACTAAGGCAAGGGTTTTCTCCATCCTCCCCCTCTTGGTTGCCTGTCACTGTTTCTTCCTGCATCCCGTGGGGTTT
0.7045542803611332 AAGCAGAGCGTCTCGGATTTGGAGGTTCCGGTTCGAGGCTCGAGGGGCCTGAAGGTGGCTCTCCCTCCCCGGGCCCAAGACGATGGTATGGCCTGCTCCGCCACCATCACGTGGGCTCCTCCTCTGTGACGTCGGCGCCTTCGCTGTAGCAAAGCTCGGCCTCTGGAATTCTGAGAACTAATTTGCTATTCGGTGACATAAGAGGGGGAGTGCGCTTTGCTTTCCCGGGGTCTGGG
0.3565922038961706 CACTTTGGTAAATGAAAGAACTGAAAAACTGCCTCAAGACACCCACATACGGCCAACGCCCGCTAGCCTTTCTTCCTCCCACAGCCCCACTCACGTGGGCCTCCAAACAGCATTTATTGGCCGGCTTCGCGCCACGAGACGCGATGGACGTGATCGCCGCCCTCATCTTCTGCGGCGAACTTCTAGCGGGTGACGCTGTCCAATCGGAAAGCGCCTTTCCGCCGGCTGGGCCCTCC
1 TTACCTGAGAAGGCGGGAAGGTGCGGCCGCGGGGTGAGCGGCGGACTGACCCAGCTCCAGCGCCTCTGCAGAGGCTTGCAATGGCGTCTCTCGGGCTCTGATTGGTCAGGCCTCCACACGTGAGCCTCTAGGAGCCAATCATGTCGGCCCACCTAGCATGCGCTGATTGGCTCAGGCTGGCCAGGGGCGGGCGCGGTCCTTCCACGGCCCGGTCCCCGCTCCCTTCCCCAGGCCCG
1 CACCCCCGGCAGCCTGCCTCGCCCTCGCCGGGAGCGCGCCTACGTCACCGCGCAGACCTCGGCCGCGTCTTTGCGCCTGCGCCTCCTGGGCTGGGGTGAGCCATTGGCTGTCGAGCTCAGGGCACGTGCTAGGGGGCGGGGCCTTGACCGGAAAGGGTGGGGCAACGGCGAGAAAGGCCGCGTCGAGCGGTAGGTGCAGTCGTCGCTGTGGTGACCCCAGGTCCTGATGCGTCCGG
1 CACCTCACTGTGAGCATGGAGCTCCAGGAACATCCCAGACAGGAGTGGGCAGAAGGGCAGGGATGCAATGCAGCTGTCTCCTTATATCCTATTGGGCAAAATGTGGTCACATGCCACACCTGGCTGCAAAGGATGCTGGGAAATGTAGTTTTTATTCCCAAGGGTCCACTCCCTGCTGACAATTCTGTTCCTGCAGATGAAGGGAGAATGAATGCTTGGGGACACTAGCAACAGCT
0.4507776939244341 GGGCCCTTCTTCAGTTCTTAAGGGTGAATCTTGGTGAACCTAAACAGATCATGGTAATACCATCTCCCTTGCTAAGAAATGGTTAAGACATTGCCATGTGACATCATCATGTGACAAGGTCTCATGCGACCACAAGCCCCAGGTGATCATTCTGACCAATAAAATGTGATAGGAACTGGGTTTCTCGCTCTTGAAACACACACACACACGTATGTGGGAAGAAACTTCCTTCTGCC
0.6370855193448148 AGGCCTCCTTTGTTTTCTCTGCAGCATGGGTAAATAAGTAAGCTTGTGCTGAACAGAAACTGAAACAAAATTTCACAGGACAACTTTCTAACTAGAAAAGATCACGTGAGGAGAATACCATTAAGTACTGCTTCATTTAAAGAAGAAACAAGTGAGCAAAATGGTTTAACTACCATTATATATTTAATCTGGCCAATACTTACAAGTAATAACTAAAATGATAAATTACAAGGTCC
0.3610663103333176 AAGCCAGGAGAAAAAAAGGAGTTGCTCAAATAAAGCGTCCCTGGCAGTAACGAATCATTAACTTTCAGCCCACTCCAAGGAATGGGTGGCCTGAGGGTCACGTGCTAAAGAGGAAACCCTGAGTGAGTCAATCATGAACACATGACTGTTCTTAGTTCCTTATAGGTTTGCTTCCTCAAATAGCCTTCCTGGAGTGCTGAGCCAAGAGATGGATTGGGACCAGTTTCAGTTCTGGG
0.9953301107816239 AGCCCCCTGCAATGTGCTTCTCACAAATGCATACTGCGCAGACCATTCAGTCAGCCCTGCCCATGAGAGCAAAGGAAGGTGTAACCCCAACATGATGGTCCCCATGTGACCCAGACACTGGGGTCAGGTGCAGGAAACTGTTCCACTTTTAGTCAAAGCTCACTGATGTATAAGTGAGTCTGAGACAGGGTGTCTGGGGCTCTGGAAATAAAGAACCAATATTTCCACCGGAGACA
0.6843930312073238 GCCGCCATCTCCTCCACCTCCCCTCACATTCCACCGATCCTTCCCCCAGGATAAAAACCACGCCCAGAGAAGCTGCGCCTCTCTAGCACACCCCTCCCAGCCCCAGCGGCCACTAGCGACAATATGGCTCCTAAGCACGTGACCCGGGGCAGACGGATTTCCGGTTCCCGGGGCTACGAGGCGGAAGCGAAGGCAGACGCAGTCTCCGTCGTTGACGTTAGTCGCAGTCTTCGCTG
0.6701201274201891 CGGAGCCCGCTTCTACATCCACCTTGGGAAAAGACCCCAAGTTAGCTCTCAGGGCTCGCGGACCGGAAGCACGCATAAACTTCTACCCTGTCCAATCATAAGCCTCACGTGACCTGCCGCGTAGGGAGGGCACGAACAGAAAGGTGCTGCGCATGCGTATTGAAAAACCTCACCTACTCTCGCGGGTCCTCAGCGTTCTCCTGCGGAACCTTTGAACGGGGTACTCGAGCCCACAG
0.9451616821406643 TACCACAACCCTGAGAGGTCGAGAGTTCCTTCCCATTGTGAGTTCTTTCGTGGAATGCGGTATACACAGGAAGTCAAGAAATGGTCACTGGGAAGTCAAAAATAGTCACATGGTCGTAACTCCATCACATGTTCTCCCTCTTTCAATTTTAGCAGTAATGTGATCCTCAAAAATGCATTAATACTAGTTGAAGTAAATAAACGGAAGAGCTCCAAAATGCCTGCATTAAATGCATT
0.3608427540865956 ATCTTAGATCGATCTGATCGCACAACCGCTCCAGAAGGGGGGGTAAGAGGAAAAAAATGAGATTCAAACCGGATTGGCCAGCTTCTGGCCACGTGACGGATATGTCCGTTTGGCCCTGGCGGCACCTGCGCAAGACTGCGGCTGCGTGAGTAACGAGAGGCTTCTGGGAAGTGGAGTCTCTCCCCCACCTTTTTTTTTTTTTTTTTTTTAAGGTAAAGAAATTTTTTTTAAAAAGG
0.9878250827736447 GACTAGGCCTCAAAACCAGGCAAAGTAGCGCCAGTTACCTGGGGTTTCTGGGCTGCCTGGTTCTCTCCGCTGTCACTTCAGGGACAGCTTTAAAGACAGGTTCCTCCTCAAGCCACCGTCACATGATTCATGACCTCGTCTGCGCTCCAGGAAGCACTTTCTAAGCCGCCGTCGCCCTACGATACGGGATTTCCGGAGGGGCCCGGCGGAAGCTGCGAGGGCGCGTCCGGCGGCCG
0.8137654092658329 CCACTGCTGTCACACAGCCTTGCCTATGCCTTGGTATATTAAAGAGTGGTGAGTCACTCACACTTATGATAACCATTCATAACTAGAATTTTAGAAGAGGGGAAAACCCCAGGGCTGTACAGAATGACACGTGACACTCTCCAATGGAAGGACAGAAAGAGCAGAAGCCTCTTGCTAAATCTAACCATGAGCTCTTTCAGAGAAAAGAGGGCCGTTCAGCTTTTCTGCGTCACTAT
0.2796867890995184 TAACTCCCCTGCAACCTCAGTAAGTTCTGATAGTAAGGCGAATTCTCGCGATATTTCCCACTCTGGCGGTCAGGGGGAGGTAGTAGGAAGGCTGGGTGTCGGTCACGCGACCCGGCGGGGGCTGACGTCATTCACATCACGTGAACACGTCTAGACTGTTTCGCTTTGCAAAGGGAAAAAAGAAAAGGGGCCGTCGTGTGTGCTTTTGCTTTCAGCCAGATAGTGGCAATTGAGTG
0.7310334094516094 TTCAGGGTTTACTTCCGTGGTTTCCCTCGCCGCTGCATCTGTGACCTCTGGCCCGGTTTCAGCACTGACTGCTGTGGTCTCCGGAGCAGCCTCCACGTGACCTGGACAGGCAGATGCCTCTTTTATGACCACAACTGTAGCACTGGGACTTTCTTCAGCATCTACCACCTCAGCTTCCACTATAAGTTCTTCTGGGGCTTCTGAACTTGCTTTCTCAGTTTCCGCAACATTCTCCT
0.5799975582031556 AAAAAAAAAAAAAAAGAAAAGAAAAGAAAAGAAAAAAGCAGGAGGTAGGGACTACTTTGCCAAATCCATTAAATCCATTTCGTCTTTTTTCTTGACAGTTCACCTATGGTTTCCAGCTTCCGTAACAGTCACGTGACCTAGAGTTTTCAATCTATAGAATGATAGACCAAAAAATTACCACCAGGTGGCGCCAGGCCCAAACAGTAGCTAGTACGGTAGCCCTTTTTTTTTTTTTT
1 GACCTCACCAGGAAGGGAGATTCGCCCCCTGTGCCCCTGGGACGTCCGAGCGGAACCCATCGGCCCGGCTCCCGGAGACTCGCGGGGAGGAAGGGCTGTCAGGCCAGGCGCGCATCACGTGAAGCTGCCAGTTCCGGGATCAAAGACGTACCCCGCACGTGGGCTGGGCGCCAGCCTGGGACCCCCGGGGGCCGCGCGCCCACCGCCCAGGAGCCCACCCCAGCCTCCACTGGGAA
1 TTGGAAGATCTGGAATTTTAAGGTGGGTGGCTCACTTGACTTGAAAATCCAATATTTTTTCTGAAGTAGGTGTTGCCATGGTGACAGAACGGCTTAGCAACTGAAGACAGATTTCATTGGCTGGCTGTCTGCAGACTTGCTTGTTGAGTGGCATTAATATGTTGCCTCCTGCTGTTTTTTTTCTGAGGAGACCATCTGGCATTAGCTGTATTTAAAGGTACAGTTCTGTTAAACAA
0.2442146007003194 CCTCAGTGCAAACCCTCTGCCCAAAGCCTCGCTCCAGTACGGAGGAGCTGCGCCTTCAACACACTTTCTCTGTTGCCAGGTAACCACTTCTCCCTCAGCCTAGTCTCCAAGGGTCACGAGCCACTTCCGCCTCCCCCTCTCGGGCGCTCCAATCAGCGACCTGTGTAGCTGTCACGTGGGCCTCTGGGGCAGACCCTGGAGATCGGGCTCGCGGCGCCTTCCATCGTGGCTCCGCG
0.6678079890977934 CACGCGGCCGCGCACGCAGCACGCAGAAACCGGCCCGCCACGGCCAGAACTCTAGCCCTACACCTCCCGGGACTTCCGGCCGGAAACCAAGGCCCCACGTGTCCGGGCCTGGTCCTTTCGGGGACCTTTGGGGACCGTCCAGGAATAAGCCCAAAGCGCACAACCCGTCTTTCAGAAAAGCGGCGTGACAGGGAAAACAGCGAACAGCTCTAAGGGGAAAAAAATGCTCCAGGAAG
1 TATGAGGGCAAGGACTGCTTACCTTAGCATCCTTGGTTCCTGGTAGGATGCCCATCCCATAACAGGCTGGAGCTCCTGGGTGTGTGGGAGGGAGTAGGAAGGAAGCAACAGCTGCCAATCAAAGGCCCATTTGGGCATGTGACCCTTAGCTAGCCAATCAGAATCCTTTCCAGGGTTGTAGCAGTTGAAGCTGTGAGCAGCTCAGTTGGTTGGGTTGTCTGTCTTGTCTTGGCTTG
0.3759056561108581 CTGAAAGGACGTCTCCCAGTCCACAGTGCCTGTGATTGCCACATTCTGGTGAGAGCTATATGGCAGATTCAAAAATCATTGCGCAGCCTGTCAGCTGATTGGGGTGAATGATCAATGTAACCGGAACTAAAGTTGTATGACATCATCTTTGCCACAGCTTCACGTGACAAAGCTCACTTCAAAAGTGCTTCTTTCTCAGACAAAGCCCTTTAGTCAGAAAAGCCACAAGTAACAGT
0.6378753933495283 CCGGAGCCCGGACTCCAGCTCAGCGAACAGCACCCTCCTACCGCCCCGGCGCCCCACTCAGCTCGCTCACCTGGCAAGTAGCCTCCTCTCCGTGCGCGTGCGCCGCTGCCGCCGCGCGTCCTCCGGGCCACCACGTGACCGCGTGGGCGCAGTCCCAGACAGGAAACGCCGGTGAGGTCGCCCTGGGCCATGGAGGCAGCTCGCGCTACTTTTTCGCGACCTCACTGTGTTCCTGT
0.5520758727431817 TCACATTGGTGAGTAAAGAATTCAGTCCAGAAATGACATGTCATTTCTGCTCACAATTTATTTGCCTGAATCAGTCACATGGCCCTATTTAACCTCAAGGGGGCCAGGAAGTACGCTGCCATCATATGACCAGAAGAAAGAAGAACTGAAAATATTTGGCAAATAATTTGATGAGAGAACCTGTGTCATGATGTTGAAGCTGTATCATACTTGAGCCTTGGGAATGACTGTTTCTT
1 GGGCCGGGCGGCTGCGCCCGCCTTCCGCTCTTGCCCATTGGCTGAGGCCTCGAGGGTGCCCGGAGACCGGAGTGCAGCGGGATTGGTTGCAGAGGTTCGTGACAGTGGCGCCTATTGGCTGTGGCAGCCCCCGTGACGCGGGGTGGTGACTGGCTCCGGAGTCTGAGGGGTTCGGGCTTGTCAGGTTCTAGGTAGGTGCGTTTCGCGCCGCCGGCGGTAGGCGCTGTTGCCCGGGG
0.1682789801742615 CCACCTATTCCCTAACGACAACAAACTTTTAAGGTCCAGGTTACCGCCGCGTCTCCCTAGCAACCGTGCCCTTTAATGGTTGCCGGAAGAGGCTATAATCACGTGCTCCGAAGACTTCCGGGTTTCCAACGTGACTTCCGGTTGTCAGAATTTACCCCTGACGCGGCGGCGGCCGACGGGAAGCTGTGTGTGCTTAGGTCGTGGTGGCCCCGGTGGTGGTGGGCTCCGGGCGGGCT
0.8871713820822328 GAAGCAGCTGTGTAATCCGCTGGATGCGGACCAGGGCGCTCCCCATTCCCGTCGGGAGCCCGCCGATTGGCTGGGTGTGGGCGCACGTGACCGACATGTGGCTGTATTGGTGCAGCCCGCCAGGGTGTCACTGGAGACAGAATGGAGGTGCTGCCGGACTCGGAAATGGGGTAGGTGCTGGAGCCACCATGGCCAGGCTTGCTGCGGGGGGAGGGGGGAAGGTGGTTTTCCCTCGC
0.5624920069260847 TCTCTAAGAATCCTTCCAGCTTGTGCTCTTCTGTCCAGGGCAGCCAATCGCGAGGAGGAGAGTAGTCAGAGGGCGGCACCCTCCCCGGTCTGGGCCGAGTTATTGGCTGGTGGTAGCGTCGCTCGCCCGGCAGTACCACGTGACGGCCTCGGCCGCGGGCGTTTACACTGGCTCTGCCTCCGGCATCTCTTCGCCGGTGCGTCCTCGCCGCGCCCGTAGGTCCCGGCAGCCGGGCC
0.4395929544614876 GCTACAATAGCGGCAGAAGTAGAGTTGCGAGAGCGGGGCCCGAACCTTCTTTTCTCCCTGGACTAGATAGAGAACCCGGTCCGACTGCAGCAAGGACGCCATCTTGGGGAGGGAGGAGGCGATGACGCTCCCGGCGCATCACGTGACCCGAGAGCCAGCGTCTTCCTCGCTGCCTTCCCTACGACTTCCTACGTAGACTTTGACGTTAGGTTTCCCACCTCGTCCGGCTCTGCGCC
0.4696370050658046 TTAATGGTAGAGATTTTAAGCTGCTCAATAAAGTCCATTTTCTCTTCTTCCTAAAAGTCCATTTTCTCTTCTTCCTAAGTACACAACTGGACTACATTTCCCAGCAGCCCTTAGATGTGGCCACATGACTGAGTTTAGCCAATGAGAGATGAGCAGAAAAAGATAAGCGCCACTTCCAGACCTAAACCGTAAAAAAAGCCCCATGCATGGTACTTAATGCTCTTTTTCTCATACAG
0.371868917871536 CCCCCGCAGCCGCTCCAAACAAAAGGCCCCGGTCCCCGGAGCCGCCGCCACCGCCGCCGCCGCCGCACTGAGAAATAGCCCGCCCAGGCCGAACGCCCACGTGACGCGAGCCCCCCCTCGCTCCGCTTCCGCCCGGCTGCTGGGGATTGTAGTTCTCCGGTTCGTGAGGCCCCGCTCTCTGGCTGTAGTTGTGCAGGTGGACTACAAAGCCCGAGATGCATCGCGGCCCCTCCTCC
0.6535694749253124 TTCTGGCCTCAGAGCCTGGAGCTGCCGGACGTAGACTTACCTCGCGTGCTTCGGCCAGTTACTGGGGGTGGGGAGGCGCGGCGCGGCGTGAGGAGGCCGCAACCGCTGGGAGCACGTGGTTGCCACGTGGTTGGGGGAGGGAGGGGGGTGTGGGCGCTACATCCGGGACTCACCGGCGTGTTGCCACTCGTGAGCCAGGGATGCTGTGGCTCTGTTGAAGTGGGAAATGTTAAGAG
0.4405738631541198 CTCACAGGCTGGGCAGGGTAGGTAGACCGCAATTTTTTTTTCTGGCCAGTCCGAATCCTCCCTTCCTCTGAAAAACCATCTCCCCACCCACCACACTGCCTCATTGCGGGGGCGAGGGCTACTTCCGTGTTGTCACGTGACCCCACCCTCCGTGCCAGAGACTGAAGACAAGCCGGGCCTGTGGGAGACCCCCTCCTGCCTGGGCCTCACTGATTGGTCCAAGGATTACTATCTGG
0.3617126733975027 GGTGAGCGACATGCCTCCAAGGAGCTGCAGCCAGGAGACAGCCAGGCGAAGGCGGGGCTCTGCCTCTGGGCTCCCCGAGGGGCGGAGGCCGGCGCGCGGGTCACGTGGGGGCGCGGGAGGCGGGGCTTGCACACGCTGGTCACGCGGTCAGCTATTGACACTTCCTGGTGGGATCCGAGTGAGGCGACGGGGTAGGGGTTGGCGCTCAGGCGGCGACCATGGCGTATCACGGCCTC
0.3391467646073989 ACTTTCGCTCCAGTTGGAGGGAGGTCATGTGGTACAGAGAAGGGGCCTTGGAGTGCAGGATGAGAGTCTGAATTGTAGCCCTACCTATGAGAACCGTGGGAACAGGGGCAGGTCACGTGGCATTCTCATCAGTAAACTGAAGATGATAACATTTGTCCCAAAGGAGATCACATGAGATGATAGTGTAAAAACAGTGTGTAAGCCACCACAAGTCTTACCCAAATGTGAGGGTCTCA
0.3193449533220031 AGATGTGCATCATGATCAGTGATTAACCGCATCACGTCCTTCAGTCCTTCCGTGTTATCAGTTCCCACACAGACAGCAAAGCGTGTGGTCGTGCTGCTCTCTTGGCTCCCAGTGACAAACCCACGTGACATTTCACAGAAATGAATACTCAAGAGAGGTAGGTAGCCAATGAAGAGGAAAGTATAGCAAAGAAACAAAAAGTGAGAATGCAGGAGGTGAAAGTTGACTCAGACGTA
0.6382682927826617 AAAAAGAAAAGAAAGTAAAGGGGGAAATATCTGTAGGTTCCCCTTGCCTGTGTGTTCCTCTGCTTTCAGCTCTTCAGCACAGGCAGTCTCGGTCACGTGGCCCTGCTCACGCAGGGCCCAGACCCACGCTGCGAAGCTCTGTATGATTGTGTTTTGGGTTGCAGGAGGCAGAAACTCAAAGTGAAACCAATGAAAAAAACCAATGTGTTCTTAATGGTTTTTACCTAAACCATAAA
0.4981224130707148 GTCGAGGAGGGCGAATATCTTTCTGGAAAGGCCAGAGCAAATGCACGCAAGAGCTGAGAAAAGATTGGAAAACGCCTCTCAAAATAACAGTCCCGCCCTTCCCGGGACTCTTCCCTATAGGCTGTTCAAGTCACGTGGCGACTGTGGCCCCGCCCACAGCTCCCAGAGGCCTGCGCGTGCGGTCTGCAGTTCGGCCGCTTCCTCTTGGCGGGTGGGCTGCAGCTATGGAGGGCGAG
1 ATGTGACCTCCCCGCGCTTAAAGTGTTTCCACGTTACAGGCGACTTAAAGGCAGCCCTGGAGCCTGACGTATAATTCGAGCGCCGATGCAGAAAGGAGTCAGGTGTTTTTTTTTTTTTTTTTTTGGTTTCCGGTTCTGTCACCTCCAGGCTGAGCCGGGCTGGCGGAAGAGGCACGTGCGCTGCTGAATGGAGCTGGTCGCTGGTTGCTACGAGCAGGTCCTCTTTGGGTTCGCTG
0.1099592210985962 CGCGGTCCCACCGGGCCCGTGGCGCGCCCACGCCTCCTCCCGGGCCCCTTACCTCCCGCGCGCGGCGGGCGCACGCACCACCTGACTCGCGTTCTCATTGGCTGCTGCCTGTTGCTAACCCACGTGACCGGAGCCGCGCGCCCCGCCCCCGCGGGCTCCCGCTCGGCCGGCGCGTTCCTGCGGGCGTTCGCTGGCCGGCGTCGGGCTCCGAGCCGCGGGTCGCTCGCCTCGCCGGC
0.3110408849742606 CCATTCTCCCCATCTCTAACAATGGAACTCCCACATTGTACTTGGGCACAGCCCTTCAGATGAAGACTACATTTCCCAGGCTCCCTTGCAGCTTGGTGTGGCCATGTGATCAAGTTATAGCCAATGAGATGTGAGCAGAAGGATAAATACCACTTCTAGGTCACAGCCCTGGGAAACAACACAAACCCATGGTTCTGGCTTTTTTCCTCCTTCCTGCTGGCTGCAGCTGTAGCTGC
0.6119717460184667 AGCCTGTCTTTGCCTGGTGCCGGCTGTGACCAATTATCATTTCAGAGAGAGTTTAACAACCGCCTGATCATCACCTGATGGTCACCTGACACTCCTGGGGGTGCCCTCTCCTGCCCTGCTCATATCTGCCTATCTACTCTAACAGTAGAAACATTCTAACACACACTTTATAGTTTTCACGTGGCAGCTAACTTTGTACAGGCATTGCAAATTCAGATGGGAAGAGCTCCACCTAT
0.4266945612740904 ACCCTTTAAAGCGCAGATGTCACCCTTAAGCCCGCCCCGGTCTGGAGGCCCCGCCGCGCTTCCCGGACTCTAATTGGTCTTCAAGTAGCTCATCTCCTCCCACGTGATCACGCAGCATCTCGAAGCTTGCCCTTCCGATTGGCCCTCTTGGAGGCCCTCTTGGAGGCCCGGAGCGCGTGACCCGAACGGGAAGCGGACTGGCTGGGGTGAAGAAGGGACTGGCACCATCCTTATTG
0.01122430917831334 GAACCCCGCTCCCGCCCTAGGCTTTCTGTGGTGGAAAAAGCGCGCGCGCGGACGAGCAGGTTAGGCGATAGAGGTCACGTGGGCCAGCTGTGGCCAATGGGGAGCGCACATGGCGACGCGGCCGGCGGCGGCGCGCGCGTAGCTCGCCTCGGGCTCCTGGCGGGAGCGGGAGTTAGGGAGGCCGGGTTCCCGAATTACACACACCAGCGTTATTTATTCTATCAGTCTTTGGTTAC
0.8177404526023475 CTGGCCTCCCCCTCCCTGCCTCTGCAGCCCGCTGAGAAGTGAACAGAAGCTGCTGCAGTGTGGCTGGGAGTCAGCTAGGAAGGGCCAACCCCCTTAACTGGTGCCCCACGTGACTGAGGCTCCTTGGTCACATCATGATCTGTGGTACCCAGATCAAAGGTCCTGCCAGCAGTGCACCAAGCCCTCCTCTTGGCAGGAAGCAGCAGACTAGAGCAAGTGAGGGAGAGTCGAAGCTG
1 GAAGTACAGGGCCGGGCGGCCAGGCTCCCCGCGCTCCCAGCTCTCGCTGCGCCCCGGCACCATGGCAGCAGCCATTCCCCAGCCGCCCGCGCTCTCCGGCGCCAGGGGGCGCCAGCCCGCGGCCACGTGACCCCGCCCGGCCCAGCGCAGAGCCCGGCTGCTGAGTCCACACCTGTGGAATGGGGACGACGAACTGGGAGGATCCAGCCGGGACCCTTTCGGGAACACACCCTTCC
0.5515765398114056 GACGCCGGCGCGAGGCTGGGCGAGGGGAGGGGAAGCGAAGCGCGCGCCCTGAGCTCTGCACGCCCCGCCTCCGAATCCTCAAGATGGCGGCCGCAGAGCCGCCCACTTCCCCCTCCCGCGGCCGCCACGTGACCCCTGTGGCCTCCGCGCGGGGTGGGCGGAGCGGAAGGAAGGGCTTCTCTGGAGAGGGATCTGGTTTTCCGGGGATGCTCCAGGCCTCTGGACTTAGGGGTTTG
0.7619973053239353 CAGAAGACACATCCGGTGGTCAAGAAAAGGGGAAGCTGCCTTAAGTTTCCTTTTCTCTTGTGAGCGCAACAACCTCCATCTGTCTTTCTCTGTAACGCTGAAGACAGACACGTGACCCTGGTTCTCACAGAAGAACTTTCAAATCTAAAAAGCCATTTTAGGAAATAATTGGAAAAGTCTCTGTAGCCTTTGAGCTCCAGGATATTTGTTTTCCAGAATGATGAGATTGGTTATTG
0.6369591704569951 CTTCTTCGGGAACAAGACAAGATGGCGCCCGATTTGTCTCACCCGGAAGTAAAGAATAATAACATCCGTTTGTCATCTGAAGCCATACCATCTCTCATCCAGGTTTGTGAACACGTGATTGTGCGGATTGACATGTTTCGGCGCCATTTTTTTTGTGGGCAAAACCATCTCTACTCTGGTCAACACCGGGCAACTGAACCATTCCTGCACGTTACTTTTTAACGTAGCTGGCGCCA
0.6160491988600719 TCCAGCGAATACAACCGGCAACGCTGCGGAGCCCTGGCAGCGCACCACAAGTCCAGTCACCCTCGGCGCCCGGAGATGACGTCACGAGACCCCACGTGGTCCGAACTCCGCCCTCCGTGTTCTGCCTAACCCAGCAAGGAGGCCCGAGTCGCTCTTGAGCATGCGCCAACGGGGCAGTACGCTTGAACTCGCGACCAAACCTCTCCAAGTTCATAGCTTCTACCCTCTTCTGAGAA
0.3011835386637507 ACGCAGCTGGACTTGTCTCATGCCTGCGATAGGGACGGCCCCCACCCTGACTTGCATGGAACAGTCGACATAATGTGGCCTACTGCTTCCACCTGAGCGCCCCGCCAGGCTGTAATTCCGCGGGCCCACGTGACCTCCGGGGCCGCGCCTTCCGGACGCAACTCCACTGGGGCGGAAGTTGGTTTTGTGCGGCTCTCAAGAACTAAGTTTGTGCTGTGCTGCGGGATCCCCAGGGA
0.1133277478269492 GGGGCAGAACGATGAGGCGCCGGAGTTAGCTCGCCGGTGCGGGTGCGGGTGCGCGGCGCGTCGCGGCCCCTCCTCCGCGACGCGCCGGGTGGTCACGTGACGGCCGCGCGCGTTCCCGGCAGCTGCGGGCTCCGAGGCCAGAGAGAAAAGACTGCGAGGTGGCCGCAGCTGTGGCCGGAGAGGTGGGAGTCGGAGCGAGGCCCTCTCGGGGGAGCAGGGTGAACGCCGGCCACTCT
1 CCCCTGATAGATCTGTATCTTTGCAGCAGGCGCAATTCAGTTTGGATTCACCCAAAACAAAAATGGTCTCCGTCGGAGTCAACGCCCTTTCCTGTGCGGACCAATCAGAATCTCAAACACAGGGCACGGGGCCCACACTTCCGTCCGGTCTGCCTGGTCTCTCTAACCGCGCCAGTGTGCCTCCGACTCGGAACGGCTTCCGCGGCCGGGGCAGCGAGGGCCGGGGGCGGCGGGCG
0.5296075227172172 CCTCTCCCCTTTTTAGCCTGCACATGATGCCTGGAATAAAGACTGCATTTCCCAGACTCCCTTGCTACTAGATACAGCCATGTGACTGAGTCCTGGCCAATGGGATGTAATTTTAACTACTTTATGCATTTTTTCTTGGGGGAAAATAAAATTCTTATAGGACTTCCTTTTCCTCCTTTCTGGAGTCTGAAATGTTAAGTATGGAGGCAAAAGCTGAAGCTGGAGCAACAGTCTCA
1 AGCATTACCTCCAGGGCAGAGGGAGCCAACAGCTTTCAGAAATCTCTGCTCCTGCCATAGACTGGGGCTCCCCTCAGCTGCCTCCCAGTGGGGACTACATTACCCAGCCCTCCTTGCAGGCAGGTGTGGTCATGTGACTAGCCCTGGCCAATGGAGTGTGTCTGGATGGTGTACCTTAAAGAAGCAGGTGCTTCTTTCATAGTCTCTTTCCCCCCACAGCTAACTGCAGGCCCTTA
1 GGCCCTGTCTAGGGGCCCAGCCCGTGGGTTCCGGCTCAGGACAGAGCACACCAGGGAGAAGAGAAACTGGCTCTTTCTCCGCCTGCGCGGGCCAGGCCCGAGGCACGTGCCCCCCACGGGGAGGCGGGACCCCTGAGTCATTTCCTGTGCTATCAGCTCCGGAAGCAGAGTGGGCCTGCTCAGGTTCCCAGAAACACAGCGCGATGGGGGACAGACTCCGCGGCTGCCACGGAAAC
1 GGAGGAGATAATTAAGGAAAGGCTACTGCTTGGATTGCTAATTGTTTTTGTCATTATTTCAGGGGGCCGACAGCTGCTGGCTGAGTCATCCTGTTTTGTCAGCTGATGGGTCATGTGACACAGGGGTCCCCCAGGGGCCCCCCACTTCCAGGGGAGGGAGGAGCGCAGCTGGCTACCTGGCTGCTGCCTGGAGCCTCGCCAAGCGCTGCTGGCTGCTCTGGTCTGGCCTCACCCGC
0.4943568367206967 CGGGCGCGGGGTCGCCGGCTGTGAGACCGGCCCCGCCACCCTCGGGGACTGCTGGCTGCGCAGCGTGGCCAGCCGGACCGCCCTACTGCGCACCGGGGCTGCCGGGGCGCCACGTGGTGCGCACGTGGTCCGGCCCCGGCGCGGCAGCTCCCCTCCCCCACCACGCGAGCCTGGCCGCAGCGCCCGCTGGCGGCGCGGCGTTGCACATTGCGCGTGCGCACAACTCGCCGCGAGGC
0.2651587627972904 AACTCCTCCTGGGCTCAAGTGATTCTCCCGCCTCAGCCTCCCACAGTGCTGGGATTATAGGCATGAGCCACCGTACCAGGCTCATTTTCTCCGTTTTTAAAGAAAATGTCATCCTGGCTCAGGTGACTCTGGGGTCACGTGACTTGGGCCCAGACTGGCCACCTCTCAGCCAAGATACCACCCTGAAAAGTACTGCCAAGGGTTTTGCCTCAGTCTTTTCCCTCCCACCTTTTTCG
1 AAACCTTTTACAAAGAGACAAAATCTTTTTGTAGAAACAAAAGGAAAAGCCGGCTGGGCATGGTGTCATTCACCCCCAGCTCTGTGTCAACCAGAAGCCCGGCGCCACACCCTGCCAGCCCATGGCCACCTCCCACGTGACTGCAGCCGTGGCTGTGGCTGGAAGTGCAGGGTAGCCTAACCGGAAGCATGGCGTCGTGGGGGGTTCTGGGAGTTGTAGTCCCTGGGGGAGCTGCT
0.06884971339942333 CGCTCTTATTGGCTGCCGGCGGGCGGGGTCGGAGGTCACGGCTGCTCTCGCTATTCCGCGCCAAGGGGAGCCGCACAGCGGCTCGTGTCAAGTCAGCAGGTTCCCTCCGCCTCCCCCGGGGTCACGTGCGCCCCGGGCGGGCCCGGGAGACGCCTCCTTATGCAAATAGAGCGGCCGCGCGGGGCTGGGGGCGGGGGCGGGGTGGGCGGTGGCGCGTGGGGGCGGGGGCGGGGGCG
0.5571604887151391 TGCGCATGTGTATTCCTCGGTTTTCCCGGCCCCAGAAGAAAGAGCCTGTGGGCAAGCCACGCCCACCGCTACGCCGGGAAGCAGGAGGAGGAGCCACTGGTGGGAAGGGGGCGGACTGAGGCTGCGTCACCTGATGCTGCGTCACCTGATCCAGCGTCCGGAGCGCCTTACAGCCATTTTCGGTACTGGTGCCATCACAACTGCTGATCGTTTCTGCAGGATTCCAGAAAATAATG
0.2343918399748673 TCTCACTTCCTCCATGGGGCCGGAGAAGAAAAATGATATGAATGTACAGTGCGCAAGAGGGGGGGCGGGAGGGCGGAGGACGCTGGAGGAGGGGCACGTGACGGTGTCAGCCAATGGCTGAGCCTCCTGCAAAAGTTTGCCGGCTTCCGCAGTGATGGATCACCGTTTTAGTGGCATTTAAATCCCCGGCGCTCCGCCGTCTAGGTGACGCGCAGTCGCCCCCCCAGGCAGCCTAG
0.8054161143211706 ACAGCCCACCCTAGTCTCTATATCCCTGTGCCCTCAACTACCACCTGCACCCTTTACCTGCTCCTCTGCTTCCGCCATGGCGCCACGGGAGAGTCACCTGACAGACCCGGAAATAAGAGGAAACCACACACTTGGCCCAGGGCCTTCTGGGAAATGTAGTTTTAGCTTCATCTGAGCCTGGAAATCTCTTCTAGGGGACGGACCTGCTAGGGTTCATTTCTGCTGCCAATTCTCCA
0.6815960094044546 CGCCGAGGCGGCTCCACCCGCGCGAGCCCCGCCGCCTCGGGCACCTCCTGCATCACGTGGTTCCGGGCCGGGTGACGCCAAACCTGCGATTCCCAAGCGGCAGCGCGGCCTCCCGAGCCGGGTTGACGCTGGCGTGGCGGCCATGTTTATTGAGGGCACCTGGCTTCTCCCGCTTGCGCCGCCGGGTGAGCCTGAAGGCGCGCACCCACCTGGCTCCAGGAAGAGGGACCGAGCTC
0.7048395177296201 ATTAGCAGGAAGTGGGCAGCTACCACAAGACTCCAAATAGTATGCCAGACTCTACCACGTGCCCTTTTTAAAAACCCACCAGCATATATAATACTTACCAACACCAAAACTAGACTAACCAAGAAAAAAAAAATTTACCACTGACTACATCTGGGGTTTTAAGCCACCTGAGGTTCTAAACCTATTTATGTCACTATTTCCCCCTCAAAAAAATAAACAGCTATCTCAAAAACGTA
0.1913937569762559 GCAAGGAGGTTCCTACGCGGAAGGAAGCCCGTGGCTTCTGCTGCGCTGCGAGGGCTTGACCGCCATGTTTGAAGCGGGCGGAAAAAAATTATGGGGCGTGCAGTGTCACGTGACTGCTCGGATTTTTGTCACGTTGTCTGTGGATCCTTTCTTATTTCTGTGTTGAATTCCAGCCTGGGTATTTGGAACCTATGGTTAAAGATGGGGCTAGGGTAAGCTTTTTGTTAGTGAGCCAG
0.982742545985874 CTTCTCCAGCCTCAGGAGCTAGCTATTCCTCCCAGCATGTAAATCCCCAGGGTCGCTACACCGTACTGGTGCTGAGTCTCACCGACGGTCACGTGTTCTTGCTCACTTTGACCACCAGGGGGCGCAGAACCAAACCTAGGCTCCAGACGCGTGCATAGGACTTGATGCATTTTGTACACTAATCTAACCATTATCTTTATTTTCTAGCCCATTTTTCCTTTCATCAGATTTCTCCA
0.6744459371534831 ACCGGCTTAACTGAAGCACCCGCTCTTTTGCTTGCTGGGAGATGTAGTCCCTGGGTTGGCCACTTTAGTTCATCGTTGCTACCGCCGGCGTCCAGAAGACTACAGTTCCCAGCAGGCCCAGGGAAAGACAGGATACCCTGGGTCGGCTCCTCCACGTGACCACCCACTATGGCTTCCTAGTGTCAGGGCCAGCTGTGTAGTGGCTCGGTGTGATTTGTTAGCTCTTTGAGGCAGGG
0.2204165440442362 CGCGCCTGGCCCATTTTTCTTCTTTTATCTGATAACCTTACTCCCCTCCACAAACACACAGCCAAAGAAACGAATTGTGTCGCTCTTGAATCATAGAATAATTCTAAATTATGTTACGATTAAACAGGAGGGGCGGGGCCCTGTCCATCACGTGACTCTCTCGGTGCTGTCTCCGGCCGTTGATTGGCCTGGGCGGGGAGGGCGGCCGTTGATTGGTTCGGGCCCACTCGCGCGGG
0.0486632478753138 TCGCTGCCGAGGGCCGTGCGGCCGCGCTTGGCGGGCTCAGAGGTCTTGCTCCTGGGGAAGCTGAGAATCTCCGCGCGGTGGACTGTGGCCGGCCAACCGAAATTGGCGCGAAACGTCGCCCCCCACGTGACCGGCGCCACTGCGTGCGGGCCAATCGGACAAGGCGGCCTTCTTCACCTCCCGCTAGCCGCAAGCCAATCACCGTGCGGGCCTAGAATGAGTGACGGGGAGGCGGT
0.4063993028475134 GCGGAGACCAGTAGTGGCCCTGAATGCCTGACAGCGCTGCTATTTATTGTATACAAGGCAAAGGGGGCAGGGTAAGGAGTGTGAGTCATCTCCATTGATAGATAAGGTCACATGAGTCACGTGTCCACCAGACAGGGGGCCTTTCCCTTTTAGGTAGCTGAGGCGGAGAGAGAGAGGACAGTGTACGTCATTATTTCTTCTATGCTCTTCTCAGAAAGATCAAAGACTTTAATACT
0.1462530391074739 TCCAGGTCTCTTTAGCTCCGCCCCCTGGTGAGGGGCGTGGCCTCCTCAGGGCCGGGGCGTGGCCCAACCGGGAACTGGGGCGTCGAACTCCCCTTCCCAGTCTGGAGCCACCCATTCCAGGCGGGGCGGGAGGCTGATCACGTGACCAGCGAGCGGTCTCACCCTCCTCATATGCCAGTACCACCTCCTCCAGTCCCAGAGGGGGGATGTCTTACTCCTTTCCGTGAAGCAAACCC
0.07964696397760229 GCTGGGCTCAGCTGGGTCGGCGCGGCTCCGGGCGGCTAGCTCGCTCCGGCTTCAGCACGCTGGACAGCGCCCGCGCCTCCACCGCCTTATAAAGGGGAGCGCGCGGGGTCACGTGGGCGCGCCCCGCCCCATTGACGTCAATGTTCATTCATGGGGAAGCGGGCGGCCGCCCGGAGGAGGAAGGACGCCCGACGATTGGAGGGTGCCTGCCTCTCCCGGCCTGCGCCTGCGCGCTG
0.5515125412694046 CTCCTCCGGTTTAAGCACCGCCTTTTCGGGGGTTGAAGCCGGAAGTGGCGCACAGCCCTAGCAGCAACAACAGTTTTCCACGTGCGCGTAGGGCGCCGGGATCACGTGGGGAGGCAGAAGCCAATGGGGAAGCGTTTCGTGTAGGTCTTCTGAGGTGGTGGCGCCAGCGGCTACCTCCTGCCTGTGAGGAGCTGGCTGAGAGGGGACTGGGCGCCGGCGGGGAAGGAGGAGCGCTA
0.5448796345959035 ACTAAACAACCACCATATTCATCAGTGGCAACAATTCTTGTAAACAAGAAACGCTGAATACAAAGGCTTTGTGAAATCCTGCCCCCAAGAGGCCACATGTCTAAAGTCAGTCACGTGGTCCTCAGAAATGATTTTAGAAGTCTCAGTAAAGAAAAATTACAGAGACACTCAAATATCCTAGTGTGATACTGCTGTAAAACTTCTTCTAATTTTTTGTTAAGCTGTGAGAAAGGGCC
1 AGCATCCTGCCTCATTTCCTCCTAGGCAGCGAGCTGAGTCACTTTCTGATGGGGGCAGCTGCTACTGGGGATCCCCATCCCCTAGCTTCACCGATCAGTCATGTGGGACAGCTGTCAGGTGTTTTTCTTCACCCCAACCTGATGCTTCTATTAACCTCATACTCATGTAGTCCACATGGAGTTCAGAAGGGACAGATTTAAGTTTTAAGTTCAGATTCAGTACCTGTGCAGGTTTG
0.5637131776770454 CCACTGAAGTTTGGAAGGGTGTTGAGTTCTCAATATCACAAAGAAAAATAAAGCCACTTCCAGCCTGGAGCCGCCGCTTCTCCTTTAAATACTCGCTCACGTGATCGCAGACGGGCACGCGCGGAGGAACTTCACGCTGTCAGGACAACGAGCCATTCCTCTACCACTTCCCCTCCCCTAAGGCTTCTTGGCGTTCCCTCCCCGGAAGTCACAACTCCTCTGGAGACTTTCTCTTC
0.3397852303041333 AGGTGGCGTAGTTTCTCTTCCTCCCACCTCTTCTCACTCACTTGTTTTTGTAGCCGTGGGCTCCCCTAATGCTTTCCTCTCCACAATGTTGTTTCATTATATCATGTCCATCATGTGACACCAGAGAGGCCTCTCTATGGAAACTTAAAGGGGCTCCCACGTGACTGCAGCAGCAACAACAGCAGCAGGACTGGCGGCGGCGGCCGCAGCGGCGTCCGTACCTCCACCCACCGGGA
0.4556666513841275 CGTTCAACGTCCGGAGCATCGGTGCAGTTTCGAGGGTAAAGCCTTTGGCGCGGTGATGTGGACTTTTGTTCTCTAACTACAACTCCCAGCATACGTCACCCCTCACGTGGGCGCTAGGTGTGGTTTCGTGGGATAGGGTAAGGCGAAAATGAAGTGACGATGACGTACCAAAGAGGAAAATAGTTGAATATGTTGTGTGAGCGCGTCGTTTGCAGAAGCCCCAGTGGCCTAATGGA
0.09202750659893069 GGTCAGCTTGGCTCCGCTGCCCGCCTCCCCCGCCGCCAGCTCACCCCTGGCGGTGCGACCAGGGTTTCCGGACGCCCACGTGACCCTCCCGTCGCGGGGCACGCTGGGAGTTGTAGTCCCGCCACGCGGCCTCACCTGCCGGCGCGGAGGAGGGCGAGGAGGGCGGAGGCTGGGAGCCCACAGAACTCTGCTGCTGCGGACCTGGCCAGTAATGTTAGCTGCAAAAGACGAGAGGT
1 CTGTTGGATTTGAACCTTTAGCCTGATTTGAAAATAAAGATAGTCCTCAGGCTGTTTCTGGAATAAATGTGAAGTGTTAACAGAACAGCACCAGGTCACATGGTTTCTCCACCTGATGAGGCCATCCGTCCTGTTCATGGCCCTTGGTCGCCCCCTGCTGGCTGGATAGACCCAGACCCTCCAGGAAGAGCTCCTTAGAAAGAGCTCACCAGCTGGGGCTGCACCTGATCCCATCC
0.8209968247171786 AGTCACACGCAAGAGTTCGTTCCCGGCGCGCGCGTCAGCCTGACTCGAGCGTCTCCACGTCCGGGGCCCGCAGGGGAGCGCCCCTGCCCCGTCCGGTCGCTTGTTGTGTTGTCATCACGTGGCCTGGGCGGGCCCTGACGTCAGGGGCAGGGGAGGGACGGCGCAGGCGCAGAAAAGGGGGCGGCGGACTCGGCTTGTTGTGTTGCTGCCTGAGTGCCGGAGACGGTCCTGCTGCT
1 TAAGAGAAACAAAACCAAAAAACCCCACTTGTTTCAGCAATGCCCTGTTGTCTTCCTCTGTGTGAAATTGCTCAACTAAGAGTTATGCAAATGGGGATGCGGCACGTGGTGGAGGCTTCTTGCAGCATGTTGATGGGGGACCAAGACCTGGTCTTGCCTCTTCCTCCTCCCCCTGCTGGCTTCATTCCGGTCATACCAGCTCCTGCTGTGGCCATCAGCTCATCCCAGGACCTTGG
0.6548538318556741 GCAGTTTTGCACTGATTTGATAAAAGAAACCACAAAACACTGCAGCGCAGGTGTTGAGAATGTTTGAAAGCTGATTGAGGGAAGCAGATGGCTTTAGTCAGTGGCATCCAGCCAAAAGAGCAGGTGCTGGTCATGTGACCGCTGGTTACCAGGGTAATCTGATTGCTCTTGGCGTGCAGATGAAAGGAAAGGGGCCCAGTGTTCAGCTGTAGTATTGTATAATTTGTGGCAGTTAG
0.6017735347634486 TTTTTTCCAGGATTTTATAATTTTCTCTTTAGTAAAAGTACCATTGAAAGTAAAGTGTTTTTTTAAAAAGTGTGTTTTGTATTAATATGGAACAGTGCAGTCAGCTGACTGAAACATTATGACATTAGTCATGTGACATTTAGTTAAGTATAGAACAATAACTGCTTTCTTGGGATAGTGCCAATTAAATAACATCAGAGCAAATTATATATAACATTTTGTAGTGCTTGAAATTA
0.6997043536969635 ACTCTACCAGAAAACTCTATAAAATTAGAAAATTGTCCTGTTTTCTGTTATTTTGTATACTTTGTATCAGTAGCACATGCCCCTCCATCATGTACTGGGTTTCTAAGGGTCACGTGTCTGCAGTTTACTGAATTTGATCACTAGATGGCACTCTTGTATCCTTAATTAAATAAACACAATTTTCCTTGTTTTCAAACATTAGGGTGAATATTCAAACTTCTAATTAACTGAATTTC
1 GAGAGAGAGAGAGAGAGAGAGAGAGAGAGAGAGACAGAGACAGAGAGAAAGAGAGAGAGAGAGGGCAAGAGCGAGAGACAGAGAGAGAGAGAGAGAGAGAGAGAGAGAGAGAGAGAGAGAGAGAGAGAGAGAGAGAAAGAGAAAGAAAACGAGCGAGGGAGAGAGCGAGAGCGAGAGAGAGAGAGAGAGAGCGTCACACACACATCTCTGCCGGAAGTGATGTCACGGCATGGGCG
1 CGCCGTCGGGCCCCGCTGCCCCGCCCCGGGCCGCGCCAGGCCGGGCCCCACCAATCGGCGGTGCGGGGGCCCCGGGGCCGCCCTGCGAGAGGTTGTCACCAACGCACGTGACCTGGCGCCCGGCCGGCGGCGCGCTCAGCTCCGAAACAAGCCCGGGCAACAAAAACCGGGAGCTGAGCGTGAAGGCCTGGGCGAGCGGAAGGGTGGGAGAGAGGGGCTAGGCCGGGGAGGGAAGC
